{"learner":{"attributes":{},"feature_names":["numTasks_sum","duration_sum","duration_max","duration_min","duration_mean","input_recordsRead_sum","output_recordsWritten_sum","peakExecutionMemory_max","resultSerializationTime_sum","resultSize_max","sr_localBlocksFetched_sum","sr_remoteBlocksFetched_sum","sw_recordsWritten_sum","sqlOp_AQEShuffleRead","sqlOp_BroadcastExchange","sqlOp_BroadcastHashJoin","sqlOp_ColumnarToRow","sqlOp_Exchange","sqlOp_Execute InsertIntoHadoopFsRelationCommand","sqlOp_Expand","sqlOp_Filter","sqlOp_HashAggregate","sqlOp_Project","sqlOp_Scan csv ","sqlOp_Scan orc ","sqlOp_Scan parquet ","sqlOp_Sort","sqlOp_SortAggregate","sqlOp_SortMergeJoin","numExecutors","executorCores","maxMem","maxOnHeapMem","maxOffHeapMem","executorMemory","numGpusPerExecutor","executorOffHeap","taskCpu","taskGpu","cache_hit_ratio","scan_bw","scan_time","decode_time","data_size","shuffle_read_bw","shuffle_write_bw","diskBytesSpilledRatio","memoryBytesSpilledRatio","input_bytesReadRatio","output_bytesWrittenRatio","sr_localBytesReadRatio","sr_remoteBytesReadRatio","sr_remoteBytesReadToDiskRatio","sr_totalBytesReadRatio","sw_bytesWrittenRatio","diskBytesSpilled_mean","memoryBytesSpilled_mean","input_bytesRead_mean","output_bytesWritten_mean","sr_localBytesRead_mean","sr_remoteBytesRead_mean","sr_remoteBytesReadToDisk_mean","sr_totalBytesRead_mean","sw_bytesWritten_mean","executorCPUTime_mean","executorDeserializeCPUTime_mean","executorDeserializeTime_mean","executorRunTime_mean","jvmGCTime_mean","sr_fetchWaitTime_mean","sw_writeTime_mean","platform_dataproc","platform_databricks-aws","platform_databricks-azure","platform_emr","platform_onprem","sqlOp_BatchEvalPython","sqlOp_BroadcastNestedLoopJoin","sqlOp_CartesianProduct","sqlOp_CommandResult","sqlOp_CustomShuffleReader","sqlOp_DeserializeToObject","sqlOp_Generate","sqlOp_GenerateBloomFilter","sqlOp_GlobalLimit","sqlOp_HashAggregatePrefixGroupingSets","sqlOp_LocalLimit","sqlOp_LocalTableScan","sqlOp_MapElements","sqlOp_ObjectHashAggregate","sqlOp_OutputAdapter","sqlOp_PartialWindow","sqlOp_ReusedSort","sqlOp_RunningWindowFunction","sqlOp_Scan ExistingRDD Delta Table Checkpoint","sqlOp_Scan ExistingRDD Delta Table State","sqlOp_Scan JDBCRelation","sqlOp_Scan OneRowRelation","sqlOp_Scan json ","sqlOp_Scan text ","sqlOp_SerializeFromObject","sqlOp_Subquery","sqlOp_SubqueryBroadcast","sqlOp_SubqueryOutputBroadcast","sqlOp_TakeOrderedAndProject","sqlOp_Window","sqlOp_WindowGroupLimit","sqlOp_WindowSort"],"feature_types":["float","float","float","float","float","float","float","float","float","float","float","float","float","float","float","float","float","float","float","float","float","float","float","float","float","float","float","float","float","float","float","float","float","float","float","float","float","float","float","float","float","float","float","float","float","float","float","float","float","float","float","float","float","float","float","float","float","float","float","float","float","float","float","float","float","float","float","float","float","float","float","float","float","float","float","float","float","float","float","float","float","float","float","float","float","float","float","float","float","float","float","float","float","float","float","float","float","float","float","float","float","float","float","float","float","float","float","float"],"gradient_booster":{"model":{"gbtree_model_param":{"num_parallel_tree":"1","num_trees":"100"},"iteration_indptr":[0,1,2,3,4,5,6,7,8,9,10,11,12,13,14,15,16,17,18,19,20,21,22,23,24,25,26,27,28,29,30,31,32,33,34,35,36,37,38,39,40,41,42,43,44,45,46,47,48,49,50,51,52,53,54,55,56,57,58,59,60,61,62,63,64,65,66,67,68,69,70,71,72,73,74,75,76,77,78,79,80,81,82,83,84,85,86,87,88,89,90,91,92,93,94,95,96,97,98,99,100],"tree_info":[0,0,0,0,0,0,0,0,0,0,0,0,0,0,0,0,0,0,0,0,0,0,0,0,0,0,0,0,0,0,0,0,0,0,0,0,0,0,0,0,0,0,0,0,0,0,0,0,0,0,0,0,0,0,0,0,0,0,0,0,0,0,0,0,0,0,0,0,0,0,0,0,0,0,0,0,0,0,0,0,0,0,0,0,0,0,0,0,0,0,0,0,0,0,0,0,0,0,0,0],"trees":[{"base_weights":[-4.9450235E-3,-2.707675E-1,5.759666E-1,-4.6520647E-1,-7.881129E-3,3.5041228E-1,9.6099025E-1,-5.5354506E-1,-3.5413626E-1,-7.236843E-2,1.0339828E0,4.934093E-1,5.4296136E-2,9.222289E-2,8.859236E-1,-4.653499E-1,-6.4587784E-1,-2.030757E-1,-4.0350446E-1,1.1349643E-2,-3.3997875E-1,3.0288648E-2,5.604722E-2,5.3754616E-1,-2.550414E-2,-1.7237276E-1,9.879459E-2,7.017802E-1,1.2550591E0,-2.9673358E-2,-3.9715552E-1,-6.133303E-1,-8.108285E-1,-2.7194744E-1,5.7964404E-3,-3.462794E-1,-4.9848658E-1,-2.7107323E-2,3.0137467E-1,-4.470017E-1,-1.7550892E-1,4.906553E-1,1.0398104E0,-1.1067466E-2,-4.3611536E-3,9.11384E-3,1.8029428E-1,7.6830876E-1,-2.4690013E-3,9.5371556E-1,1.496638E0,-1.2175666E-2,-2.1197462E-2,-3.6678802E-2,-2.747823E-2,-2.2749184E-2,-5.1066488E-2,-5.975221E-3,-1.5028639E-2,-1.0155655E-3,-1.7679017E-2,-1.4736138E-2,-2.6770664E-2,-8.51332E-3,4.0136126E-4,3.9640315E-2,7.641114E-3,-3.5928562E-2,-1.8913254E-2,-1.0984657E-2,4.3169847E-3,3.6207918E-2,1.9116176E-2,5.992997E-2,3.0311596E-2,6.144791E-3,-5.6503355E-3,1.5314113E-2,5.692082E-3,4.73007E-2,2.5575964E-2,2.659723E-2,5.035576E-2,4.791123E-2,8.0820635E-2],"categories":[],"categories_nodes":[],"categories_segments":[],"categories_sizes":[],"default_left":[0,0,0,0,0,0,0,0,0,0,0,0,0,0,0,0,0,0,0,0,0,0,0,0,0,0,0,0,0,0,0,0,0,0,0,0,0,0,0,0,0,0,0,0,0,0,0,0,0,0,0,0,0,0,0,0,0,0,0,0,0,0,0,0,0,0,0,0,0,0,0,0,0,0,0,0,0,0,0,0,0,0,0,0,0],"id":0,"left_children":[1,3,5,7,9,11,13,15,17,19,21,23,25,-1,27,29,31,33,35,37,39,-1,-1,41,-1,43,45,47,49,-1,51,53,55,57,-1,59,61,63,65,67,69,71,73,-1,-1,75,77,79,-1,81,83,-1,-1,-1,-1,-1,-1,-1,-1,-1,-1,-1,-1,-1,-1,-1,-1,-1,-1,-1,-1,-1,-1,-1,-1,-1,-1,-1,-1,-1,-1,-1,-1,-1,-1],"loss_changes":[1.8051778E2,4.099085E1,3.1534912E1,4.327194E0,2.3052778E1,9.839296E0,7.957405E0,1.7759857E0,1.4617805E0,7.2402925E0,3.1477165E-1,7.370426E0,7.936834E-1,0E0,7.7519073E0,1.1291847E0,1.5768051E-1,1.2129741E0,6.6986275E-1,2.7630796E0,1.2769051E0,0E0,0E0,3.0461006E0,0E0,4.0175498E-2,4.7343874E-1,4.3977623E0,1.5573578E0,0E0,4.7462463E-1,2.4243164E-1,9.325056E-1,2.2095156E-1,0E0,6.600456E-1,4.4499397E-1,1.1618729E0,2.028092E0,4.5680523E-1,4.6495414E-1,3.1324348E0,2.2208214E-1,0E0,0E0,4.9358624E-1,2.5311732E-1,3.530777E0,0E0,1.9215202E-1,2.3549652E-1,0E0,0E0,0E0,0E0,0E0,0E0,0E0,0E0,0E0,0E0,0E0,0E0,0E0,0E0,0E0,0E0,0E0,0E0,0E0,0E0,0E0,0E0,0E0,0E0,0E0,0E0,0E0,0E0,0E0,0E0,0E0,0E0,0E0,0E0],"parents":[2147483647,0,0,1,1,2,2,3,3,4,4,5,5,6,6,7,7,8,8,9,9,10,10,11,11,12,12,14,14,15,15,16,16,17,17,18,18,19,19,20,20,23,23,25,25,26,26,27,27,28,28,30,30,31,31,32,32,33,33,35,35,36,36,37,37,38,38,39,39,40,40,41,41,42,42,45,45,46,46,47,47,49,49,50,50],"right_children":[2,4,6,8,10,12,14,16,18,20,22,24,26,-1,28,30,32,34,36,38,40,-1,-1,42,-1,44,46,48,50,-1,52,54,56,58,-1,60,62,64,66,68,70,72,74,-1,-1,76,78,80,-1,82,84,-1,-1,-1,-1,-1,-1,-1,-1,-1,-1,-1,-1,-1,-1,-1,-1,-1,-1,-1,-1,-1,-1,-1,-1,-1,-1,-1,-1,-1,-1,-1,-1,-1,-1],"split_conditions":[2.1975278E8,8.0377E4,1.375746E9,3.29E2,3.2784192E3,2.1649544E1,1.035048E6,3.6084E5,2.8621706E1,2.9882002E1,1E0,4.4533052E0,8.2138925E5,9.222289E-2,1.4864192E0,7.924718E6,3.238887E2,2.2762773E2,4.390582E-5,1.530655E3,4.702E3,3.0288648E-2,5.604722E-2,2.5956E4,-2.550414E-2,2.0817201E4,3.542592E-2,8.8562695E2,7.023494E1,-2.9673358E-2,9.62963E-1,2.31E2,6.4897957E0,1.5625E4,5.7964404E-3,1.6579688E2,6.2451363E0,3.2952972E2,9.08912E5,6.714161E7,7.751E3,4.6153847E-2,3.5E1,-1.1067466E-2,-4.3611536E-3,4.2E2,1.171762E8,4.949877E6,-2.4690013E-3,6.0362153E9,2.1678066E0,-1.2175666E-2,-2.1197462E-2,-3.6678802E-2,-2.747823E-2,-2.2749184E-2,-5.1066488E-2,-5.975221E-3,-1.5028639E-2,-1.0155655E-3,-1.7679017E-2,-1.4736138E-2,-2.6770664E-2,-8.51332E-3,4.0136126E-4,3.9640315E-2,7.641114E-3,-3.5928562E-2,-1.8913254E-2,-1.0984657E-2,4.3169847E-3,3.6207918E-2,1.9116176E-2,5.992997E-2,3.0311596E-2,6.144791E-3,-5.6503355E-3,1.5314113E-2,5.692082E-3,4.73007E-2,2.5575964E-2,2.659723E-2,5.035576E-2,4.791123E-2,8.0820635E-2],"split_indices":[7,1,7,2,64,65,1,5,64,65,21,69,57,0,51,43,45,67,51,64,2,0,0,2,0,45,50,70,68,0,65,2,66,57,0,67,66,4,1,7,2,70,8,0,0,0,12,9,0,5,54,0,0,0,0,0,0,0,0,0,0,0,0,0,0,0,0,0,0,0,0,0,0,0,0,0,0,0,0,0,0,0,0,0,0],"split_type":[0,0,0,0,0,0,0,0,0,0,0,0,0,0,0,0,0,0,0,0,0,0,0,0,0,0,0,0,0,0,0,0,0,0,0,0,0,0,0,0,0,0,0,0,0,0,0,0,0,0,0,0,0,0,0,0,0,0,0,0,0,0,0,0,0,0,0,0,0,0,0,0,0,0,0,0,0,0,0,0,0,0,0,0,0],"sum_hessian":[1.167E3,8.01E2,3.66E2,4.6E2,3.41E2,2.32E2,1.34E2,2.54E2,2.06E2,3.22E2,1.9E1,1.56E2,7.6E1,8E0,1.26E2,1.33E2,1.21E2,5.2E1,1.54E2,2.46E2,7.6E1,6E0,1.3E1,1.5E2,6E0,1.2E1,6.4E1,8.6E1,4E1,3.9E1,9.4E1,1.05E2,1.6E1,4.3E1,9E0,9.9E1,5.5E1,2.18E2,2.8E1,4.5E1,3.1E1,1.39E2,1.1E1,6E0,6E0,3.1E1,3.3E1,7.9E1,7E0,2E1,2E1,2.3E1,7.1E1,2E1,8.5E1,8E0,8E0,1E1,3.3E1,6E0,9.3E1,1.4E1,4.1E1,4.1E1,1.77E2,5E0,2.3E1,5E0,4E1,2.6E1,5E0,3.5E1,1.04E2,6E0,5E0,1.6E1,1.5E1,9E0,2.4E1,4E1,3.9E1,5E0,1.5E1,7E0,1.3E1],"tree_param":{"num_deleted":"0","num_feature":"108","num_nodes":"85","size_leaf_vector":"1"}},{"base_weights":[5.276526E-3,-2.549632E-1,6.1224765E-1,-3.1105247E-1,5.69285E-1,4.1634944E-1,9.6133316E-1,-4.4659066E-1,-1.1515168E-1,3.5583875E-1,4.705922E-2,5.801294E-1,1.1892864E-1,8.3453953E-1,7.139225E-2,-5.098277E-1,-3.5765368E-1,-4.9306583E-2,-3.6698577E-1,7.620479E-1,1.7716691E-1,6.1676866E-1,-1.937521E-2,6.1161295E-2,4.1434813E-2,8.023312E-2,7.2089034E-1,-4.1929364E-1,-5.99932E-1,-1.2362533E-1,-4.0399092E-1,-2.2489296E-1,-1.50949005E-2,-3.9530924E-1,-3.2648337E-3,4.972445E-2,1.7609928E-2,-4.4245943E-3,3.1675243E-1,8.469857E-1,5.270935E-1,-1.03080206E-1,1.1488911E-1,2.9945913E-1,8.437948E-1,-2.7034521E-2,-1.7626341E-2,-2.64758E-2,-3.2554712E-2,-1.6361978E-2,-2.7120128E-4,-6.7025656E-3,-2.025643E-2,-2.7649961E-3,-1.8053312E-2,1.8196924E-3,-6.845373E-3,-3.1179473E-2,-1.741287E-2,1.0320651E-2,2.343742E-2,1.853259E-2,4.6890453E-2,1.4269369E-2,3.2661997E-2,9.4768597E-4,-9.894402E-3,1.169115E-3,8.416819E-3,2.062291E-2,-6.5429825E-3,3.194356E-2,4.7454365E-2],"categories":[],"categories_nodes":[],"categories_segments":[],"categories_sizes":[],"default_left":[0,0,0,0,0,0,0,0,0,0,0,0,0,0,0,0,0,0,0,0,0,0,0,0,0,0,0,0,0,0,0,0,0,0,0,0,0,0,0,0,0,0,0,0,0,0,0,0,0,0,0,0,0,0,0,0,0,0,0,0,0,0,0,0,0,0,0,0,0,0,0,0,0],"id":1,"left_children":[1,3,5,7,9,11,13,15,17,19,-1,21,23,25,-1,27,29,31,33,35,37,39,-1,41,-1,-1,43,45,47,49,51,53,55,57,-1,-1,-1,-1,59,61,63,65,67,69,71,-1,-1,-1,-1,-1,-1,-1,-1,-1,-1,-1,-1,-1,-1,-1,-1,-1,-1,-1,-1,-1,-1,-1,-1,-1,-1,-1,-1],"loss_changes":[1.900216E2,3.9103985E1,2.4286804E1,2.0898132E1,4.345104E0,1.1280804E1,7.268303E0,2.4384995E0,5.354486E0,2.5503817E0,0E0,5.645649E0,3.5420315E0,8.800919E0,0E0,1.9509811E0,2.0863724E0,1.5464383E0,5.4109097E-1,7.996564E-1,1.042778E0,2.5470467E0,0E0,7.089653E-1,0E0,0E0,4.6679153E0,8.419628E-1,1.3722992E-1,8.641128E-1,6.497307E-1,1.0317011E0,1.4611481E0,2.8840733E-1,0E0,0E0,0E0,0E0,2.0901501E-1,1.8970108E0,3.522005E0,2.54958E-1,3.2066393E-1,1.3437252E0,1.2081108E0,0E0,0E0,0E0,0E0,0E0,0E0,0E0,0E0,0E0,0E0,0E0,0E0,0E0,0E0,0E0,0E0,0E0,0E0,0E0,0E0,0E0,0E0,0E0,0E0,0E0,0E0,0E0,0E0],"parents":[2147483647,0,0,1,1,2,2,3,3,4,4,5,5,6,6,7,7,8,8,9,9,11,11,12,12,13,13,15,15,16,16,17,17,18,18,19,19,20,20,21,21,23,23,26,26,27,27,28,28,29,29,30,30,31,31,32,32,33,33,38,38,39,39,40,40,41,41,42,42,43,43,44,44],"right_children":[2,4,6,8,10,12,14,16,18,20,-1,22,24,26,-1,28,30,32,34,36,38,40,-1,42,-1,-1,44,46,48,50,52,54,56,58,-1,-1,-1,-1,60,62,64,66,68,70,72,-1,-1,-1,-1,-1,-1,-1,-1,-1,-1,-1,-1,-1,-1,-1,-1,-1,-1,-1,-1,-1,-1,-1,-1,-1,-1,-1,-1],"split_conditions":[2.4118635E8,1.5770851E3,1.440108E9,8.0377E4,3.2784192E3,1.5451831E1,7.765071E0,3.29E2,3.529313E1,2.2174824E10,4.705922E-2,3.9457364E0,1.3623E4,1.138896E6,7.139225E-2,3.6084E5,2.935286E4,7.53E2,9.54947E5,6.648E3,1.712975E6,2.5841085E1,-1.937521E-2,1.6858337E3,4.1434813E-2,8.023312E-2,6.1430348E4,7.924718E6,2.8690142E1,4.1450778E-1,7.338501E-1,8.127132E1,1.8723732E7,1E0,-3.2648337E-3,4.972445E-2,1.7609928E-2,-4.4245943E-3,5.350295E5,2.7682397E8,2.6919386E-1,1E0,6.7842746E8,1.4200303E4,5.5207E4,-2.7034521E-2,-1.7626341E-2,-2.64758E-2,-3.2554712E-2,-1.6361978E-2,-2.7120128E-4,-6.7025656E-3,-2.025643E-2,-2.7649961E-3,-1.8053312E-2,1.8196924E-3,-6.845373E-3,-3.1179473E-2,-1.741287E-2,1.0320651E-2,2.343742E-2,1.853259E-2,4.6890453E-2,1.4269369E-2,3.2661997E-2,9.4768597E-4,-9.894402E-3,1.169115E-3,8.416819E-3,2.062291E-2,-6.5429825E-3,3.194356E-2,4.7454365E-2],"split_indices":[7,64,7,1,64,65,47,2,65,43,0,69,2,1,0,5,57,2,1,2,1,60,0,4,0,0,45,43,60,68,65,64,57,14,0,0,0,0,59,7,51,24,7,4,2,0,0,0,0,0,0,0,0,0,0,0,0,0,0,0,0,0,0,0,0,0,0,0,0,0,0,0,0],"split_type":[0,0,0,0,0,0,0,0,0,0,0,0,0,0,0,0,0,0,0,0,0,0,0,0,0,0,0,0,0,0,0,0,0,0,0,0,0,0,0,0,0,0,0,0,0,0,0,0,0,0,0,0,0,0,0,0,0,0,0,0,0,0,0,0,0,0,0,0,0,0,0,0,0],"sum_hessian":[1.201E3,8.41E2,3.6E2,7.88E2,5.3E1,2.32E2,1.28E2,4.65E2,3.23E2,3.6E1,1.7E1,1.49E2,8.3E1,1.05E2,2.3E1,2.69E2,1.96E2,2.57E2,6.6E1,1E1,2.6E1,1.44E2,5E0,7.8E1,5E0,1.1E1,9.4E1,1.37E2,1.32E2,3.3E1,1.63E2,4.1E1,2.16E2,6E1,6E0,5E0,5E0,9E0,1.7E1,3.8E1,1.06E2,1.9E1,5.9E1,2.2E1,7.2E1,3.5E1,1.02E2,8.4E1,4.8E1,1.1E1,2.2E1,1E1,1.53E2,2E1,2.1E1,1.53E2,6.3E1,5E0,5.5E1,1.2E1,5E0,9E0,2.9E1,4.3E1,6.3E1,9E0,1E1,2.4E1,3.5E1,1.7E1,5E0,3.4E1,3.8E1],"tree_param":{"num_deleted":"0","num_feature":"108","num_nodes":"73","size_leaf_vector":"1"}},{"base_weights":[-1.2332841E-2,-2.3243225E-1,5.282313E-1,-2.8640696E-1,5.6473136E-1,3.390328E-1,8.805873E-1,-4.0927118E-1,-9.381687E-2,2.979898E-1,4.7348406E-2,5.25189E-1,1.2013187E-1,7.746528E-2,8.0848455E-1,-4.5800185E-1,-2.3744127E-1,-5.0089867E-3,-3.4306058E-1,2.9814245E-2,1.800827E-1,-2.3795823E-2,5.811825E-1,7.1248144E-2,3.895666E-2,3.4993073E-1,9.554208E-1,-5.094427E-1,-3.7734285E-1,-3.8382435E-1,-1.01920195E-1,4.0037524E-2,-1.5234286E-1,-3.943668E-1,-3.646038E-2,2.581482E-1,-3.8479853E-3,4.036811E-1,7.840789E-1,-1.03359915E-1,1.2701377E-1,-1.8438937E-3,4.3239748E-1,8.206602E-1,6.6527374E-2,-2.3592994E-2,-3.460516E-2,-9.538138E-3,-1.9490125E-2,-9.108919E-3,-2.1636086E-2,-9.5274495E-3,1.2151699E-2,-3.5794557E-5,1.3572562E-2,4.972701E-3,-9.544333E-3,-3.4773473E-2,-1.6739203E-2,1.4202069E-3,-5.700991E-3,4.4421637E-3,1.4664014E-2,2.7875742E-2,1.3847333E-2,5.125167E-2,2.69329E-2,-1.5383859E-3,-1.0931823E-2,1.130674E-3,1.0253758E-2,1.4998871E-2,2.637947E-2,3.12404E-2,4.5448128E-2],"categories":[],"categories_nodes":[],"categories_segments":[],"categories_sizes":[],"default_left":[0,0,0,0,0,0,0,0,0,0,0,0,0,0,0,0,0,0,0,0,0,0,0,0,0,0,0,0,0,0,0,0,0,0,0,0,0,0,0,0,0,0,0,0,0,0,0,0,0,0,0,0,0,0,0,0,0,0,0,0,0,0,0,0,0,0,0,0,0,0,0,0,0,0,0],"id":2,"left_children":[1,3,5,7,9,11,13,15,17,19,-1,21,23,-1,25,27,29,31,33,-1,35,-1,37,39,-1,41,43,45,47,49,51,53,55,57,59,61,-1,63,65,67,69,-1,71,73,-1,-1,-1,-1,-1,-1,-1,-1,-1,-1,-1,-1,-1,-1,-1,-1,-1,-1,-1,-1,-1,-1,-1,-1,-1,-1,-1,-1,-1,-1,-1],"loss_changes":[1.4432394E2,3.7250736E1,2.3100937E1,1.9080849E1,5.8349094E0,9.309355E0,5.0929947E0,4.0193253E0,6.992879E0,1.2116828E0,0E0,7.3614807E0,3.5418751E0,0E0,7.279396E0,1.3968964E0,2.1628976E0,1.5591285E0,1.2912531E0,0E0,5.684674E-1,0E0,3.9331818E0,9.96578E-1,0E0,9.449098E-1,3.7345505E0,6.083832E-1,6.625614E-1,5.872898E-1,2.050169E0,1.7734597E0,6.625079E-1,8.42288E-1,7.3615804E-2,1.32671E-1,0E0,1.1552515E0,2.8033981E0,2.132603E-1,6.7864156E-1,0E0,1.639781E-1,8.02227E-1,0E0,0E0,0E0,0E0,0E0,0E0,0E0,0E0,0E0,0E0,0E0,0E0,0E0,0E0,0E0,0E0,0E0,0E0,0E0,0E0,0E0,0E0,0E0,0E0,0E0,0E0,0E0,0E0,0E0,0E0,0E0],"parents":[2147483647,0,0,1,1,2,2,3,3,4,4,5,5,6,6,7,7,8,8,9,9,11,11,12,12,14,14,15,15,16,16,17,17,18,18,20,20,22,22,23,23,25,25,26,26,27,27,28,28,29,29,30,30,31,31,32,32,33,33,34,34,35,35,37,37,38,38,39,39,40,40,42,42,43,43],"right_children":[2,4,6,8,10,12,14,16,18,20,-1,22,24,-1,26,28,30,32,34,-1,36,-1,38,40,-1,42,44,46,48,50,52,54,56,58,60,62,-1,64,66,68,70,-1,72,74,-1,-1,-1,-1,-1,-1,-1,-1,-1,-1,-1,-1,-1,-1,-1,-1,-1,-1,-1,-1,-1,-1,-1,-1,-1,-1,-1,-1,-1,-1,-1],"split_conditions":[2.684354E8,1.530655E3,1.440108E9,8.3409E4,4.197798E3,1.0596466E1,1.138896E6,2.0967E4,9.5517746E1,2.333119E1,4.7348406E-2,2.4205925E0,3.33069E3,7.746528E-2,9.9515266E4,8.412278E3,1.3010467E8,1.8237956E7,9.54947E5,2.9814245E-2,6.321531E1,-2.3795823E-2,5.2452653E8,1.6858337E3,3.895666E-2,3.2343243E1,7.765071E0,1.477381E3,3.7501616E3,4.9347E4,8.756142E7,8.020625E2,3.1E1,6.714161E7,5.60472E5,1.7076351E3,-3.8479853E-3,9.587034E-6,7.7E2,1.8552875E-2,9.606877E-2,-1.8438937E-3,1.9795151E9,6.6993E4,6.6527374E-2,-2.3592994E-2,-3.460516E-2,-9.538138E-3,-1.9490125E-2,-9.108919E-3,-2.1636086E-2,-9.5274495E-3,1.2151699E-2,-3.5794557E-5,1.3572562E-2,4.972701E-3,-9.544333E-3,-3.4773473E-2,-1.6739203E-2,1.4202069E-3,-5.700991E-3,4.4421637E-3,1.4664014E-2,2.7875742E-2,1.3847333E-2,5.125167E-2,2.69329E-2,-1.5383859E-3,-1.0931823E-2,1.130674E-3,1.0253758E-2,1.4998871E-2,2.637947E-2,3.12404E-2,4.5448128E-2],"split_indices":[7,64,7,1,64,65,1,9,66,68,0,66,64,0,45,40,43,57,1,0,68,0,7,4,0,68,47,45,57,9,7,64,3,7,9,64,0,50,0,69,50,0,7,2,0,0,0,0,0,0,0,0,0,0,0,0,0,0,0,0,0,0,0,0,0,0,0,0,0,0,0,0,0,0,0],"split_type":[0,0,0,0,0,0,0,0,0,0,0,0,0,0,0,0,0,0,0,0,0,0,0,0,0,0,0,0,0,0,0,0,0,0,0,0,0,0,0,0,0,0,0,0,0,0,0,0,0,0,0,0,0,0,0,0,0,0,0,0,0,0,0,0,0,0,0,0,0,0,0,0,0,0,0],"sum_hessian":[1.211E3,8.61E2,3.5E2,8.07E2,5.4E1,2.29E2,1.21E2,4.92E2,3.15E2,3.4E1,2E1,1.23E2,1.06E2,9E0,1.12E2,3.82E2,1.1E2,2.33E2,8.2E1,8E0,2.6E1,6E0,1.17E2,1E2,6E0,2.8E1,8.4E1,2.3E2,1.52E2,5.2E1,5.8E1,1.79E2,5.4E1,7E1,1.2E1,2E1,6E0,6.4E1,5.3E1,2.4E1,7.6E1,5E0,2.3E1,6.6E1,1.8E1,2.13E2,1.7E1,2.1E1,1.31E2,1.4E1,3.8E1,4.6E1,1.2E1,1.54E2,2.5E1,8E0,4.6E1,7E0,6.3E1,7E0,5E0,5E0,1.5E1,2.4E1,4E1,2.2E1,3.1E1,1.6E1,8E0,3.5E1,4.1E1,1.3E1,1E1,3E1,3.6E1],"tree_param":{"num_deleted":"0","num_feature":"108","num_nodes":"75","size_leaf_vector":"1"}},{"base_weights":[4.4345437E-3,-2.2119164E-1,5.041519E-1,-2.812604E-1,5.322664E-1,3.2261467E-1,8.0916405E-1,-3.9599687E-1,-9.8656744E-2,8.2450545E-1,2.3252647E-1,4.7680753E-1,1.0874114E-1,7.415568E-2,7.532984E-1,-4.6882138E-1,-3.0344185E-1,-4.5500726E-2,-3.9118123E-1,1.5583135E-2,4.7462244E-2,5.2252936E-1,5.5737842E-2,-2.9200917E-2,5.2206534E-1,5.19634E-2,4.890856E-1,5.941547E-1,1.104475E0,-4.118375E-1,-5.924784E-1,-3.23427E-1,5.659635E-2,-8.877596E-2,8.503592E-2,-3.2170907E-2,-1.6051576E-2,1.0458839E-2,3.4207765E-2,-6.985145E-2,1.7626005E-1,3.8096607E-1,6.873867E-1,-8.9816816E-2,1.05694816E-1,1.4564807E-2,2.9211925E-2,6.425184E-1,3.439732E-3,3.1172257E-2,1.216491E0,-2.4934432E-2,-1.692901E-2,-2.964995E-2,-1.2746754E-2,-1.4316053E-2,-2.772373E-2,-6.8971408E-3,1.3502126E-2,-1.7728556E-3,-7.764643E-3,2.9622253E-5,1.6302928E-2,-6.9538336E-3,7.817759E-4,1.2844721E-2,2.7295777E-3,2.7523803E-2,1.1844658E-2,4.4099253E-2,2.2152774E-2,-1.0797211E-2,-1.5544287E-5,8.8070275E-4,9.153116E-3,2.3812445E-2,4.004362E-2,4.4279244E-2,6.784414E-2],"categories":[],"categories_nodes":[],"categories_segments":[],"categories_sizes":[],"default_left":[0,0,0,0,0,0,0,0,0,0,0,0,0,0,0,0,0,0,0,0,0,0,0,0,0,0,0,0,0,0,0,0,0,0,0,0,0,0,0,0,0,0,0,0,0,0,0,0,0,0,0,0,0,0,0,0,0,0,0,0,0,0,0,0,0,0,0,0,0,0,0,0,0,0,0,0,0,0,0],"id":3,"left_children":[1,3,5,7,9,11,13,15,17,19,21,23,25,-1,27,29,31,33,35,-1,-1,37,39,-1,41,43,45,47,49,51,53,55,57,59,61,-1,-1,-1,-1,63,65,67,69,71,73,-1,-1,75,-1,-1,77,-1,-1,-1,-1,-1,-1,-1,-1,-1,-1,-1,-1,-1,-1,-1,-1,-1,-1,-1,-1,-1,-1,-1,-1,-1,-1,-1,-1],"loss_changes":[1.3665092E2,3.79412E1,2.0613846E1,1.6177235E1,5.239214E0,7.7968597E0,4.5461655E0,3.0593796E0,4.6470323E0,2.171566E0,1.6114901E0,7.078291E0,2.1556904E0,0E0,6.7209244E0,1.6162605E0,1.5437336E0,1.4480453E0,5.1662207E-1,0E0,0E0,5.3242016E-1,3.3017433E-1,0E0,2.84058E0,6.8749976E-1,1.0113692E-1,2.305542E0,1.263977E0,9.9453354E-1,4.4075966E-1,1.1647892E0,5.7581687E-1,7.160913E-1,1.3679602E0,0E0,0E0,0E0,0E0,7.28104E-2,1.0366279E-1,1.7617817E0,2.689682E0,3.0020165E-1,4.7509384E-1,0E0,0E0,1.9657898E0,0E0,0E0,4.7138977E-1,0E0,0E0,0E0,0E0,0E0,0E0,0E0,0E0,0E0,0E0,0E0,0E0,0E0,0E0,0E0,0E0,0E0,0E0,0E0,0E0,0E0,0E0,0E0,0E0,0E0,0E0,0E0,0E0],"parents":[2147483647,0,0,1,1,2,2,3,3,4,4,5,5,6,6,7,7,8,8,9,9,10,10,11,11,12,12,14,14,15,15,16,16,17,17,18,18,21,21,22,22,24,24,25,25,26,26,27,27,28,28,29,29,30,30,31,31,32,32,33,33,34,34,39,39,40,40,41,41,42,42,43,43,44,44,47,47,50,50],"right_children":[2,4,6,8,10,12,14,16,18,20,22,24,26,-1,28,30,32,34,36,-1,-1,38,40,-1,42,44,46,48,50,52,54,56,58,60,62,-1,-1,-1,-1,64,66,68,70,72,74,-1,-1,76,-1,-1,78,-1,-1,-1,-1,-1,-1,-1,-1,-1,-1,-1,-1,-1,-1,-1,-1,-1,-1,-1,-1,-1,-1,-1,-1,-1,-1,-1,-1],"split_conditions":[2.1975278E8,1.530655E3,1.375746E9,8.0377E4,1E0,1.0596466E1,1.6492308E1,3.22E2,1.427E2,8.7573164E4,1.03E2,3.0426357E0,1.2206E4,7.415568E-2,1.4864192E0,8.30084E5,7.423252E4,7.3276154E2,1.791112E7,1.5583135E-2,4.7462244E-2,4.5400515E0,1.12E2,-2.9200917E-2,5.2452653E8,1.6858337E3,2.8343074E3,1.4200303E4,4.7746178E1,1.4854737E7,6.423346E1,2.858938E1,4.06E2,9.61658E0,2.046E3,-3.2170907E-2,-1.6051576E-2,1.0458839E-2,3.4207765E-2,7.102866E4,1.329E6,9.587034E-6,7.77E2,3.5232144E8,9.606877E-2,1.4564807E-2,2.9211925E-2,4.1331047E-1,3.439732E-3,3.1172257E-2,2.1678066E0,-2.4934432E-2,-1.692901E-2,-2.964995E-2,-1.2746754E-2,-1.4316053E-2,-2.772373E-2,-6.8971408E-3,1.3502126E-2,-1.7728556E-3,-7.764643E-3,2.9622253E-5,1.6302928E-2,-6.9538336E-3,7.817759E-4,1.2844721E-2,2.7295777E-3,2.7523803E-2,1.1844658E-2,4.4099253E-2,2.2152774E-2,-1.0797211E-2,-1.5544287E-5,8.8070275E-4,9.153116E-3,2.3812445E-2,4.004362E-2,4.4279244E-2,6.784414E-2],"split_indices":[7,64,7,1,8,65,68,2,66,40,3,66,2,0,51,5,40,64,7,0,0,66,10,0,7,4,64,4,68,43,64,66,2,68,0,0,0,0,0,40,41,50,0,7,50,0,0,47,0,0,54,0,0,0,0,0,0,0,0,0,0,0,0,0,0,0,0,0,0,0,0,0,0,0,0,0,0,0,0],"split_type":[0,0,0,0,0,0,0,0,0,0,0,0,0,0,0,0,0,0,0,0,0,0,0,0,0,0,0,0,0,0,0,0,0,0,0,0,0,0,0,0,0,0,0,0,0,0,0,0,0,0,0,0,0,0,0,0,0,0,0,0,0,0,0,0,0,0,0,0,0,0,0,0,0,0,0,0,0,0,0],"sum_hessian":[1.21E3,8.34E2,3.76E2,7.73E2,6.1E1,2.37E2,1.39E2,4.74E2,2.99E2,3E1,3.1E1,1.37E2,1E2,8E0,1.31E2,2.63E2,2.11E2,2.54E2,4.5E1,8E0,2.2E1,1.1E1,2E1,5E0,1.32E2,8.8E1,1.2E1,9.2E1,3.9E1,1.83E2,8E1,2E2,1.1E1,1.91E2,6.3E1,6E0,3.9E1,5E0,6E0,1E1,1E1,7.3E1,5.9E1,2.4E1,6.4E1,6E0,6E0,8.4E1,8E0,9E0,3E1,6.4E1,1.19E2,7.4E1,6E0,1.83E2,1.7E1,6E0,5E0,1.12E2,7.9E1,4.8E1,1.5E1,5E0,5E0,5E0,5E0,2.9E1,4.4E1,2.8E1,3.1E1,9E0,1.5E1,3.2E1,3.2E1,4.9E1,3.5E1,1.4E1,1.6E1],"tree_param":{"num_deleted":"0","num_feature":"108","num_nodes":"79","size_leaf_vector":"1"}},{"base_weights":[5.104101E-3,-2.0793708E-1,5.068655E-1,-2.6491597E-1,5.201102E-1,3.4742585E-1,8.50126E-1,-3.893873E-1,-1.1924277E-1,3.0191082E-1,9.10961E-1,8.192846E-1,2.5738618E-1,-4.3574437E-3,9.0525705E-1,-4.2829546E-1,-2.4786086E-1,-4.4006232E-2,-3.7543738E-1,6.862659E-1,1.3245663E-1,2.9997898E-2,5.0155513E-2,5.614479E-1,5.8856614E-2,1.571422E-1,4.2637396E-1,7.7500805E-2,8.299427E-1,-4.679153E-1,-3.6326548E-1,-1.3027366E-1,-3.0942893E-1,-1.7739087E-1,-1.6742115E-3,-3.4931257E-2,-3.1517863E-1,4.3267734E-2,1.5671842E-2,-9.6592255E-2,2.580925E-1,1.09503195E-2,3.0539503E-2,9.281808E-2,5.030678E-1,5.607661E-1,3.1332016E-1,7.1336025E-1,4.8030656E-2,-2.3941137E-2,-1.6344732E-2,-1.8086085E-2,-2.9325504E-3,-9.388711E-3,-1.3873487E-3,-1.721208E-2,-3.3175857E-3,-4.1976217E-3,-1.55188665E-2,3.2428857E-3,-5.2677286E-3,-1.6939577E-2,-1.4528937E-3,4.640062E-4,-8.998876E-3,1.7009232E-2,2.1746615E-3,1.4519641E-2,-2.1189952E-4,4.123909E-2,1.1923598E-2,2.917423E-2,1.4882966E-2,8.437198E-3,2.1680053E-2,3.664684E-2,7.883462E-3],"categories":[],"categories_nodes":[],"categories_segments":[],"categories_sizes":[],"default_left":[0,0,0,0,0,0,0,0,0,0,0,0,0,0,0,0,0,0,0,0,0,0,0,0,0,0,0,0,0,0,0,0,0,0,0,0,0,0,0,0,0,0,0,0,0,0,0,0,0,0,0,0,0,0,0,0,0,0,0,0,0,0,0,0,0,0,0,0,0,0,0,0,0,0,0,0,0],"id":4,"left_children":[1,3,5,7,9,11,13,15,17,19,21,23,25,-1,27,29,31,33,35,37,39,-1,-1,41,-1,43,45,-1,47,49,51,53,55,57,59,-1,61,-1,-1,63,65,-1,-1,67,69,71,73,75,-1,-1,-1,-1,-1,-1,-1,-1,-1,-1,-1,-1,-1,-1,-1,-1,-1,-1,-1,-1,-1,-1,-1,-1,-1,-1,-1,-1,-1],"loss_changes":[1.2517353E2,3.4237087E1,1.8805191E1,1.3788391E1,4.8419743E0,9.985771E0,5.7856445E0,2.157032E0,6.7876225E0,2.5143223E0,1.3815308E-1,3.2521229E0,3.3718204E0,0E0,4.170006E0,6.5707016E-1,6.184945E-1,1.5468278E0,1.4556026E0,6.24444E-1,8.594555E-1,0E0,0E0,4.593544E-1,0E0,2.8237314E0,9.638157E-1,0E0,1.1539078E0,5.5921173E-1,4.3418884E-1,2.105043E-1,6.524644E-1,8.3372474E-1,1.5584731E0,0E0,7.135196E-1,0E0,0E0,1.07096426E-1,3.6777627E-1,0E0,0E0,2.2303317E0,1.5912132E0,1.835537E-1,7.328267E-1,1.4262638E0,0E0,0E0,0E0,0E0,0E0,0E0,0E0,0E0,0E0,0E0,0E0,0E0,0E0,0E0,0E0,0E0,0E0,0E0,0E0,0E0,0E0,0E0,0E0,0E0,0E0,0E0,0E0,0E0,0E0],"parents":[2147483647,0,0,1,1,2,2,3,3,4,4,5,5,6,6,7,7,8,8,9,9,10,10,11,11,12,12,14,14,15,15,16,16,17,17,18,18,19,19,20,20,23,23,25,25,26,26,28,28,29,29,30,30,31,31,32,32,33,33,34,34,36,36,39,39,40,40,43,43,44,44,45,45,46,46,47,47],"right_children":[2,4,6,8,10,12,14,16,18,20,22,24,26,-1,28,30,32,34,36,38,40,-1,-1,42,-1,44,46,-1,48,50,52,54,56,58,60,-1,62,-1,-1,64,66,-1,-1,68,70,72,74,76,-1,-1,-1,-1,-1,-1,-1,-1,-1,-1,-1,-1,-1,-1,-1,-1,-1,-1,-1,-1,-1,-1,-1,-1,-1,-1,-1,-1,-1],"split_conditions":[2.4746416E8,1.6629243E3,2.3837E4,5.49E2,4.197798E3,2.5841085E1,2.2210082E4,1.7685E4,3.043042E1,2.2174824E10,9.0931484E4,4.3646963E8,1.2288978E3,-4.3574437E-3,1E0,8.412278E3,3.0278705E4,8.26E2,6.714161E7,6.648E3,1.712975E6,2.9997898E-2,5.0155513E-2,1.62403E5,5.8856614E-2,1.440108E9,9.7E1,7.7500805E-2,2.7517266E9,6.22973E1,2.2337986E5,2.0311719E2,1.5797638E4,4.428154E-6,1.2742166E7,-3.4931257E-2,9.36758E5,4.3267734E-2,1.5671842E-2,4.824E3,2.535047E6,1.09503195E-2,3.0539503E-2,3.444E3,3.14591E5,2.2683208E1,1.2411311E9,4.15842E5,4.8030656E-2,-2.3941137E-2,-1.6344732E-2,-1.8086085E-2,-2.9325504E-3,-9.388711E-3,-1.3873487E-3,-1.721208E-2,-3.3175857E-3,-4.1976217E-3,-1.55188665E-2,3.2428857E-3,-5.2677286E-3,-1.6939577E-2,-1.4528937E-3,4.640062E-4,-8.998876E-3,1.7009232E-2,2.1746615E-3,1.4519641E-2,-2.1189952E-4,4.123909E-2,1.1923598E-2,2.917423E-2,1.4882966E-2,8.437198E-3,2.1680053E-2,3.664684E-2,7.883462E-3],"split_indices":[7,64,2,2,64,60,45,9,65,43,40,7,64,0,28,40,57,2,7,2,1,0,0,9,0,7,3,0,7,64,40,4,40,51,57,0,1,0,0,2,9,0,0,2,41,65,7,2,0,0,0,0,0,0,0,0,0,0,0,0,0,0,0,0,0,0,0,0,0,0,0,0,0,0,0,0,0],"split_type":[0,0,0,0,0,0,0,0,0,0,0,0,0,0,0,0,0,0,0,0,0,0,0,0,0,0,0,0,0,0,0,0,0,0,0,0,0,0,0,0,0,0,0,0,0,0,0,0,0,0,0,0,0,0,0,0,0,0,0,0,0,0,0,0,0,0,0,0,0,0,0,0,0,0,0,0,0],"sum_hessian":[1.169E3,8.21E2,3.48E2,7.62E2,5.9E1,2.39E2,1.09E2,4.1E2,3.52E2,3.9E1,2E1,3.7E1,2.02E2,6E0,1.03E2,3.2E2,9E1,2.73E2,7.9E1,1.1E1,2.8E1,8E0,1.2E1,2.4E1,1.3E1,1.28E2,7.4E1,8E0,9.5E1,1.95E2,1.25E2,3.2E1,5.8E1,6.5E1,2.08E2,1E1,6.9E1,6E0,5E0,1E1,1.8E1,5E0,1.9E1,1.09E2,1.9E1,3.2E1,4.2E1,5.9E1,3.6E1,1.57E2,3.8E1,1.2E2,5E0,1.9E1,1.3E1,4.8E1,1E1,4.1E1,2.4E1,1.27E2,8.1E1,6.1E1,8E0,5E0,5E0,1.2E1,6E0,3.4E1,7.5E1,7E0,1.2E1,2.6E1,6E0,2.2E1,2E1,5.4E1,5E0],"tree_param":{"num_deleted":"0","num_feature":"108","num_nodes":"77","size_leaf_vector":"1"}},{"base_weights":[6.9776145E-3,-2.059934E-1,4.7549522E-1,-2.4166295E-1,6.854945E-1,3.0003884E-1,7.888158E-1,-3.7238765E-1,-1.03913926E-1,8.744776E-1,2.9764938E-1,2.4919906E-1,9.188671E-1,8.245644E-1,-5.3617726E-3,-4.2964923E-1,-2.755251E-1,-4.0140793E-2,-2.948195E-1,1.7176814E-2,4.887602E-2,2.1152325E-2,4.0134494E-3,6.6632324E-1,1.6356121E-1,3.0209474E-2,5.8105335E-2,7.401728E-2,7.711707E-1,-4.810208E-1,-3.323461E-1,-3.0394217E-1,-1.14313215E-2,-1.379992E-1,7.006352E-2,-3.630131E-1,-1.3792306E-1,1.1988912E-2,7.693838E-1,1.9895771E-1,-3.2823467E-1,6.6213775E-1,1.167733E0,-2.229048E-2,-4.0025808E-2,-7.813789E-3,-1.867782E-2,-1.2159939E-2,-1.8229054E-2,-9.716305E-3,1.2621128E-2,-1.4671451E-2,-4.0118345E-3,1.1920952E-3,1.2314203E-2,-3.1749703E-2,-1.5025011E-2,-1.3565728E-3,-9.917531E-3,4.2142246E-2,1.7896311E-2,5.4720324E-3,2.301146E-2,-3.2981485E-2,-9.7086E-4,3.7434038E-2,2.2599673E-2,4.1540127E-2,7.786958E-2],"categories":[],"categories_nodes":[],"categories_segments":[],"categories_sizes":[],"default_left":[0,0,0,0,0,0,0,0,0,0,0,0,0,0,0,0,0,0,0,0,0,0,0,0,0,0,0,0,0,0,0,0,0,0,0,0,0,0,0,0,0,0,0,0,0,0,0,0,0,0,0,0,0,0,0,0,0,0,0,0,0,0,0,0,0,0,0,0,0],"id":5,"left_children":[1,3,5,7,9,11,13,15,17,19,21,23,25,27,-1,29,31,33,35,-1,-1,-1,-1,37,39,-1,-1,-1,41,43,45,47,49,51,53,55,57,-1,59,61,63,65,67,-1,-1,-1,-1,-1,-1,-1,-1,-1,-1,-1,-1,-1,-1,-1,-1,-1,-1,-1,-1,-1,-1,-1,-1,-1,-1],"loss_changes":[1.1973498E2,2.639981E1,2.0378609E1,1.4259018E1,2.0851898E0,7.3846016E0,4.4033203E0,2.1390495E0,4.711929E0,1.1576881E0,3.26769E-1,7.92838E0,7.517309E-1,3.7141647E0,0E0,1.1097832E0,1.1522608E0,3.1587193E0,9.8776627E-1,0E0,0E0,0E0,0E0,1.4439487E0,3.3379812E0,0E0,0E0,0E0,4.501877E0,6.7768097E-1,7.9208565E-1,4.3779373E-1,8.8435984E-1,1.387119E0,1.1536766E0,8.1047916E-1,2.2510898E-1,0E0,9.292755E-1,4.1327333E0,1.4123876E0,1.8051987E0,2.0324097E0,0E0,0E0,0E0,0E0,0E0,0E0,0E0,0E0,0E0,0E0,0E0,0E0,0E0,0E0,0E0,0E0,0E0,0E0,0E0,0E0,0E0,0E0,0E0,0E0,0E0,0E0],"parents":[2147483647,0,0,1,1,2,2,3,3,4,4,5,5,6,6,7,7,8,8,9,9,10,10,11,11,12,12,13,13,15,15,16,16,17,17,18,18,23,23,24,24,28,28,29,29,30,30,31,31,32,32,33,33,34,34,35,35,36,36,38,38,39,39,40,40,41,41,42,42],"right_children":[2,4,6,8,10,12,14,16,18,20,22,24,26,28,-1,30,32,34,36,-1,-1,-1,-1,38,40,-1,-1,-1,42,44,46,48,50,52,54,56,58,-1,60,62,64,66,68,-1,-1,-1,-1,-1,-1,-1,-1,-1,-1,-1,-1,-1,-1,-1,-1,-1,-1,-1,-1,-1,-1,-1,-1,-1,-1],"split_conditions":[2.4118635E8,2.1145713E3,1.440108E9,5.11E2,9.7E1,4.197798E3,1.218829E3,8.412278E3,2.8527344E1,8.7573164E4,1.241159E6,4.6153847E-2,3.9837E4,3.0608664E2,-5.3617726E-3,3.27E2,6.927584E7,7.0967096E7,4.852E3,1.7176814E-2,4.887602E-2,2.1152325E-2,4.0134494E-3,1.198E3,3.515654E7,3.0209474E-2,5.8105335E-2,7.401728E-2,1.8636872E0,2.144791E8,3.1969492E4,8.6670195E4,4.06E2,6.58E2,1.1175615E3,6.714161E7,6.054077E1,1.1988912E-2,1.7965541E6,1.7929792E3,3E1,4.949877E6,2.2100193E1,-2.229048E-2,-4.0025808E-2,-7.813789E-3,-1.867782E-2,-1.2159939E-2,-1.8229054E-2,-9.716305E-3,1.2621128E-2,-1.4671451E-2,-4.0118345E-3,1.1920952E-3,1.2314203E-2,-3.1749703E-2,-1.5025011E-2,-1.3565728E-3,-9.917531E-3,4.2142246E-2,1.7896311E-2,5.4720324E-3,2.301146E-2,-3.2981485E-2,-9.7086E-4,3.7434038E-2,2.2599673E-2,4.1540127E-2,7.786958E-2],"split_indices":[7,64,7,2,3,64,70,40,65,40,1,70,2,64,0,2,7,7,2,0,0,0,0,2,57,0,0,0,51,43,57,57,2,2,64,7,68,0,57,64,3,9,66,0,0,0,0,0,0,0,0,0,0,0,0,0,0,0,0,0,0,0,0,0,0,0,0,0,0],"split_type":[0,0,0,0,0,0,0,0,0,0,0,0,0,0,0,0,0,0,0,0,0,0,0,0,0,0,0,0,0,0,0,0,0,0,0,0,0,0,0,0,0,0,0,0,0,0,0,0,0,0,0,0,0,0,0,0,0,0,0,0,0,0,0,0,0,0,0,0,0],"sum_hessian":[1.198E3,8.24E2,3.74E2,7.93E2,3.1E1,2.41E2,1.33E2,4.06E2,3.87E2,2E1,1.1E1,2.24E2,1.7E1,1.28E2,5E0,2.53E2,1.53E2,2.91E2,9.6E1,5E0,1.5E1,6E0,5E0,3.7E1,1.87E2,1E1,7E0,7E0,1.21E2,1.63E2,9E1,1.38E2,1.5E1,1.54E2,1.37E2,6.6E1,3E1,8E0,2.9E1,1.75E2,1.2E1,9.7E1,2.4E1,1.57E2,6E0,2.3E1,6.7E1,8.4E1,5.4E1,9E0,6E0,3.7E1,1.17E2,1.11E2,2.6E1,8E0,5.8E1,1.2E1,1.8E1,2.2E1,7E0,1.35E2,4E1,5E0,7E0,5.9E1,3.8E1,1.6E1,8E0],"tree_param":{"num_deleted":"0","num_feature":"108","num_nodes":"69","size_leaf_vector":"1"}},{"base_weights":[-6.8296865E-3,-2.0267645E-1,4.6107748E-1,-3.37677E-1,-5.8046996E-4,4.0129793E-1,1.1836907E0,-3.4796926E-1,2.0844411E-2,-6.531643E-2,5.5246615E-1,2.8100377E-1,6.543408E-1,8.4209865E-1,7.039089E-2,-4.1339132E-1,-2.8679356E-1,1.5532009E-3,-2.6865724E-1,1.6147268E-1,7.494422E-1,4.2373258E-1,6.615873E-2,6.803515E-2,5.9294546E-1,2.3906399E-2,4.7196157E-2,-3.4915578E-1,-4.937263E-1,-1.1270974E-1,-3.2321367E-1,-2.3063594E-2,2.5625935E-1,-3.412291E-1,-1.4427923E-1,1.2595048E-2,6.8415495E-5,4.179489E-2,1.3076462E-2,2.5373343E-1,5.058488E-1,-1.5566065E-2,2.2740301E-1,6.3487554E-1,-7.1719326E-3,-2.2659896E-2,-1.4369849E-2,-2.7507469E-2,-1.998705E-2,-2.8761532E-3,-1.5620746E-2,-1.8428637E-2,-1.2439879E-2,-3.5316963E-4,-1.4592939E-2,1.5389141E-2,2.696273E-3,-2.6100565E-2,-1.4631969E-2,-8.372238E-3,-1.2067338E-4,2.0930082E-2,5.065507E-3,2.9442567E-2,1.1851922E-2,4.625836E-3,-3.984415E-3,7.1192686E-3,1.7929444E-2,2.4343219E-2,3.6324807E-2],"categories":[],"categories_nodes":[],"categories_segments":[],"categories_sizes":[],"default_left":[0,0,0,0,0,0,0,0,0,0,0,0,0,0,0,0,0,0,0,0,0,0,0,0,0,0,0,0,0,0,0,0,0,0,0,0,0,0,0,0,0,0,0,0,0,0,0,0,0,0,0,0,0,0,0,0,0,0,0,0,0,0,0,0,0,0,0,0,0,0,0],"id":6,"left_children":[1,3,5,7,9,11,13,15,-1,17,19,21,23,25,-1,27,29,31,33,35,37,39,41,-1,43,-1,-1,45,47,49,51,53,55,57,59,-1,-1,-1,-1,61,63,65,67,69,-1,-1,-1,-1,-1,-1,-1,-1,-1,-1,-1,-1,-1,-1,-1,-1,-1,-1,-1,-1,-1,-1,-1,-1,-1,-1,-1],"loss_changes":[1.0776822E2,2.261747E1,1.4514519E1,4.0900917E0,1.1958153E1,9.61768E0,1.228611E0,1.8465424E0,0E0,4.066017E0,2.5745583E0,6.718174E0,3.951851E0,1.787777E-1,0E0,1.0402985E0,1.5929871E0,1.4229412E0,6.187172E-1,2.0739812E-1,1.0594845E0,1.7143288E0,1.1763511E0,0E0,3.1113434E0,0E0,0E0,6.868019E-1,3.8407707E-1,4.963748E-1,7.1775055E-1,9.0891296E-1,2.3470461E-1,1.8240833E-1,1.2057525E-1,0E0,0E0,0E0,0E0,1.1618495E0,2.2525406E0,4.5704666E-1,2.9075384E-1,1.0379982E0,0E0,0E0,0E0,0E0,0E0,0E0,0E0,0E0,0E0,0E0,0E0,0E0,0E0,0E0,0E0,0E0,0E0,0E0,0E0,0E0,0E0,0E0,0E0,0E0,0E0,0E0,0E0],"parents":[2147483647,0,0,1,1,2,2,3,3,4,4,5,5,6,6,7,7,9,9,10,10,11,11,12,12,13,13,15,15,16,16,17,17,18,18,19,19,20,20,21,21,22,22,24,24,27,27,28,28,29,29,30,30,31,31,32,32,33,33,34,34,39,39,40,40,41,41,42,42,43,43],"right_children":[2,4,6,8,10,12,14,16,-1,18,20,22,24,26,-1,28,30,32,34,36,38,40,42,-1,44,-1,-1,46,48,50,52,54,56,58,60,-1,-1,-1,-1,62,64,66,68,70,-1,-1,-1,-1,-1,-1,-1,-1,-1,-1,-1,-1,-1,-1,-1,-1,-1,-1,-1,-1,-1,-1,-1,-1,-1,-1,-1],"split_conditions":[2.1975278E8,8.765E4,7.5171284E3,1.593835E8,2.0236879E3,1.440108E9,7.5629787E0,3.07E2,2.0844411E-2,8.539052E1,8.7573164E4,1.0596466E1,2.3649069E1,9.842571E1,7.039089E-2,3.6084E5,3.0877717E4,1.23792456E8,4.702E3,6.96804E5,1.06E2,3.4458816E8,4.211295E6,6.803515E-2,1.4200303E4,2.3906399E-2,4.7196157E-2,7.924718E6,7.73816E5,2.2222223E0,8.0601797E3,6.04142E7,1.8662969E6,1.4757637E1,4.5022005E-1,1.2595048E-2,6.8415495E-5,4.179489E-2,1.3076462E-2,3.164351E-6,1.546911E6,5.199986E-3,1.165E4,4.1331047E-1,-7.1719326E-3,-2.2659896E-2,-1.4369849E-2,-2.7507469E-2,-1.998705E-2,-2.8761532E-3,-1.5620746E-2,-1.8428637E-2,-1.2439879E-2,-3.5316963E-4,-1.4592939E-2,1.5389141E-2,2.696273E-3,-2.6100565E-2,-1.4631969E-2,-8.372238E-3,-1.2067338E-4,2.0930082E-2,5.065507E-3,2.9442567E-2,1.1851922E-2,4.625836E-3,-3.984415E-3,7.1192686E-3,1.7929444E-2,2.4343219E-2,3.6324807E-2],"split_indices":[7,1,64,7,64,7,65,2,0,66,40,65,60,68,0,5,57,12,2,9,3,7,60,0,4,0,0,43,7,65,40,57,59,45,53,0,0,0,0,50,41,51,2,47,0,0,0,0,0,0,0,0,0,0,0,0,0,0,0,0,0,0,0,0,0,0,0,0,0,0,0],"split_type":[0,0,0,0,0,0,0,0,0,0,0,0,0,0,0,0,0,0,0,0,0,0,0,0,0,0,0,0,0,0,0,0,0,0,0,0,0,0,0,0,0,0,0,0,0,0,0,0,0,0,0,0,0,0,0,0,0,0,0,0,0,0,0,0,0,0,0,0,0,0,0],"sum_hessian":[1.174E3,8.28E2,3.46E2,4.96E2,3.32E2,3.21E2,2.5E1,4.9E2,6E0,2.98E2,3.4E1,2.19E2,1.02E2,1.3E1,1.2E1,2.34E2,2.56E2,2.25E2,7.3E1,1.2E1,2.2E1,1.31E2,8.8E1,6E0,9.6E1,5E0,8E0,1.33E2,1.01E2,4.5E1,2.11E2,2.06E2,1.9E1,4.5E1,2.8E1,7E0,5E0,1.7E1,5E0,4.4E1,8.7E1,5.9E1,2.9E1,9.1E1,5E0,3.7E1,9.6E1,4.8E1,5.3E1,3.7E1,8E0,1.08E2,1.03E2,1.96E2,1E1,1.4E1,5E0,5E0,4E1,2.3E1,5E0,1.9E1,2.5E1,6.1E1,2.6E1,2.2E1,3.7E1,2E1,9E0,4.6E1,4.5E1],"tree_param":{"num_deleted":"0","num_feature":"108","num_nodes":"71","size_leaf_vector":"1"}},{"base_weights":[-9.670545E-3,-2.0704365E-1,3.723025E-1,-3.0394742E-1,7.930781E-2,2.1048255E-1,6.3882244E-1,-3.8573703E-1,-2.3343222E-1,5.7616113E-3,7.2990364E-1,3.3502573E-1,5.542075E-2,6.927145E-2,5.9587055E-1,-3.4451607E-1,-4.7613937E-1,-3.085856E-1,-1.7197558E-1,2.340669E-1,-4.3976694E-2,1.9115422E-2,8.444112E-1,2.271536E-1,6.057965E-1,-5.2661587E-2,2.3938522E-1,5.169647E-1,1.0631841E0,-4.314482E-1,-2.9121494E-1,-4.3776476E-1,-3.3969797E-2,-2.394368E-1,-4.2100215E-1,-1.882971E-1,7.2288234E-3,4.178505E-1,-1.07059956E-1,-1.9375071E-1,5.580582E-2,2.6818529E-2,4.7754314E-2,4.1414848E-1,9.774469E-2,7.3413754E-1,2.123704E-1,-1.3742995E-1,8.545406E-2,1.8886155E-1,1.8419389E-2,5.5499846E-1,9.770893E-4,5.5860125E-2,3.1154593E-2,-1.0358052E-2,-2.1447657E-2,-1.2460332E-2,-2.0413987E-2,-2.3381747E-2,-1.4440448E-2,-1.304527E-2,5.3320364E-3,-2.7090209E-2,-1.1863665E-2,1.0536584E-3,-1.0382659E-2,6.965881E-3,2.9438036E-2,-9.420383E-3,-7.7090703E-4,-2.0585751E-2,-7.6763206E-3,1.0083802E-2,-1.2410295E-3,1.2845343E-2,2.4970211E-2,8.309633E-4,2.703616E-2,2.2722382E-2,3.8378105E-2,-5.823577E-5,1.8823236E-2,-9.277283E-3,-6.9776905E-4,-3.1424789E-3,5.833681E-3,6.7433645E-3,1.3853897E-2,2.213264E-2,3.5763226E-2],"categories":[],"categories_nodes":[],"categories_segments":[],"categories_sizes":[],"default_left":[0,0,0,0,0,0,0,0,0,0,0,0,0,0,0,0,0,0,0,0,0,0,0,0,0,0,0,0,0,0,0,0,0,0,0,0,0,0,0,0,0,0,0,0,0,0,0,0,0,0,0,0,0,0,0,0,0,0,0,0,0,0,0,0,0,0,0,0,0,0,0,0,0,0,0,0,0,0,0,0,0,0,0,0,0,0,0,0,0,0,0],"id":7,"left_children":[1,3,5,7,9,11,13,15,17,19,21,23,25,-1,27,29,31,33,35,37,39,-1,41,43,45,47,49,51,53,55,57,59,-1,61,63,65,-1,67,69,71,73,-1,-1,75,77,79,81,83,85,87,-1,89,-1,-1,-1,-1,-1,-1,-1,-1,-1,-1,-1,-1,-1,-1,-1,-1,-1,-1,-1,-1,-1,-1,-1,-1,-1,-1,-1,-1,-1,-1,-1,-1,-1,-1,-1,-1,-1,-1,-1],"loss_changes":[8.8737144E1,2.1556969E1,1.7159958E1,3.2550583E0,9.422018E0,4.8287163E0,4.3221436E0,8.309326E-1,1.3971958E0,2.0315757E0,4.2837048E-1,3.92239E0,2.2594202E0,0E0,4.7970734E0,7.408352E-1,4.022789E-1,9.874821E-1,9.4785213E-1,2.0509276E0,2.2077024E0,0E0,3.895378E-2,2.4035978E0,1.8133087E0,8.5470825E-1,2.3082066E-1,2.3690147E0,4.9589157E-2,1.06939316E-1,4.052E-1,3.258295E-1,0E0,1.0030456E0,1.1443539E0,9.567938E-1,0E0,1.0191653E0,9.347394E-2,4.0670562E-1,1.1189606E0,0E0,0E0,4.910717E-1,2.2650442E0,9.8036766E-2,4.1909042E-1,3.018511E-1,1.580072E-1,1.1902261E-1,0E0,1.7551918E0,0E0,0E0,0E0,0E0,0E0,0E0,0E0,0E0,0E0,0E0,0E0,0E0,0E0,0E0,0E0,0E0,0E0,0E0,0E0,0E0,0E0,0E0,0E0,0E0,0E0,0E0,0E0,0E0,0E0,0E0,0E0,0E0,0E0,0E0,0E0,0E0,0E0,0E0,0E0],"parents":[2147483647,0,0,1,1,2,2,3,3,4,4,5,5,6,6,7,7,8,8,9,9,10,10,11,11,12,12,14,14,15,15,16,16,17,17,18,18,19,19,20,20,22,22,23,23,24,24,25,25,26,26,27,27,28,28,29,29,30,30,31,31,33,33,34,34,35,35,37,37,38,38,39,39,40,40,43,43,44,44,45,45,46,46,47,47,48,48,49,49,51,51],"right_children":[2,4,6,8,10,12,14,16,18,20,22,24,26,-1,28,30,32,34,36,38,40,-1,42,44,46,48,50,52,54,56,58,60,-1,62,64,66,-1,68,70,72,74,-1,-1,76,78,80,82,84,86,88,-1,90,-1,-1,-1,-1,-1,-1,-1,-1,-1,-1,-1,-1,-1,-1,-1,-1,-1,-1,-1,-1,-1,-1,-1,-1,-1,-1,-1,-1,-1,-1,-1,-1,-1,-1,-1,-1,-1,-1,-1],"split_conditions":[1.5291523E8,3.182634E8,1.1613266E9,3.29E2,3.2784192E3,2.2964981E1,1.035048E6,1.030126E6,8.0601797E3,2.03559E5,9.0931484E4,5.2452653E8,9.5986336E4,6.927145E-2,7.765071E0,1.4854737E7,2.6597286E8,3.0275702E2,2.0624824E7,1.09E2,1.533115E6,1.9115422E-2,6.036951E3,1.125E0,1.423878E6,1.2730462E7,1.1153E4,7.2125336E2,5.701E3,1E0,1.6005316E-3,1.1884584E8,-3.3969797E-2,1.43456E5,1E0,3.7205484E4,7.2288234E-3,1.687E3,1.8671E4,1.0184332E0,1.423795E7,2.6818529E-2,4.7754314E-2,2.60029E5,2.143564E3,2.59E2,4.387617E0,2.05E3,1.6858337E3,1.244E3,1.8419389E-2,6.6993E4,9.770893E-4,5.5860125E-2,3.1154593E-2,-1.0358052E-2,-2.1447657E-2,-1.2460332E-2,-2.0413987E-2,-2.3381747E-2,-1.4440448E-2,-1.304527E-2,5.3320364E-3,-2.7090209E-2,-1.1863665E-2,1.0536584E-3,-1.0382659E-2,6.965881E-3,2.9438036E-2,-9.420383E-3,-7.7090703E-4,-2.0585751E-2,-7.6763206E-3,1.0083802E-2,-1.2410295E-3,1.2845343E-2,2.4970211E-2,8.309633E-4,2.703616E-2,2.2722382E-2,3.8378105E-2,-5.823577E-5,1.8823236E-2,-9.277283E-3,-6.9776905E-4,-3.1424789E-3,5.833681E-3,6.7433645E-3,1.3853897E-2,2.213264E-2,3.5763226E-2],"split_indices":[7,5,7,2,64,66,1,5,40,41,40,7,45,0,47,43,43,4,12,3,1,0,4,65,41,9,2,70,0,20,51,43,0,9,13,57,0,2,9,65,57,0,0,9,64,0,65,10,4,0,0,2,0,0,0,0,0,0,0,0,0,0,0,0,0,0,0,0,0,0,0,0,0,0,0,0,0,0,0,0,0,0,0,0,0,0,0,0,0,0,0],"split_type":[0,0,0,0,0,0,0,0,0,0,0,0,0,0,0,0,0,0,0,0,0,0,0,0,0,0,0,0,0,0,0,0,0,0,0,0,0,0,0,0,0,0,0,0,0,0,0,0,0,0,0,0,0,0,0,0,0,0,0,0,0,0,0,0,0,0,0,0,0,0,0,0,0,0,0,0,0,0,0,0,0,0,0,0,0,0,0,0,0,0,0],"sum_hessian":[1.175E3,7.75E2,4E2,5.79E2,1.96E2,2.5E2,1.5E2,2.66E2,3.13E2,1.77E2,1.9E1,1.38E2,1.12E2,6E0,1.44E2,1.86E2,8E1,1.39E2,1.74E2,3.1E1,1.46E2,6E0,1.3E1,1E2,3.8E1,7.1E1,4.1E1,1.25E2,1.9E1,6.8E1,1.18E2,7.1E1,9E0,8.8E1,5.1E1,1.66E2,8E0,2E1,1.1E1,5.8E1,8.8E1,6E0,7E0,4E1,6E1,2.8E1,1E1,4.4E1,2.7E1,3.2E1,9E0,1.16E2,9E0,1.4E1,5E0,5E0,6.3E1,9.7E1,2.1E1,5.1E1,2E1,8.1E1,7E0,2.7E1,2.4E1,1.9E1,1.47E2,9E0,1.1E1,5E0,6E0,6E0,5.2E1,3E1,5.8E1,1.8E1,2.2E1,5.2E1,8E0,7E0,2.1E1,5E0,5E0,3E1,1.4E1,5E0,2.2E1,2.3E1,9E0,7.9E1,3.7E1],"tree_param":{"num_deleted":"0","num_feature":"108","num_nodes":"91","size_leaf_vector":"1"}},{"base_weights":[3.3557424E-3,-1.6992447E-1,4.442363E-1,-2.1823205E-1,3.9592597E-1,3.8322467E-1,9.4541085E-1,-3.1248918E-1,-7.719638E-2,6.1550844E-1,1.4438374E-1,5.2330667E-1,1.5289159E-1,6.328004E-2,7.0692617E-1,-3.4776887E-1,-1.7142229E-1,-1.0561063E-2,-2.794991E-1,8.207271E-3,7.3663235E-1,2.0117765E-2,4.0317643E-2,5.6843656E-1,-3.5087544E-2,5.663435E-2,4.1499582E-1,8.642364E-1,4.383731E-3,-4.2102677E-1,-3.091785E-1,-2.962933E-1,-4.305287E-2,-6.5766044E-2,8.7914035E-2,-2.6992228E-2,-2.4444503E-1,4.0974177E-2,1.9399757E-2,-4.7564525E-3,1.11537926E-1,3.2749096E-1,6.74133E-1,-1.6967168E-2,1.0378207E-2,1.1673686E-2,1.4854457E-2,4.9732578E-1,9.271527E-3,3.0862477E-2,5.021319E-2,-6.3801636E-3,-2.0805553E-2,-2.2259356E-2,-1.4240106E-2,-9.344893E-3,-2.3875281E-2,-5.9414334E-3,1.1821961E-2,-4.128624E-3,1.4967073E-2,1.1918887E-2,1.7661686E-3,-1.3384982E-2,-2.6476602E-3,8.970154E-3,1.183961E-3,2.7441844E-2,1.1133735E-2,5.2219365E-2,2.8497186E-2,-3.77091E-3,4.7673187E-3,2.6185801E-2,1.3694073E-2],"categories":[],"categories_nodes":[],"categories_segments":[],"categories_sizes":[],"default_left":[0,0,0,0,0,0,0,0,0,0,0,0,0,0,0,0,0,0,0,0,0,0,0,0,0,0,0,0,0,0,0,0,0,0,0,0,0,0,0,0,0,0,0,0,0,0,0,0,0,0,0,0,0,0,0,0,0,0,0,0,0,0,0,0,0,0,0,0,0,0,0,0,0,0,0],"id":8,"left_children":[1,3,5,7,9,11,13,15,17,19,21,23,25,-1,27,29,31,33,35,-1,37,-1,39,41,43,45,47,49,-1,51,53,55,57,59,61,-1,63,-1,-1,-1,65,67,69,-1,-1,71,-1,73,-1,-1,-1,-1,-1,-1,-1,-1,-1,-1,-1,-1,-1,-1,-1,-1,-1,-1,-1,-1,-1,-1,-1,-1,-1,-1,-1],"loss_changes":[9.1521355E1,2.3594387E1,9.9728775E0,1.0517715E1,3.66706E0,9.696445E0,2.227459E0,2.3043633E0,4.29733E0,1.8159218E0,9.2080486E-1,4.757599E0,2.9031112E0,0E0,2.2469559E0,9.4128036E-1,1.5421169E0,1.3159338E0,6.4001656E-1,0E0,7.1981716E-1,0E0,2.585104E-1,4.2105026E0,1.2663871E0,9.691403E-1,4.7251987E-1,8.838558E-2,0E0,3.366108E-1,3.912964E-1,9.0287685E-1,1.1636853E0,1.1871417E0,7.018548E-1,0E0,4.387493E-1,0E0,0E0,0E0,1.0569604E-1,1.15205E0,3.4294777E0,0E0,0E0,5.882123E-1,0E0,6.1335087E-2,0E0,0E0,0E0,0E0,0E0,0E0,0E0,0E0,0E0,0E0,0E0,0E0,0E0,0E0,0E0,0E0,0E0,0E0,0E0,0E0,0E0,0E0,0E0,0E0,0E0,0E0,0E0],"parents":[2147483647,0,0,1,1,2,2,3,3,4,4,5,5,6,6,7,7,8,8,9,9,10,10,11,11,12,12,14,14,15,15,16,16,17,17,18,18,20,20,22,22,23,23,24,24,25,25,26,26,27,27,29,29,30,30,31,31,32,32,33,33,34,34,36,36,40,40,41,41,42,42,45,45,47,47],"right_children":[2,4,6,8,10,12,14,16,18,20,22,24,26,-1,28,30,32,34,36,-1,38,-1,40,42,44,46,48,50,-1,52,54,56,58,60,62,-1,64,-1,-1,-1,66,68,70,-1,-1,72,-1,74,-1,-1,-1,-1,-1,-1,-1,-1,-1,-1,-1,-1,-1,-1,-1,-1,-1,-1,-1,-1,-1,-1,-1,-1,-1,-1,-1],"split_conditions":[2.8681312E8,1.5078629E3,6.19962E3,8.0377E4,1.03E2,1.0846253E1,1.423878E6,2.0967E4,8.539052E1,5.446E3,1.502695E10,3.569507E7,1.5183378E9,6.328004E-2,1.5165704E7,4.6430386E3,6.7945664E3,9.522554E7,1.4757637E1,8.207271E-3,7.425874E-6,2.0117765E-2,1.712975E6,5.2452653E8,3.0265034E1,1.5166181E7,8.43119E5,3.3557704E9,4.383731E-3,7.78751E2,2.02E2,1.17352E5,7.575959E7,4.2391744E-1,9.62963E-1,-2.6992228E-2,9.54947E5,4.0974177E-2,1.9399757E-2,-4.7564525E-3,3.0609E4,3.5276664E-6,2.5841085E1,-1.6967168E-2,1.0378207E-2,7.245512E8,1.4854457E-2,1.94E2,9.271527E-3,3.0862477E-2,5.021319E-2,-6.3801636E-3,-2.0805553E-2,-2.2259356E-2,-1.4240106E-2,-9.344893E-3,-2.3875281E-2,-5.9414334E-3,1.1821961E-2,-4.128624E-3,1.4967073E-2,1.1918887E-2,1.7661686E-3,-1.3384982E-2,-2.6476602E-3,8.970154E-3,1.183961E-3,2.7441844E-2,1.1133735E-2,5.2219365E-2,2.8497186E-2,-3.77091E-3,4.7673187E-3,2.6185801E-2,1.3694073E-2],"split_indices":[7,64,64,1,3,65,41,9,66,2,43,57,7,0,9,40,40,7,45,0,50,0,1,7,68,62,41,7,0,57,2,9,7,53,65,0,1,0,0,0,9,50,60,0,0,7,0,3,0,0,0,0,0,0,0,0,0,0,0,0,0,0,0,0,0,0,0,0,0,0,0,0,0,0,0],"split_type":[0,0,0,0,0,0,0,0,0,0,0,0,0,0,0,0,0,0,0,0,0,0,0,0,0,0,0,0,0,0,0,0,0,0,0,0,0,0,0,0,0,0,0,0,0,0,0,0,0,0,0,0,0,0,0,0,0,0,0,0,0,0,0,0,0,0,0,0,0,0,0,0,0,0,0],"sum_hessian":[1.196E3,8.59E2,3.37E2,7.92E2,6.7E1,3.02E2,3.5E1,4.74E2,3.18E2,3.5E1,3.2E1,1.87E2,1.15E2,1.2E1,2.3E1,3.78E2,9.6E1,2.4E2,7.8E1,8E0,2.7E1,8E0,2.4E1,1.73E2,1.4E1,8.5E1,3E1,1.8E1,5E0,1.27E2,2.51E2,4.8E1,4.8E1,1.54E2,8.6E1,7E0,7.1E1,1.9E1,8E0,8E0,1.6E1,5.4E1,1.19E2,6E0,8E0,7.3E1,1.2E1,2.1E1,9E0,1E1,8E0,5E0,1.22E2,1.8E1,2.33E2,3.3E1,1.5E1,3.8E1,1E1,1.47E2,7E0,2E1,6.6E1,6E1,1.1E1,8E0,8E0,1.4E1,4E1,1.8E1,1.01E2,3.6E1,3.7E1,1.6E1,5E0],"tree_param":{"num_deleted":"0","num_feature":"108","num_nodes":"75","size_leaf_vector":"1"}},{"base_weights":[3.7479713E-3,-1.7984441E-1,3.4533736E-1,-2.2112176E-1,4.1154182E-1,2.1491237E-1,6.2676436E-1,-3.0101928E-1,-1.1039239E-1,2.037657E-1,7.130177E-1,5.1169515E-1,1.576544E-1,6.306176E-2,5.708815E-1,-3.4131888E-1,-2.1361178E-1,-6.5650105E-2,-2.8826737E-1,3.1680983E-2,9.125915E-2,2.3931878E-2,4.0725145E-2,3.078191E-1,6.488423E-1,1.0484284E-1,6.444732E-1,4.4665408E-1,8.517892E-1,-4.2962074E-1,-3.1488234E-1,-1.3656928E-1,-2.8746602E-1,-1.6160782E-1,4.730861E-3,-2.5695888E-2,-2.5118488E-1,-5.681574E-2,2.2223876E-1,3.9982206E-1,1.2776102E-3,3.4510944E-2,1.4722646E-2,1.3407026E-1,-2.4470491E-2,4.3369196E-2,2.416605E-2,4.8371696E-1,-6.175715E-3,6.180278E-1,5.189276E-2,-2.2889461E-2,-1.6295392E-2,-1.14475675E-2,-1.7266557E-2,-1.0021165E-2,-2.9494942E-3,-9.994423E-3,-1.8282741E-2,-9.858637E-3,6.63886E-4,3.200468E-3,-5.9157196E-3,-1.3126579E-2,-3.3795955E-3,1.7923312E-3,-6.877755E-3,1.3550907E-2,4.6661403E-3,9.040691E-3,2.3480462E-2,3.8967659E-3,1.7698763E-2,1.7413909E-2,2.985823E-2,3.4852102E-2,1.7831873E-2],"categories":[],"categories_nodes":[],"categories_segments":[],"categories_sizes":[],"default_left":[0,0,0,0,0,0,0,0,0,0,0,0,0,0,0,0,0,0,0,0,0,0,0,0,0,0,0,0,0,0,0,0,0,0,0,0,0,0,0,0,0,0,0,0,0,0,0,0,0,0,0,0,0,0,0,0,0,0,0,0,0,0,0,0,0,0,0,0,0,0,0,0,0,0,0,0,0],"id":9,"left_children":[1,3,5,7,9,11,13,15,17,19,21,23,25,-1,27,29,31,33,35,-1,37,-1,-1,39,41,43,45,47,49,51,53,55,57,59,61,-1,63,65,67,69,-1,-1,-1,71,-1,-1,-1,73,-1,75,-1,-1,-1,-1,-1,-1,-1,-1,-1,-1,-1,-1,-1,-1,-1,-1,-1,-1,-1,-1,-1,-1,-1,-1,-1,-1,-1],"loss_changes":[7.337385E1,1.866766E1,1.4877689E1,6.2658386E0,2.9866848E0,4.6944113E0,4.167137E0,1.3818779E0,2.3686354E0,1.5219208E0,1.517582E-1,1.0585194E0,6.0256224E0,0E0,3.8420143E0,5.206833E-1,7.1749926E-1,1.6283811E0,4.1093493E-1,0E0,5.1689124E-1,0E0,0E0,5.0702953E-1,3.8127518E-1,3.9173903E0,3.8910484E-1,1.8940735E0,1.2272644E0,9.6466064E-2,6.531029E-1,3.4761107E-1,4.1437435E-1,7.710469E-1,1.1088017E0,0E0,1.8791008E-1,1.1026567E-1,7.6242566E-2,1.867423E-1,0E0,0E0,0E0,2.5263495E0,0E0,0E0,0E0,1.1225529E0,0E0,2.5384665E-1,0E0,0E0,0E0,0E0,0E0,0E0,0E0,0E0,0E0,0E0,0E0,0E0,0E0,0E0,0E0,0E0,0E0,0E0,0E0,0E0,0E0,0E0,0E0,0E0,0E0,0E0,0E0],"parents":[2147483647,0,0,1,1,2,2,3,3,4,4,5,5,6,6,7,7,8,8,9,9,10,10,11,11,12,12,14,14,15,15,16,16,17,17,18,18,20,20,23,23,24,24,25,25,26,26,27,27,28,28,29,29,30,30,31,31,32,32,33,33,34,34,36,36,37,37,38,38,39,39,43,43,47,47,49,49],"right_children":[2,4,6,8,10,12,14,16,18,20,22,24,26,-1,28,30,32,34,36,-1,38,-1,-1,40,42,44,46,48,50,52,54,56,58,60,62,-1,64,66,68,70,-1,-1,-1,72,-1,-1,-1,74,-1,76,-1,-1,-1,-1,-1,-1,-1,-1,-1,-1,-1,-1,-1,-1,-1,-1,-1,-1,-1,-1,-1,-1,-1,-1,-1,-1,-1],"split_conditions":[1.5291523E8,1.4845161E3,1.440108E9,6.2397E4,3.2784192E3,1.0184332E0,6.707E3,5.722E3,1.1272175E2,2.2174824E10,5.3592134E3,2.7682397E8,3.2784192E3,6.306176E-2,1.4864192E0,6.975516E2,1.5882353E0,9.65E2,6.714161E7,3.1680983E-2,1.683374E6,2.3931878E-2,4.0725145E-2,9.4E1,2.814571E2,4.0015572E7,1.1340046E-1,1.8332656E4,7.023494E1,1.38E2,6.6042516E4,3.42E2,9.9E1,7.9477E4,1.8237956E7,-2.5695888E-2,3.77059E5,4.824E3,1E0,1.0583942E0,1.2776102E-3,3.4510944E-2,1.4722646E-2,1.7929792E3,-2.4470491E-2,4.3369196E-2,2.416605E-2,3.11E3,-6.175715E-3,2.2813266E9,5.189276E-2,-2.2889461E-2,-1.6295392E-2,-1.14475675E-2,-1.7266557E-2,-1.0021165E-2,-2.9494942E-3,-9.994423E-3,-1.8282741E-2,-9.858637E-3,6.63886E-4,3.200468E-3,-5.9157196E-3,-1.3126579E-2,-3.3795955E-3,1.7923312E-3,-6.877755E-3,1.3550907E-2,4.6661403E-3,9.040691E-3,2.3480462E-2,3.8967659E-3,1.7698763E-2,1.7413909E-2,2.985823E-2,3.4852102E-2,1.7831873E-2],"split_indices":[7,64,7,1,64,65,2,9,66,43,64,7,64,0,51,40,65,2,7,0,1,0,0,3,64,57,50,4,68,67,57,2,3,9,57,0,41,2,24,68,0,0,0,64,0,0,0,0,0,7,0,0,0,0,0,0,0,0,0,0,0,0,0,0,0,0,0,0,0,0,0,0,0,0,0,0,0],"split_type":[0,0,0,0,0,0,0,0,0,0,0,0,0,0,0,0,0,0,0,0,0,0,0,0,0,0,0,0,0,0,0,0,0,0,0,0,0,0,0,0,0,0,0,0,0,0,0,0,0,0,0,0,0,0,0,0,0,0,0,0,0,0,0,0,0,0,0,0,0,0,0,0,0,0,0,0,0],"sum_hessian":[1.168E3,7.6E2,4.08E2,7.11E2,4.9E1,2.8E2,1.28E2,4.12E2,2.99E2,3E1,1.9E1,4.4E1,2.36E2,8E0,1.2E2,2.8E2,1.32E2,2.4E2,5.9E1,5E0,2.5E1,9E0,1E1,1.9E1,2.5E1,2.14E2,2.2E1,8.5E1,3.5E1,6.1E1,2.19E2,6.6E1,6.6E1,1.01E2,1.39E2,6E0,5.3E1,1.2E1,1.3E1,1.4E1,5E0,2E1,5E0,2.05E2,9E0,6E0,1.6E1,8E1,5E0,1.9E1,1.6E1,3.8E1,2.3E1,8.1E1,1.38E2,3.3E1,3.3E1,3.7E1,2.9E1,8.1E1,2E1,9.4E1,4.5E1,4.7E1,6E0,6E0,6E0,8E0,5E0,5E0,9E0,1.68E2,3.7E1,4.4E1,3.6E1,1.2E1,7E0],"tree_param":{"num_deleted":"0","num_feature":"108","num_nodes":"77","size_leaf_vector":"1"}},{"base_weights":[2.4708497E-4,-1.4947662E-1,3.8747817E-1,-2.7104318E-1,1.290424E-2,2.4405612E-1,5.9659845E-1,-2.8089383E-1,1.7648943E-2,-3.5542175E-2,4.9698883E-1,2.139181E-1,5.054581E-2,6.3642055E-2,5.410397E-1,-3.3616832E-1,-2.1537238E-1,2.5847968E-2,-2.0635754E-1,6.056983E-1,6.155546E-3,2.4393862E-1,-2.4980288E-2,2.3476145E-1,6.4932376E-1,-2.679521E-1,-4.195857E-1,-9.6484125E-2,-2.594608E-1,-4.62769E-2,9.226981E-2,-2.6968214E-1,-5.6507286E-2,1.4840823E-2,3.3698697E-2,3.9110404E-1,5.3053405E-2,3.07708E-1,-4.867003E-3,5.5419225E-1,4.596133E-2,-1.3982671E-2,-4.421338E-3,-2.2109738E-2,-1.6184807E-2,-6.365816E-3,6.3510085E-3,-1.0179558E-2,-1.5839014E-2,6.948703E-3,-3.3996012E-3,1.2113786E-2,1.9492339E-3,-2.4152366E-2,-1.1399759E-2,1.992146E-3,-5.4538827E-3,2.95714E-2,1.55224E-2,-1.7062201E-3,8.45239E-3,2.0835666E-2,5.836488E-3,2.9215936E-2,1.2703895E-2],"categories":[],"categories_nodes":[],"categories_segments":[],"categories_sizes":[],"default_left":[0,0,0,0,0,0,0,0,0,0,0,0,0,0,0,0,0,0,0,0,0,0,0,0,0,0,0,0,0,0,0,0,0,0,0,0,0,0,0,0,0,0,0,0,0,0,0,0,0,0,0,0,0,0,0,0,0,0,0,0,0,0,0,0,0],"id":10,"left_children":[1,3,5,7,9,11,13,15,-1,17,19,21,-1,-1,23,25,27,29,31,33,-1,35,-1,37,39,41,43,45,47,49,51,53,55,-1,-1,57,59,61,-1,63,-1,-1,-1,-1,-1,-1,-1,-1,-1,-1,-1,-1,-1,-1,-1,-1,-1,-1,-1,-1,-1,-1,-1,-1,-1],"loss_changes":[6.986304E1,1.715763E1,9.931858E0,3.2226028E0,8.76532E0,4.650282E0,4.755184E0,1.7022133E0,0E0,3.5707033E0,1.2875099E0,4.412861E0,0E0,0E0,4.0926895E0,1.3898392E0,1.1648083E0,1.2067273E0,8.387892E-1,5.0858116E-1,0E0,5.2604904E0,0E0,8.882723E-1,2.1927147E0,5.5151176E-1,2.2976685E-1,5.2929986E-1,4.8131084E-1,5.692284E-1,1.0698177E0,3.6488867E-1,1.5988053E-1,0E0,0E0,1.4303341E0,9.042604E-1,6.219487E-1,0E0,9.5835686E-1,0E0,0E0,0E0,0E0,0E0,0E0,0E0,0E0,0E0,0E0,0E0,0E0,0E0,0E0,0E0,0E0,0E0,0E0,0E0,0E0,0E0,0E0,0E0,0E0,0E0],"parents":[2147483647,0,0,1,1,2,2,3,3,4,4,5,5,6,6,7,7,9,9,10,10,11,11,14,14,15,15,16,16,17,17,18,18,19,19,21,21,23,23,24,24,25,25,26,26,27,27,28,28,29,29,30,30,31,31,32,32,35,35,36,36,37,37,39,39],"right_children":[2,4,6,8,10,12,14,16,-1,18,20,22,-1,-1,24,26,28,30,32,34,-1,36,-1,38,40,42,44,46,48,50,52,54,56,-1,-1,58,60,62,-1,64,-1,-1,-1,-1,-1,-1,-1,-1,-1,-1,-1,-1,-1,-1,-1,-1,-1,-1,-1,-1,-1,-1,-1,-1,-1],"split_conditions":[2.8681312E8,8.5858E4,1.375746E9,1.593835E8,2.1145713E3,5.3592134E3,1.035048E6,3.19E2,1.7648943E-2,8.539052E1,2.535047E6,3.8879236E7,5.054581E-2,6.3642055E-2,9.9515266E4,3.6084E5,2.8621706E1,7.1306056E7,7.13404E5,8.7573164E4,6.155546E-3,1.0596466E1,-2.4980288E-2,1.4200303E4,7.765071E0,1.6437E4,1.1714286E0,2.2762773E2,2.6511267E-5,2.2E1,1.0615385E0,6.714161E7,7.519471E6,1.4840823E-2,3.3698697E-2,1.6904634E6,9.5986336E4,1.2823545E4,-4.867003E-3,7.2362184E7,4.596133E-2,-1.3982671E-2,-4.421338E-3,-2.2109738E-2,-1.6184807E-2,-6.365816E-3,6.3510085E-3,-1.0179558E-2,-1.5839014E-2,6.948703E-3,-3.3996012E-3,1.2113786E-2,1.9492339E-3,-2.4152366E-2,-1.1399759E-2,1.992146E-3,-5.4538827E-3,2.95714E-2,1.55224E-2,-1.7062201E-3,8.45239E-3,2.0835666E-2,5.836488E-3,2.9215936E-2,1.2703895E-2],"split_indices":[7,1,7,7,64,64,1,2,0,66,9,57,0,0,45,5,64,7,1,40,0,65,0,4,47,41,65,67,51,3,65,7,57,0,0,57,45,44,0,1,0,0,0,0,0,0,0,0,0,0,0,0,0,0,0,0,0,0,0,0,0,0,0,0,0],"split_type":[0,0,0,0,0,0,0,0,0,0,0,0,0,0,0,0,0,0,0,0,0,0,0,0,0,0,0,0,0,0,0,0,0,0,0,0,0,0,0,0,0,0,0,0,0,0,0,0,0,0,0,0,0,0,0,0,0,0,0,0,0,0,0,0,0],"sum_hessian":[1.203E3,8.68E2,3.35E2,4.96E2,3.72E2,2E2,1.35E2,4.89E2,7E0,3.39E2,3.3E1,1.94E2,6E0,8E0,1.27E2,2.63E2,2.26E2,2.5E2,8.9E1,2.5E1,8E0,1.87E2,7E0,3.4E1,9.3E1,1.47E2,1.16E2,6.2E1,1.64E2,1.2E2,1.3E2,6.2E1,2.7E1,7E0,1.8E1,1.05E2,8.2E1,2.8E1,6E0,7.3E1,2E1,1.3E2,1.7E1,7.6E1,4E1,5.4E1,8E0,9.9E1,6.5E1,1.3E1,1.07E2,3.1E1,9.9E1,6E0,5.6E1,1E1,1.7E1,2.3E1,8.2E1,4.8E1,3.4E1,1.6E1,1.2E1,6.1E1,1.2E1],"tree_param":{"num_deleted":"0","num_feature":"108","num_nodes":"65","size_leaf_vector":"1"}},{"base_weights":[1.0762639E-2,-1.4550744E-1,3.5984802E-1,-1.8478301E-1,3.5909015E-1,2.8393903E-1,7.3971075E-1,-2.814231E-1,-7.857944E-2,5.366245E-1,1.1565339E-1,4.0885803E-1,1.18651114E-1,6.264227E-1,1.1595424E0,-3.334959E-1,-2.2168657E-1,-2.9155385E-2,-2.592306E-1,6.2345816E-3,6.525049E-1,-1.2920754E-3,1.7704839E-1,4.3698776E-1,-2.2895455E-2,4.8744995E-2,3.4650728E-1,7.0435584E-1,5.7588555E-3,3.516071E-2,6.56661E-2,-2.6345807E-1,-4.136066E-1,-8.231204E-2,-2.6725668E-1,-4.3826383E-2,1.6365457E-1,-2.6629714E-2,-2.1427014E-1,2.3762628E-2,4.0467173E-2,1.3967317E-2,4.199143E-3,2.4111508E-1,5.665067E-1,-1.0172152E-1,9.402448E-2,1.9395813E-2,7.6568434E-3,8.4095746E-1,5.14699E-1,-1.8145377E-2,-1.0547989E-2,-2.5762342E-2,-1.5546406E-2,-5.948095E-3,6.9288267E-3,-1.0798833E-2,-1.6506314E-2,-3.1122402E-3,4.5851204E-3,2.752602E-3,1.3260699E-2,-1.1424637E-2,-2.4890571E-3,1.9351838E-2,7.754844E-3,3.9749872E-2,2.1473525E-2,-9.449931E-3,-1.2410416E-3,8.2758314E-4,7.871861E-3,2.8645309E-2,5.002955E-2,1.1005926E-2,2.9593077E-2],"categories":[],"categories_nodes":[],"categories_segments":[],"categories_sizes":[],"default_left":[0,0,0,0,0,0,0,0,0,0,0,0,0,0,0,0,0,0,0,0,0,0,0,0,0,0,0,0,0,0,0,0,0,0,0,0,0,0,0,0,0,0,0,0,0,0,0,0,0,0,0,0,0,0,0,0,0,0,0,0,0,0,0,0,0,0,0,0,0,0,0,0,0,0,0,0,0],"id":11,"left_children":[1,3,5,7,9,11,13,15,17,19,21,23,25,27,29,31,33,35,37,-1,39,-1,41,43,-1,45,47,49,-1,-1,-1,51,53,55,57,59,61,-1,63,-1,-1,-1,-1,65,67,69,71,-1,-1,73,75,-1,-1,-1,-1,-1,-1,-1,-1,-1,-1,-1,-1,-1,-1,-1,-1,-1,-1,-1,-1,-1,-1,-1,-1,-1,-1],"loss_changes":[6.633256E1,1.6713774E1,1.0631931E1,7.983429E0,2.5742583E0,6.4554825E0,2.222477E0,1.1952133E0,3.322778E0,1.5673904E0,2.4090075E-1,4.6582413E0,2.1653192E0,1.9306965E0,5.3182602E-2,1.1029625E0,1.203805E0,8.388145E-1,9.365487E-1,0E0,3.9172363E-1,0E0,1.6739154E-1,4.2776527E0,0E0,7.317472E-1,2.7187657E-1,7.0708656E-1,0E0,0E0,0E0,5.1250553E-1,9.1748047E-1,4.7305736E-1,3.9443874E-1,7.961269E-1,2.3372144E-1,0E0,2.5071716E-1,0E0,0E0,0E0,0E0,8.489375E-1,2.8812866E0,1.741504E-1,4.3395305E-1,0E0,0E0,5.494957E-1,4.5697594E-1,0E0,0E0,0E0,0E0,0E0,0E0,0E0,0E0,0E0,0E0,0E0,0E0,0E0,0E0,0E0,0E0,0E0,0E0,0E0,0E0,0E0,0E0,0E0,0E0,0E0,0E0],"parents":[2147483647,0,0,1,1,2,2,3,3,4,4,5,5,6,6,7,7,8,8,9,9,10,10,11,11,12,12,13,13,14,14,15,15,16,16,17,17,18,18,20,20,22,22,23,23,25,25,26,26,27,27,31,31,32,32,33,33,34,34,35,35,36,36,38,38,43,43,44,44,45,45,46,46,49,49,50,50],"right_children":[2,4,6,8,10,12,14,16,18,20,22,24,26,28,30,32,34,36,38,-1,40,-1,42,44,-1,46,48,50,-1,-1,-1,52,54,56,58,60,62,-1,64,-1,-1,-1,-1,66,68,70,72,-1,-1,74,76,-1,-1,-1,-1,-1,-1,-1,-1,-1,-1,-1,-1,-1,-1,-1,-1,-1,-1,-1,-1,-1,-1,-1,-1,-1,-1],"split_conditions":[2.4118635E8,1.5078629E3,4.197798E3,5E2,2E0,1.0846253E1,2.098776E2,2.98E2,3.529313E1,5.579E3,1.28E2,8.8562695E2,1.6054606E9,1.314806E8,3.305542E4,3.10032E5,3.1969492E4,2.4013862E5,1.791112E7,6.2345816E-3,1.1965709E5,-1.2920754E-3,1E0,5.2452653E8,-2.2895455E-2,1.6858337E3,1.2742166E7,3.3554048E7,5.7588555E-3,3.516071E-2,6.56661E-2,2.02E2,7.73816E5,5.3197E4,2.8E1,1.5291523E8,3.923E3,-2.6629714E-2,8.99718E5,2.3762628E-2,4.0467173E-2,1.3967317E-2,4.199143E-3,1.4560673E4,4.921875E10,3.3319763E1,9.606877E-2,1.9395813E-2,7.6568434E-3,6.19962E3,2.0569E4,-1.8145377E-2,-1.0547989E-2,-2.5762342E-2,-1.5546406E-2,-5.948095E-3,6.9288267E-3,-1.0798833E-2,-1.6506314E-2,-3.1122402E-3,4.5851204E-3,2.752602E-3,1.3260699E-2,-1.1424637E-2,-2.4890571E-3,1.9351838E-2,7.754844E-3,3.9749872E-2,2.1473525E-2,-9.449931E-3,-1.2410416E-3,8.2758314E-4,7.871861E-3,2.8645309E-2,5.002955E-2,1.1005926E-2,2.9593077E-2],"split_indices":[7,64,64,2,8,65,68,2,65,2,10,70,7,1,4,5,57,40,7,0,40,0,24,7,0,4,57,63,0,0,0,2,7,1,11,7,2,0,1,0,0,0,0,40,43,70,50,0,0,64,10,0,0,0,0,0,0,0,0,0,0,0,0,0,0,0,0,0,0,0,0,0,0,0,0,0,0],"split_type":[0,0,0,0,0,0,0,0,0,0,0,0,0,0,0,0,0,0,0,0,0,0,0,0,0,0,0,0,0,0,0,0,0,0,0,0,0,0,0,0,0,0,0,0,0,0,0,0,0,0,0,0,0,0,0,0,0,0,0,0,0,0,0,0,0,0,0,0,0,0,0,0,0,0,0,0,0],"sum_hessian":[1.214E3,8.39E2,3.75E2,7.79E2,6E1,3.14E2,6.1E1,4.07E2,3.72E2,3.4E1,2.6E1,1.78E2,1.36E2,5E1,1.1E1,2.15E2,1.92E2,2.93E2,7.9E1,8E0,2.6E1,8E0,1.8E1,1.73E2,5E0,1.05E2,3.1E1,4.3E1,7E0,5E0,6E0,1.17E2,9.8E1,4.8E1,1.44E2,2.73E2,2E1,9E0,7E1,1.6E1,1E1,7E0,1.1E1,7E1,1.03E2,2.4E1,8.1E1,2.3E1,8E0,2.3E1,2E1,3.1E1,8.6E1,4E1,5.8E1,4.1E1,7E0,9.4E1,5E1,2.38E2,3.5E1,1.1E1,9E0,6.1E1,9E0,2.2E1,4.8E1,3.1E1,7.2E1,1E1,1.4E1,3.9E1,4.2E1,1.2E1,1.1E1,6E0,1.4E1],"tree_param":{"num_deleted":"0","num_feature":"108","num_nodes":"77","size_leaf_vector":"1"}},{"base_weights":[2.4126552E-3,-1.334933E-1,3.592603E-1,-1.6980803E-1,3.1531042E-1,2.2565019E-1,5.5948573E-1,-2.5240603E-1,-6.7962244E-2,1.5584521E-1,6.496003E-1,3.1227925E-1,1.5423414E-2,4.8650023E-1,8.55323E-1,-3.0889544E-1,-1.7407355E-1,-3.3651356E-2,-1.9175039E-1,3.1560987E-1,5.1306967E-2,2.4523402E-2,3.9268315E-2,3.9716253E-1,1.4645314E-1,-8.677234E-3,5.811682E-2,4.8071716E-2,4.189748E-1,4.706109E-2,2.7760638E-2,-2.8715518E-1,-5.543338E-1,-5.103568E-1,-1.4649141E-1,-1.09439835E-1,5.4926585E-2,-2.2779483E-1,-8.130171E-3,4.517205E-3,4.4828868E-1,-1.4746601E-2,9.626292E-3,2.6945058E-1,5.361659E-1,-5.8036824E-3,4.1745436E-1,1.954677E-1,1.889241E-2,4.507625E-1,-6.9192504E-3,-1.6582062E-2,-1.1310773E-2,-7.7340286E-3,-3.8727485E-2,-5.988135E-3,-3.4270342E-2,-2.7856936E-3,-9.340701E-3,-1.05871465E-2,-1.8078446E-3,1.2130965E-2,2.732141E-6,-1.1797764E-2,-2.391209E-3,3.0084767E-3,-3.3181433E-3,1.2208695E-2,2.7401987E-2,-5.60668E-3,4.2498307E-3,2.0490447E-2,6.0907486E-3,2.7807616E-2,8.752471E-3,-9.722626E-3,5.5792145E-3,2.3456374E-2,9.537044E-3,1.2423681E-2,4.8478004E-3,-2.5264202E-3,4.842262E-3,1.3908899E-2,2.6872423E-2],"categories":[],"categories_nodes":[],"categories_segments":[],"categories_sizes":[],"default_left":[0,0,0,0,0,0,0,0,0,0,0,0,0,0,0,0,0,0,0,0,0,0,0,0,0,0,0,0,0,0,0,0,0,0,0,0,0,0,0,0,0,0,0,0,0,0,0,0,0,0,0,0,0,0,0,0,0,0,0,0,0,0,0,0,0,0,0,0,0,0,0,0,0,0,0,0,0,0,0,0,0,0,0,0,0],"id":12,"left_children":[1,3,5,7,9,11,13,15,17,19,21,23,25,27,29,31,33,35,37,39,41,-1,-1,43,45,-1,47,-1,49,-1,-1,51,53,55,57,59,61,63,65,-1,67,69,-1,71,73,75,77,79,81,83,-1,-1,-1,-1,-1,-1,-1,-1,-1,-1,-1,-1,-1,-1,-1,-1,-1,-1,-1,-1,-1,-1,-1,-1,-1,-1,-1,-1,-1,-1,-1,-1,-1,-1,-1],"loss_changes":[5.87302E1,1.4347048E1,8.808968E0,6.8135967E0,3.4170647E0,3.6739569E0,2.4556007E0,1.9286098E0,1.5438052E0,7.5207675E-1,7.3690414E-2,1.9546824E0,5.111624E-1,3.3425884E0,2.8342056E-1,1.2228146E0,1.6875658E0,1.9326959E0,5.21008E-1,4.8789287E-1,2.8725988E-1,0E0,0E0,1.5242548E0,2.065512E0,0E0,2.6568246E-1,0E0,1.8171349E0,0E0,0E0,6.3580894E-1,1.8341055E0,9.965608E-1,7.3156285E-1,1.2207009E0,1.4359741E0,1.8767047E-1,6.4268366E-2,0E0,1.1390948E-1,2.2982156E-1,0E0,1.0823691E0,5.317478E-1,8.09333E-1,1.7731786E-1,3.9100766E-2,2.379637E-1,1.4498692E0,0E0,0E0,0E0,0E0,0E0,0E0,0E0,0E0,0E0,0E0,0E0,0E0,0E0,0E0,0E0,0E0,0E0,0E0,0E0,0E0,0E0,0E0,0E0,0E0,0E0,0E0,0E0,0E0,0E0,0E0,0E0,0E0,0E0,0E0,0E0],"parents":[2147483647,0,0,1,1,2,2,3,3,4,4,5,5,6,6,7,7,8,8,9,9,10,10,11,11,12,12,13,13,14,14,15,15,16,16,17,17,18,18,19,19,20,20,23,23,24,24,26,26,28,28,31,31,32,32,33,33,34,34,35,35,36,36,37,37,38,38,40,40,41,41,43,43,44,44,45,45,46,46,47,47,48,48,49,49],"right_children":[2,4,6,8,10,12,14,16,18,20,22,24,26,28,30,32,34,36,38,40,42,-1,-1,44,46,-1,48,-1,50,-1,-1,52,54,56,58,60,62,64,66,-1,68,70,-1,72,74,76,78,80,82,84,-1,-1,-1,-1,-1,-1,-1,-1,-1,-1,-1,-1,-1,-1,-1,-1,-1,-1,-1,-1,-1,-1,-1,-1,-1,-1,-1,-1,-1,-1,-1,-1,-1,-1,-1],"split_conditions":[3.016446E8,1.530655E3,1.440108E9,3.3002016E8,4.197798E3,2.8527344E1,4.091015E9,5.661E3,8.7791725E1,1.03E2,1.09981336E5,1.3349824E7,1.2577654E3,1.138896E6,1.2427485E10,2.6700245E8,4E1,7.0967096E7,9.54947E5,5.446E3,6.2297785E4,2.4523402E-2,3.9268315E-2,5.368708E8,3.2784192E3,-8.677234E-3,2.16982E5,4.8071716E-2,7.42669E5,4.706109E-2,2.7760638E-2,4.765313E3,1.0465117E0,9.5E1,6.5580735E0,6.84E2,2.59E2,1.6395413E7,5.60472E5,4.517205E-3,7.1303144E7,1.712975E6,9.626292E-3,1E0,2.8349884E7,2.4267822E1,2.0089285E-2,5.316467E1,7.245512E8,1.6356847E5,-6.9192504E-3,-1.6582062E-2,-1.1310773E-2,-7.7340286E-3,-3.8727485E-2,-5.988135E-3,-3.4270342E-2,-2.7856936E-3,-9.340701E-3,-1.05871465E-2,-1.8078446E-3,1.2130965E-2,2.732141E-6,-1.1797764E-2,-2.391209E-3,3.0084767E-3,-3.3181433E-3,1.2208695E-2,2.7401987E-2,-5.60668E-3,4.2498307E-3,2.0490447E-2,6.0907486E-3,2.7807616E-2,8.752471E-3,-9.722626E-3,5.5792145E-3,2.3456374E-2,9.537044E-3,1.2423681E-2,4.8478004E-3,-2.5264202E-3,4.842262E-3,1.3908899E-2,2.6872423E-2],"split_indices":[7,64,7,43,64,65,7,9,66,3,40,57,4,1,12,43,7,7,1,2,45,0,0,7,64,0,41,0,2,0,0,40,65,3,66,2,0,12,9,0,7,1,0,13,9,68,69,68,7,45,0,0,0,0,0,0,0,0,0,0,0,0,0,0,0,0,0,0,0,0,0,0,0,0,0,0,0,0,0,0,0,0,0,0,0],"split_type":[0,0,0,0,0,0,0,0,0,0,0,0,0,0,0,0,0,0,0,0,0,0,0,0,0,0,0,0,0,0,0,0,0,0,0,0,0,0,0,0,0,0,0,0,0,0,0,0,0,0,0,0,0,0,0,0,0,0,0,0,0,0,0,0,0,0,0,0,0,0,0,0,0,0,0,0,0,0,0,0,0,0,0,0,0],"sum_hessian":[1.209E3,8.76E2,3.33E2,8.11E2,6.5E1,2.01E2,1.32E2,4.47E2,3.64E2,4.5E1,2E1,1.42E2,5.9E1,1.08E2,2.4E1,2.58E2,1.89E2,2.86E2,7.8E1,1.7E1,2.8E1,1.3E1,7E0,9.3E1,4.9E1,1E1,4.9E1,1.1E1,9.7E1,1.5E1,9E0,2.39E2,1.9E1,1.3E1,1.76E2,1.54E2,1.32E2,6.5E1,1.3E1,7E0,1E1,2E1,8E0,5E1,4.3E1,3.2E1,1.7E1,1E1,3.9E1,9.2E1,5E0,1.12E2,1.27E2,8E0,1.1E1,5E0,8E0,6.2E1,1.14E2,6E1,9.4E1,2.8E1,1.04E2,5.9E1,6E0,6E0,7E0,5E0,5E0,1E1,1E1,2.3E1,2.7E1,3.8E1,5E0,1.2E1,2E1,1.2E1,5E0,5E0,5E0,2.1E1,1.8E1,3.8E1,5.4E1],"tree_param":{"num_deleted":"0","num_feature":"108","num_nodes":"85","size_leaf_vector":"1"}},{"base_weights":[1.9794216E-3,-1.6352026E-1,3.00644E-1,-1.9490322E-1,2.7717522E-1,2.1936812E-1,6.481245E-1,-2.6327586E-1,-1.00421466E-1,4.4931203E-1,4.0597834E-2,4.6567544E-1,1.7962515E-1,5.514205E-1,4.4123694E-2,-3.1155464E-1,-2.1397816E-1,-5.5451732E-2,-2.1298377E-1,3.8380185E-3,5.583607E-1,-3.286404E-2,1.225231E-2,3.502293E-1,4.8154194E-2,1.2998103E-1,4.343114E-1,5.8569354E-1,1.1897989E-2,-2.7399674E-1,-4.1498125E-1,-1.1553366E-1,-2.59983E-1,-1.5653716E-1,1.5734622E-2,-1.9431457E-2,-1.8862057E-1,3.0874014E-2,1.3441731E-2,-6.7708823E-3,3.2427327E-3,5.794455E-3,3.9404678E-1,7.2152235E-2,3.9115632E-1,3.5577095E-1,4.119475E-2,4.6899477E-1,6.492808E-1,-1.8059835E-2,-1.1612126E-2,-1.7558774E-2,-3.660816E-2,-1.5444119E-2,-3.8295104E-3,-1.14296805E-2,-2.1159349E-2,-4.2569926E-3,-1.3472817E-2,5.4016267E-3,-4.265479E-3,-4.3277498E-4,-9.669956E-3,3.1462986E-2,1.4592946E-2,1.2887066E-2,1.8986515E-3,4.6218365E-2,1.4387656E-2,1.9353662E-2,3.123666E-4,2.5765952E-2,9.349982E-3,3.3075754E-2,1.7757382E-2],"categories":[],"categories_nodes":[],"categories_segments":[],"categories_sizes":[],"default_left":[0,0,0,0,0,0,0,0,0,0,0,0,0,0,0,0,0,0,0,0,0,0,0,0,0,0,0,0,0,0,0,0,0,0,0,0,0,0,0,0,0,0,0,0,0,0,0,0,0,0,0,0,0,0,0,0,0,0,0,0,0,0,0,0,0,0,0,0,0,0,0,0,0,0,0],"id":13,"left_children":[1,3,5,7,9,11,13,15,17,19,21,23,25,27,-1,29,31,33,35,-1,37,39,-1,41,-1,43,45,47,-1,49,51,53,55,57,59,-1,61,-1,-1,-1,-1,-1,63,65,67,69,-1,71,73,-1,-1,-1,-1,-1,-1,-1,-1,-1,-1,-1,-1,-1,-1,-1,-1,-1,-1,-1,-1,-1,-1,-1,-1,-1,-1],"loss_changes":[5.9610977E1,1.0786356E1,1.2001793E1,4.6570396E0,2.0993903E0,3.3425007E0,1.5895386E0,9.3294525E-1,1.5371306E0,1.164926E0,3.692907E-1,2.6061563E0,3.774581E0,5.02573E-1,0E0,7.020397E-1,9.255667E-1,1.5855618E0,3.270793E-1,0E0,3.498845E-1,2.034538E-1,0E0,3.6582994E-1,0E0,3.8231573E0,1.3138847E0,1.0362053E-1,0E0,4.3252563E-1,6.65987E-1,4.8462123E-1,4.8050976E-1,7.388165E-1,1.3154178E0,0E0,1.6873336E-1,0E0,0E0,0E0,0E0,0E0,6.0528517E-1,1.3325264E0,2.1332402E0,6.851182E-1,0E0,3.1126738E-1,8.998108E-2,0E0,0E0,0E0,0E0,0E0,0E0,0E0,0E0,0E0,0E0,0E0,0E0,0E0,0E0,0E0,0E0,0E0,0E0,0E0,0E0,0E0,0E0,0E0,0E0,0E0,0E0],"parents":[2147483647,0,0,1,1,2,2,3,3,4,4,5,5,6,6,7,7,8,8,9,9,10,10,11,11,12,12,13,13,15,15,16,16,17,17,18,18,20,20,21,21,23,23,25,25,26,26,27,27,29,29,30,30,31,31,32,32,33,33,34,34,36,36,42,42,43,43,44,44,45,45,47,47,48,48],"right_children":[2,4,6,8,10,12,14,16,18,20,22,24,26,28,-1,30,32,34,36,-1,38,40,-1,42,-1,44,46,48,-1,50,52,54,56,58,60,-1,62,-1,-1,-1,-1,-1,64,66,68,70,-1,72,74,-1,-1,-1,-1,-1,-1,-1,-1,-1,-1,-1,-1,-1,-1,-1,-1,-1,-1,-1,-1,-1,-1,-1,-1,-1,-1],"split_conditions":[1.5291523E8,1.5078629E3,4.1331047E-1,6.2397E4,1.01E2,1.0076923E0,8.625562E0,2.98E2,2.6540722E1,4.852E3,2.6995583E3,6.2234944E8,2.609323E3,1.5165704E7,4.4123694E-2,1.030126E6,2.5714285E1,9.65E2,6.714161E7,3.8380185E-3,7.425874E-6,5.2E2,1.225231E-2,4.1867702E1,4.8154194E-2,1.440108E9,6.7652373E3,9.8216E4,1.1897989E-2,5.317764E2,1.7201538E2,4.413429E2,2.858938E1,2.232002E-5,1.2742166E7,-1.9431457E-2,3.809897E0,3.0874014E-2,1.3441731E-2,-6.7708823E-3,3.2427327E-3,5.794455E-3,8.247923E6,1.7E1,5.846E3,4.1372976E7,4.119475E-2,1.16995074E-1,1.5592E4,-1.8059835E-2,-1.1612126E-2,-1.7558774E-2,-3.660816E-2,-1.5444119E-2,-3.8295104E-3,-1.14296805E-2,-2.1159349E-2,-4.2569926E-3,-1.3472817E-2,5.4016267E-3,-4.265479E-3,-4.3277498E-4,-9.669956E-3,3.1462986E-2,1.4592946E-2,1.2887066E-2,1.8986515E-3,4.6218365E-2,1.4387656E-2,1.9353662E-2,3.123666E-4,2.5765952E-2,9.349982E-3,3.3075754E-2,1.7757382E-2],"split_indices":[7,64,47,1,3,65,47,2,65,2,64,7,64,9,0,5,64,2,7,0,50,0,0,64,0,7,64,2,0,40,67,40,66,51,57,0,70,0,0,0,0,0,5,10,2,62,0,69,0,0,0,0,0,0,0,0,0,0,0,0,0,0,0,0,0,0,0,0,0,0,0,0,0,0,0],"split_type":[0,0,0,0,0,0,0,0,0,0,0,0,0,0,0,0,0,0,0,0,0,0,0,0,0,0,0,0,0,0,0,0,0,0,0,0,0,0,0,0,0,0,0,0,0,0,0,0,0,0,0,0,0,0,0,0,0,0,0,0,0,0,0,0,0,0,0,0,0,0,0,0,0,0,0],"sum_hessian":[1.204E3,7.75E2,4.29E2,7.24E2,5.1E1,3.49E2,8E1,4.19E2,3.05E2,2.9E1,2.2E1,4.7E1,3.02E2,6.1E1,1.9E1,2.09E2,2.1E2,2.19E2,8.6E1,7E0,2.2E1,1.7E1,5E0,4E1,7E0,2.54E2,4.8E1,5.4E1,7E0,1.56E2,5.3E1,6.8E1,1.42E2,9E1,1.29E2,8E0,7.8E1,1.6E1,6E0,8E0,9E0,7E0,3.3E1,2.09E2,4.5E1,4.2E1,6E0,2.2E1,3.2E1,3.6E1,1.2E2,4.8E1,5E0,9E0,5.9E1,1.28E2,1.4E1,5.9E1,3.1E1,6.7E1,6.2E1,5E0,7.3E1,7E0,2.6E1,2.9E1,1.8E2,5E0,4E1,3.7E1,5E0,1.7E1,5E0,2.7E1,5E0],"tree_param":{"num_deleted":"0","num_feature":"108","num_nodes":"75","size_leaf_vector":"1"}},{"base_weights":[1.0717194E-2,-1.1740625E-1,3.2589954E-1,-1.5488054E-1,3.0438158E-1,2.6025355E-1,6.3479674E-1,-2.3971699E-1,-6.986853E-2,5.0046134E-1,8.840062E-2,7.0908684E-1,2.1924146E-1,5.4305845E-1,4.831288E-2,-2.6627004E-1,-1.21811666E-1,-1.7276263E-2,-1.9346985E-1,2.0959404E-1,6.154593E-1,1.5467468E-2,1.880738E-2,5.4139376E-1,5.4072984E-2,1.3374436E-1,4.1955653E-1,6.040237E-1,-7.1578263E-4,-2.0732558E-1,-3.047002E-1,-1.893092E-1,3.902228E-2,-7.971364E-2,5.7978686E-2,-4.05211E-1,-1.59034E-1,4.4259205E-3,1.35234585E-2,3.4408726E-2,1.18655525E-2,-4.7154864E-3,7.9210505E-2,2.9508084E-2,1.6023517E-2,1.549868E-1,-2.619569E-2,3.799193E-2,3.7340158E-1,3.465083E-2,4.459666E-1,-1.4668945E-2,-8.518869E-3,-2.3142805E-2,-1.3688949E-2,-3.1598476E-3,-1.2939215E-2,-3.999904E-3,1.3406898E-2,-9.826575E-3,-1.7268631E-3,-1.0227328E-2,3.6321986E-3,-2.4989437E-2,-1.2506537E-2,-9.088187E-3,-2.2570475E-3,6.5658446E-3,3.4558816E-5,1.3007074E-2,2.0870063E-3,1.4458277E-2,2.5541723E-2,2.4131749E-2,1.0437717E-2],"categories":[],"categories_nodes":[],"categories_segments":[],"categories_sizes":[],"default_left":[0,0,0,0,0,0,0,0,0,0,0,0,0,0,0,0,0,0,0,0,0,0,0,0,0,0,0,0,0,0,0,0,0,0,0,0,0,0,0,0,0,0,0,0,0,0,0,0,0,0,0,0,0,0,0,0,0,0,0,0,0,0,0,0,0,0,0,0,0,0,0,0,0,0,0],"id":14,"left_children":[1,3,5,7,9,11,13,15,17,19,21,23,25,27,-1,29,31,33,35,37,39,-1,41,43,-1,45,47,49,-1,51,53,55,57,59,61,63,65,-1,-1,-1,-1,-1,67,-1,-1,69,-1,-1,71,-1,73,-1,-1,-1,-1,-1,-1,-1,-1,-1,-1,-1,-1,-1,-1,-1,-1,-1,-1,-1,-1,-1,-1,-1,-1],"loss_changes":[4.918346E1,1.373531E1,6.972599E0,5.724098E0,2.962574E0,5.219555E0,1.5128632E0,1.2136002E0,2.590346E0,1.1086206E0,5.6034315E-1,1.0541496E0,4.5508766E0,1.743639E0,0E0,6.7076683E-1,8.2157946E-1,1.3249626E0,8.032446E-1,7.4563324E-2,7.696457E-1,0E0,2.0503299E-1,7.771921E-2,0E0,2.817726E0,1.0671148E0,5.149803E-1,0E0,3.348117E-1,5.6744957E-1,5.015782E-1,6.9422215E-1,8.318701E-1,6.171851E-1,1.2957382E-1,3.357873E-1,0E0,0E0,0E0,0E0,0E0,8.4942006E-2,0E0,0E0,2.3621411E0,0E0,0E0,6.8001175E-1,0E0,1.677823E-1,0E0,0E0,0E0,0E0,0E0,0E0,0E0,0E0,0E0,0E0,0E0,0E0,0E0,0E0,0E0,0E0,0E0,0E0,0E0,0E0,0E0,0E0,0E0,0E0],"parents":[2147483647,0,0,1,1,2,2,3,3,4,4,5,5,6,6,7,7,8,8,9,9,10,10,11,11,12,12,13,13,15,15,16,16,17,17,18,18,19,19,20,20,22,22,23,23,25,25,26,26,27,27,29,29,30,30,31,31,32,32,33,33,34,34,35,35,36,36,42,42,45,45,48,48,50,50],"right_children":[2,4,6,8,10,12,14,16,18,20,22,24,26,28,-1,30,32,34,36,38,40,-1,42,44,-1,46,48,50,-1,52,54,56,58,60,62,64,66,-1,-1,-1,-1,-1,68,-1,-1,70,-1,-1,72,-1,74,-1,-1,-1,-1,-1,-1,-1,-1,-1,-1,-1,-1,-1,-1,-1,-1,-1,-1,-1,-1,-1,-1,-1,-1],"split_conditions":[3.016446E8,1.5078629E3,4.197798E3,5.11E2,1.01E2,1.675803E2,2.098776E2,2.0967E4,6.651711E1,8.7573164E4,1.3923E5,3.43419E5,1.5522031E9,1.314806E8,4.831288E-2,3.10032E5,2.6722734E8,6.927584E7,1.760178E6,3.9714286E0,7.425874E-6,1.5467468E-2,1.712975E6,2.265E3,5.4072984E-2,3.9457364E0,1.6492308E1,1E0,-7.1578263E-4,2.02E2,1.3039453E2,7.20094E5,8.756142E7,6.52E2,2.880846E3,6.714161E7,1.082442E6,4.4259205E-3,1.35234585E-2,3.4408726E-2,1.18655525E-2,-4.7154864E-3,1.329E6,2.9508084E-2,1.6023517E-2,3.0929516E1,-2.619569E-2,3.799193E-2,1.631713E5,3.465083E-2,6.659692E6,-1.4668945E-2,-8.518869E-3,-2.3142805E-2,-1.3688949E-2,-3.1598476E-3,-1.2939215E-2,-3.999904E-3,1.3406898E-2,-9.826575E-3,-1.7268631E-3,-1.0227328E-2,3.6321986E-3,-2.4989437E-2,-1.2506537E-2,-9.088187E-3,-2.2570475E-3,6.5658446E-3,3.4558816E-5,1.3007074E-2,2.0870063E-3,1.4458277E-2,2.5541723E-2,2.4131749E-2,1.0437717E-2],"split_indices":[7,64,64,2,3,64,68,9,66,40,41,1,7,1,0,5,43,7,5,66,50,0,1,2,0,69,68,13,0,2,67,5,7,2,40,7,1,0,0,0,0,0,41,0,0,66,0,0,40,0,59,0,0,0,0,0,0,0,0,0,0,0,0,0,0,0,0,0,0,0,0,0,0,0,0],"split_type":[0,0,0,0,0,0,0,0,0,0,0,0,0,0,0,0,0,0,0,0,0,0,0,0,0,0,0,0,0,0,0,0,0,0,0,0,0,0,0,0,0,0,0,0,0,0,0,0,0,0,0,0,0,0,0,0,0,0,0,0,0,0,0,0,0,0,0,0,0,0,0,0,0,0,0],"sum_hessian":[1.216E3,8.65E2,3.51E2,7.95E2,7E1,2.91E2,6E1,3.97E2,3.98E2,3.6E1,3.4E1,2.3E1,2.68E2,5E1,1E1,3.23E2,7.4E1,2.8E2,1.18E2,1.1E1,2.5E1,7E0,2.7E1,1.8E1,5E0,1.89E2,7.9E1,4.5E1,5E0,1.3E2,1.93E2,5.2E1,2.2E1,1.53E2,1.27E2,1.5E1,1.03E2,5E0,6E0,1.9E1,6E0,9E0,1.8E1,1.2E1,6E0,1.84E2,5E0,7E0,7.2E1,2.4E1,2.1E1,2.9E1,1.01E2,1.8E1,1.75E2,2.1E1,3.1E1,1.5E1,7E0,3.9E1,1.14E2,7E0,1.2E2,7E0,8E0,8.1E1,2.2E1,1E1,8E0,9E1,9.4E1,5.1E1,2.1E1,1.6E1,5E0],"tree_param":{"num_deleted":"0","num_feature":"108","num_nodes":"75","size_leaf_vector":"1"}},{"base_weights":[-9.029068E-3,-1.4698869E-1,2.5106952E-1,-1.7742749E-1,2.8724948E-1,1.6317928E-1,4.731364E-1,-2.3192815E-1,-6.359931E-2,1.543145E-1,2.458079E-2,1.3606313E-1,6.7112297E-1,4.8672426E-2,4.1955316E-1,-2.8284657E-1,-1.9160026E-1,-5.4978416E-3,-1.6757755E-1,3.223156E-1,2.0597931E-2,1.6196841E-1,-3.4448388E-1,1.9998679E-2,4.753287E-2,1.1077319E-1,5.008458E-1,-3.1438723E-1,-2.267012E-1,-1.6247605E-1,-3.1382373E-1,9.756765E-3,-1.2244039E-2,-1.23359345E-1,-2.705356E-1,2.6793946E-2,7.225234E-3,1.1334435E-1,-4.0235627E-3,2.646096E-1,1.8647403E-2,-3.1369753E-2,2.3945051E-4,3.0706817E-1,-5.1370952E-2,3.3822364E-1,5.957195E-1,-1.4132739E-2,-2.5545884E-2,-7.102151E-3,-1.3356546E-2,-9.583371E-3,-4.2465236E-3,-2.0886898E-2,-7.836459E-3,-4.6459786E-3,2.560974E-3,2.2126867E-3,-6.8590553E-3,-1.9403635E-2,-9.485604E-3,1.0092417E-2,-7.733673E-5,8.822652E-3,1.7500574E-2,-6.117868E-3,3.4471576E-3,6.5993816E-3,2.053309E-2,-1.2970346E-2,4.7955182E-3,1.0404057E-2,1.9044768E-2,4.601376E-2,2.5950491E-2],"categories":[],"categories_nodes":[],"categories_segments":[],"categories_sizes":[],"default_left":[0,0,0,0,0,0,0,0,0,0,0,0,0,0,0,0,0,0,0,0,0,0,0,0,0,0,0,0,0,0,0,0,0,0,0,0,0,0,0,0,0,0,0,0,0,0,0,0,0,0,0,0,0,0,0,0,0,0,0,0,0,0,0,0,0,0,0,0,0,0,0,0,0,0,0],"id":15,"left_children":[1,3,5,7,9,11,13,15,17,19,-1,21,23,-1,25,27,29,31,33,35,37,39,41,-1,-1,43,45,47,49,51,53,55,-1,57,59,-1,-1,61,-1,63,65,-1,-1,67,69,71,73,-1,-1,-1,-1,-1,-1,-1,-1,-1,-1,-1,-1,-1,-1,-1,-1,-1,-1,-1,-1,-1,-1,-1,-1,-1,-1,-1,-1],"loss_changes":[4.3276043E1,1.0466503E1,8.081116E0,4.5573864E0,1.4611888E0,4.0545015E0,2.9700356E0,9.684143E-1,1.4489878E0,7.5715494E-1,0E0,3.628574E0,8.016548E-1,0E0,2.6805878E0,3.1477737E-1,9.49276E-1,5.901608E-1,3.581524E-1,5.208063E-1,2.0252484E-1,4.0110703E0,1.6092719E0,0E0,0E0,7.796484E-1,1.12537E0,4.6955395E-1,2.8724527E-1,6.0177135E-1,8.877306E-1,6.8204486E-1,0E0,2.0546913E-1,1.6416359E-1,0E0,0E0,1.2179574E-1,0E0,1.210783E0,8.9433706E-1,0E0,0E0,1.643095E-1,4.8669463E-1,1.5151906E-1,5.7591057E-1,0E0,0E0,0E0,0E0,0E0,0E0,0E0,0E0,0E0,0E0,0E0,0E0,0E0,0E0,0E0,0E0,0E0,0E0,0E0,0E0,0E0,0E0,0E0,0E0,0E0,0E0,0E0,0E0],"parents":[2147483647,0,0,1,1,2,2,3,3,4,4,5,5,6,6,7,7,8,8,9,9,11,11,12,12,14,14,15,15,16,16,17,17,18,18,19,19,20,20,21,21,22,22,25,25,26,26,27,27,28,28,29,29,30,30,31,31,33,33,34,34,37,37,39,39,40,40,43,43,44,44,45,45,46,46],"right_children":[2,4,6,8,10,12,14,16,18,20,-1,22,24,-1,26,28,30,32,34,36,38,40,42,-1,-1,44,46,48,50,52,54,56,-1,58,60,-1,-1,62,-1,64,66,-1,-1,68,70,72,74,-1,-1,-1,-1,-1,-1,-1,-1,-1,-1,-1,-1,-1,-1,-1,-1,-1,-1,-1,-1,-1,-1,-1,-1,-1,-1,-1,-1],"split_conditions":[1.593835E8,1.5078629E3,1.440108E9,8.5858E4,4.197798E3,4.197798E3,1.138896E6,6.1617416E7,2.0911655E1,3.618431E7,2.458079E-2,4.0015572E7,1.7582284E7,4.8672426E-2,8.231956E4,6.7370984E7,1.1858963E2,6.023101E7,2.1058936E2,2.7777952E3,4.2795548E9,1.1059945E1,1.27E2,1.9998679E-2,4.753287E-2,8.169258E3,5.5207E4,3.911852E1,6.30811E5,7.49E3,7.342759E1,9.65E2,-1.2244039E-2,3.0609E4,1.13E2,2.6793946E-2,7.225234E-3,6.737109E7,-4.0235627E-3,4.053603E8,1.6858337E3,-3.1369753E-2,2.3945051E-4,3.6399153E3,2.8896303E4,9.998295E-2,1.121092E6,-1.4132739E-2,-2.5545884E-2,-7.102151E-3,-1.3356546E-2,-9.583371E-3,-4.2465236E-3,-2.0886898E-2,-7.836459E-3,-4.6459786E-3,2.560974E-3,2.2126867E-3,-6.8590553E-3,-1.9403635E-2,-9.485604E-3,1.0092417E-2,-7.733673E-5,8.822652E-3,1.7500574E-2,-6.117868E-3,3.4471576E-3,6.5993816E-3,2.053309E-2,-1.2970346E-2,4.7955182E-3,1.0404057E-2,1.9044768E-2,4.601376E-2,2.5950491E-2],"split_indices":[7,64,7,1,64,64,1,43,65,57,0,57,1,0,45,7,45,57,66,4,5,65,3,0,0,45,2,64,5,9,64,2,0,9,11,0,0,7,0,7,4,0,0,4,45,50,41,0,0,0,0,0,0,0,0,0,0,0,0,0,0,0,0,0,0,0,0,0,0,0,0,0,0,0,0],"split_type":[0,0,0,0,0,0,0,0,0,0,0,0,0,0,0,0,0,0,0,0,0,0,0,0,0,0,0,0,0,0,0,0,0,0,0,0,0,0,0,0,0,0,0,0,0,0,0,0,0,0,0,0,0,0,0,0,0,0,0,0,0,0,0,0,0,0,0,0,0,0,0,0,0,0,0],"sum_hessian":[1.204E3,7.87E2,4.17E2,7.36E2,5.1E1,3E2,1.17E2,4.97E2,2.39E2,3.3E1,1.8E1,2.86E2,1.4E1,9E0,1.08E2,2.17E2,2.8E2,1.54E2,8.5E1,1.4E1,1.9E1,2.72E2,1.4E1,9E0,5E0,2.3E1,8.5E1,1.36E2,8.1E1,2.28E2,5.2E1,1.46E2,8E0,6.1E1,2.4E1,5E0,9E0,1E1,9E0,1.58E2,1.14E2,7E0,7E0,1E1,1.3E1,3.3E1,5.2E1,1.26E2,1E1,3.3E1,4.8E1,1.52E2,7.6E1,2.8E1,2.4E1,4.2E1,1.04E2,6E0,5.5E1,7E0,1.7E1,5E0,5E0,8.8E1,7E1,3E1,8.4E1,5E0,5E0,5E0,8E0,1.2E1,2.1E1,5E0,4.7E1],"tree_param":{"num_deleted":"0","num_feature":"108","num_nodes":"75","size_leaf_vector":"1"}},{"base_weights":[-4.862431E-3,-1.1370541E-1,2.911522E-1,-1.4214131E-1,3.3912206E-1,2.0071815E-1,4.6376866E-1,-2.2612354E-1,-5.9210338E-2,5.1200074E-1,9.136722E-2,3.4240237E-1,6.728839E-2,4.9371526E-1,-2.6971188E-3,-3.1817764E-1,-2.0159711E-1,-3.0516293E-2,-2.4722627E-1,1.2042533E-2,6.078808E-1,1.2581465E-2,1.6124694E-2,-8.326384E-3,3.753694E-1,-3.946111E-2,2.0258199E-1,5.763186E-1,2.8468505E-1,-2.609751E-1,-4.2734808E-1,-1.23124205E-1,-2.5023144E-1,-8.3113596E-2,2.890663E-2,-2.1725202E-2,-1.9865991E-1,3.2555737E-2,1.7664954E-2,6.1397306E-3,-4.0851813E-2,5.989109E-1,3.1119546E-1,5.8139756E-2,-1.3290858E-1,1.2730336E-1,3.4122264E-1,8.2097965E-1,5.117771E-1,-1.6592829E-4,3.3816954E-1,-1.9900857E-2,-1.1373529E-2,-2.7996417E-2,-1.3296909E-2,-6.8832043E-4,-7.4485233E-3,-1.0655468E-2,-1.901646E-2,-9.001215E-3,-2.457441E-3,7.033222E-3,-2.0346558E-3,-1.2046392E-2,-6.7039845E-3,-4.769472E-3,1.6265764E-3,1.9066593E-2,3.4625366E-2,9.613952E-3,2.149285E-2,-3.1128922E-3,5.2520297E-3,-2.4993464E-3,-1.0399979E-2,-7.419737E-4,8.280239E-3,2.1617804E-2,9.446197E-3,4.7491618E-2,2.1088213E-2,1.4452918E-2,2.7080296E-2,1.08840065E-2,2.129226E-2],"categories":[],"categories_nodes":[],"categories_segments":[],"categories_sizes":[],"default_left":[0,0,0,0,0,0,0,0,0,0,0,0,0,0,0,0,0,0,0,0,0,0,0,0,0,0,0,0,0,0,0,0,0,0,0,0,0,0,0,0,0,0,0,0,0,0,0,0,0,0,0,0,0,0,0,0,0,0,0,0,0,0,0,0,0,0,0,0,0,0,0,0,0,0,0,0,0,0,0,0,0,0,0,0,0],"id":16,"left_children":[1,3,5,7,9,11,13,15,17,19,21,23,25,27,-1,29,31,33,35,-1,37,-1,39,-1,41,43,45,47,49,51,53,55,57,59,61,-1,63,-1,-1,-1,65,67,69,71,73,75,77,79,81,-1,83,-1,-1,-1,-1,-1,-1,-1,-1,-1,-1,-1,-1,-1,-1,-1,-1,-1,-1,-1,-1,-1,-1,-1,-1,-1,-1,-1,-1,-1,-1,-1,-1,-1,-1],"loss_changes":[3.930821E1,1.1534089E1,5.0271263E0,5.836981E0,2.223291E0,4.079321E0,1.770813E0,8.7734413E-1,2.2799091E0,6.2725353E-1,2.894342E-1,1.8481035E0,1.6399992E0,1.6661911E0,0E0,4.2552757E-1,1.2362604E0,1.1557066E0,4.6402E-1,0E0,1.11382484E-1,0E0,1.12976015E-1,0E0,1.2338295E0,5.914427E-1,4.7839522E-1,7.641506E-1,4.9429607E-1,1.2659025E-1,4.908533E-1,4.3897295E-1,7.709446E-1,6.431055E-1,1.4543515E0,0E0,1.0880101E-1,0E0,0E0,0E0,5.5358313E-2,2.26048E-1,1.1003284E0,2.0667002E-1,2.104752E-1,2.1854365E-1,1.7703581E-1,4.5135498E-1,4.896927E-1,0E0,2.1451831E-1,0E0,0E0,0E0,0E0,0E0,0E0,0E0,0E0,0E0,0E0,0E0,0E0,0E0,0E0,0E0,0E0,0E0,0E0,0E0,0E0,0E0,0E0,0E0,0E0,0E0,0E0,0E0,0E0,0E0,0E0,0E0,0E0,0E0,0E0],"parents":[2147483647,0,0,1,1,2,2,3,3,4,4,5,5,6,6,7,7,8,8,9,9,10,10,11,11,12,12,13,13,15,15,16,16,17,17,18,18,20,20,22,22,24,24,25,25,26,26,27,27,28,28,29,29,30,30,31,31,32,32,33,33,34,34,36,36,40,40,41,41,42,42,43,43,44,44,45,45,46,46,47,47,48,48,50,50],"right_children":[2,4,6,8,10,12,14,16,18,20,22,24,26,28,-1,30,32,34,36,-1,38,-1,40,-1,42,44,46,48,50,52,54,56,58,60,62,-1,64,-1,-1,-1,66,68,70,72,74,76,78,80,82,-1,84,-1,-1,-1,-1,-1,-1,-1,-1,-1,-1,-1,-1,-1,-1,-1,-1,-1,-1,-1,-1,-1,-1,-1,-1,-1,-1,-1,-1,-1,-1,-1,-1,-1,-1],"split_conditions":[3.0855213E8,1.5770851E3,1.615586E9,4.9E2,1.03E2,2.1179905E1,1.579228E8,2.31E2,4.2726562E1,8.7573164E4,1.3923E5,2.6162248E0,4.211295E6,1.852532E7,-2.6971188E-3,1.40272E5,5.949807E0,7.154521E7,1.48E2,1.2042533E-2,8.51486E5,1.2581465E-2,2E0,-8.326384E-3,2.0024751E6,2.5398891E1,9.561888E4,1E0,2.1811992E7,1.9E1,1.3E2,1.5625E4,2.6700245E8,6.52E2,3.076923E-2,-2.1725202E-2,5.7E1,3.2555737E-2,1.7664954E-2,6.1397306E-3,8.9E1,1.1645732E4,2.299087E3,6.300312E8,1.8552875E-2,9.470162E-2,9.165891E5,2.6540722E1,2.6871452E-1,-1.6592829E-4,7.1396047E-1,-1.9900857E-2,-1.1373529E-2,-2.7996417E-2,-1.3296909E-2,-6.8832043E-4,-7.4485233E-3,-1.0655468E-2,-1.901646E-2,-9.001215E-3,-2.457441E-3,7.033222E-3,-2.0346558E-3,-1.2046392E-2,-6.7039845E-3,-4.769472E-3,1.6265764E-3,1.9066593E-2,3.4625366E-2,9.613952E-3,2.149285E-2,-3.1128922E-3,5.2520297E-3,-2.4993464E-3,-1.0399979E-2,-7.419737E-4,8.280239E-3,2.1617804E-2,9.446197E-3,4.7491618E-2,2.1088213E-2,1.4452918E-2,2.7080296E-2,1.08840065E-2,2.129226E-2],"split_indices":[7,64,7,2,3,66,1,2,65,40,41,66,60,9,0,5,66,7,12,0,9,0,10,0,57,70,40,28,9,3,0,57,43,2,70,0,10,0,0,0,10,40,4,7,69,50,59,65,53,0,51,0,0,0,0,0,0,0,0,0,0,0,0,0,0,0,0,0,0,0,0,0,0,0,0,0,0,0,0,0,0,0,0,0,0],"split_type":[0,0,0,0,0,0,0,0,0,0,0,0,0,0,0,0,0,0,0,0,0,0,0,0,0,0,0,0,0,0,0,0,0,0,0,0,0,0,0,0,0,0,0,0,0,0,0,0,0,0,0,0,0,0,0,0,0,0,0,0,0,0,0,0,0,0,0,0,0,0,0,0,0,0,0,0,0,0,0,0,0,0,0,0,0],"sum_hessian":[1.218E3,8.91E2,3.27E2,8.39E2,5.2E1,2.16E2,1.11E2,4.16E2,4.23E2,3E1,2.2E1,1.04E2,1.12E2,1.05E2,6E0,8.5E1,3.31E2,3.68E2,5.5E1,9E0,2.1E1,6E0,1.6E1,6E0,9.8E1,6.3E1,4.9E1,7.4E1,3.1E1,5.8E1,2.7E1,1.28E2,2.03E2,1.95E2,1.73E2,9E0,4.6E1,1.5E1,6E0,5E0,1.1E1,2E1,7.8E1,3.1E1,3.2E1,3.3E1,1.6E1,1.3E1,6.1E1,5E0,2.6E1,6E0,5.2E1,1.2E1,1.5E1,2.9E1,9.9E1,1.71E2,3.2E1,4.5E1,1.5E2,6.5E1,1.08E2,2.3E1,2.3E1,6E0,5E0,9E0,1.1E1,4.4E1,3.4E1,9E0,2.2E1,1.7E1,1.5E1,8E0,2.5E1,8E0,8E0,8E0,5E0,1.3E1,4.8E1,1.4E1,1.2E1],"tree_param":{"num_deleted":"0","num_feature":"108","num_nodes":"85","size_leaf_vector":"1"}},{"base_weights":[1.7130566E-3,-1.2635978E-1,2.5441003E-1,-1.547805E-1,3.164502E-1,1.5821779E-1,5.0807863E-1,-2.3745392E-1,-1.07584685E-1,1.8263677E-1,5.57591E-1,1.1273615E-1,4.405603E-1,4.562969E-2,4.5578998E-1,-2.0481847E-1,-3.1176886E-1,-1.3928506E-1,-3.7886575E-2,2.4723804E-2,9.022737E-2,1.7639352E-2,3.312225E-2,4.025165E-1,6.39316E-2,3.6169225E-1,4.0501326E-2,3.628311E-1,7.97068E-1,-2.4273716E-1,-1.5006687E-1,-2.6030305E-1,-3.981018E-2,-1.092317E-1,-2.715028E-1,1.5332228E-1,-6.614248E-2,2.511952E-2,1.5129679E-2,3.0095616E-1,3.533041E-2,8.185908E-2,-1.5630852E-2,3.9182168E-1,8.718494E-3,1.5548413E-1,4.272094E-1,2.581905E-2,5.23424E-2,-8.074384E-3,-1.3156778E-2,-4.668375E-3,-9.683079E-3,-2.5198657E-2,-1.1101102E-2,-6.9179563E-3,-2.7598682E-4,-2.2412373E-2,-1.0092437E-2,-1.4405395E-3,1.3396332E-2,-8.106271E-3,-1.0833349E-3,-3.586329E-3,4.207973E-3,7.0753326E-3,1.8433928E-2,7.3936936E-3,-2.5322752E-5,2.1614134E-2,1.3651962E-2,-6.4108875E-3,1.2239629E-2,1.0596739E-2,2.5449872E-2],"categories":[],"categories_nodes":[],"categories_segments":[],"categories_sizes":[],"default_left":[0,0,0,0,0,0,0,0,0,0,0,0,0,0,0,0,0,0,0,0,0,0,0,0,0,0,0,0,0,0,0,0,0,0,0,0,0,0,0,0,0,0,0,0,0,0,0,0,0,0,0,0,0,0,0,0,0,0,0,0,0,0,0,0,0,0,0,0,0,0,0,0,0,0,0],"id":17,"left_children":[1,3,5,7,9,11,13,15,17,19,21,23,25,-1,27,29,31,33,35,-1,37,-1,-1,39,41,43,-1,45,47,49,51,53,-1,55,57,59,61,63,-1,65,-1,67,-1,69,-1,71,73,-1,-1,-1,-1,-1,-1,-1,-1,-1,-1,-1,-1,-1,-1,-1,-1,-1,-1,-1,-1,-1,-1,-1,-1,-1,-1,-1,-1],"loss_changes":[3.935394E1,1.0205061E1,9.899601E0,2.9359474E0,1.4792895E0,3.7770696E0,2.137474E0,6.0310364E-1,1.066309E0,9.611062E-1,1.707635E-1,3.6230574E0,9.887862E-1,0E0,2.9467297E0,3.6633873E-1,1.9551525E0,1.2935481E0,8.3676606E-1,0E0,3.853434E-1,0E0,0E0,1.021452E0,1.5717385E0,1.2522364E-1,0E0,1.0281649E0,1.0041838E0,2.11308E-1,2.0235622E-1,4.775834E-1,0E0,9.6854925E-1,6.35695E-1,4.649863E-1,5.93327E-1,1.4267161E-1,0E0,3.2085085E-1,0E0,1.2556157E0,0E0,5.7439327E-2,0E0,6.3036114E-1,1.180191E0,0E0,0E0,0E0,0E0,0E0,0E0,0E0,0E0,0E0,0E0,0E0,0E0,0E0,0E0,0E0,0E0,0E0,0E0,0E0,0E0,0E0,0E0,0E0,0E0,0E0,0E0,0E0,0E0],"parents":[2147483647,0,0,1,1,2,2,3,3,4,4,5,5,6,6,7,7,8,8,9,9,10,10,11,11,12,12,14,14,15,15,16,16,17,17,18,18,20,20,23,23,24,24,25,25,27,27,28,28,29,29,30,30,31,31,33,33,34,34,35,35,36,36,37,37,39,39,41,41,43,43,45,45,46,46],"right_children":[2,4,6,8,10,12,14,16,18,20,22,24,26,-1,28,30,32,34,36,-1,38,-1,-1,40,42,44,-1,46,48,50,52,54,-1,56,58,60,62,64,-1,66,-1,68,-1,70,-1,72,74,-1,-1,-1,-1,-1,-1,-1,-1,-1,-1,-1,-1,-1,-1,-1,-1,-1,-1,-1,-1,-1,-1,-1,-1,-1,-1,-1,-1],"split_conditions":[1.5291523E8,1.5770851E3,1.615586E9,3.29E2,4.197798E3,2.9170286E3,1.138896E6,3.3413883E1,3.2502573E8,2.2174824E10,5.3592134E3,1.0184332E0,1.8332656E4,4.562969E-2,1.7797562E0,6.1617416E7,2.6570315E8,2.858938E1,4.15408E5,2.4723804E-2,5.8601927E-3,1.7639352E-2,3.312225E-2,4.3646963E8,4.352718E7,8.015419E3,4.0501326E-2,8.431315E4,7.771383E0,5.507752E0,6.760145E4,1E0,-3.981018E-2,6.9158E4,1E0,2.2147667E2,1.082442E6,1.56601E6,1.5129679E-2,1.84894E5,3.533041E-2,4.001775E1,-1.5630852E-2,6.6551723E0,8.718494E-3,3.2343243E1,3.1408784E-3,2.581905E-2,5.23424E-2,-8.074384E-3,-1.3156778E-2,-4.668375E-3,-9.683079E-3,-2.5198657E-2,-1.1101102E-2,-6.9179563E-3,-2.7598682E-4,-2.2412373E-2,-1.0092437E-2,-1.4405395E-3,1.3396332E-2,-8.106271E-3,-1.0833349E-3,-3.586329E-3,4.207973E-3,7.0753326E-3,1.8433928E-2,7.3936936E-3,-2.5322752E-5,2.1614134E-2,1.3651962E-2,-6.4108875E-3,1.2239629E-2,1.0596739E-2,2.5449872E-2],"split_indices":[7,64,7,2,64,64,1,60,5,43,64,65,4,0,51,43,43,66,1,0,69,0,0,7,57,4,0,45,65,66,57,20,0,9,13,64,1,1,0,9,0,66,0,65,0,68,46,0,0,0,0,0,0,0,0,0,0,0,0,0,0,0,0,0,0,0,0,0,0,0,0,0,0,0,0],"split_type":[0,0,0,0,0,0,0,0,0,0,0,0,0,0,0,0,0,0,0,0,0,0,0,0,0,0,0,0,0,0,0,0,0,0,0,0,0,0,0,0,0,0,0,0,0,0,0,0,0,0,0,0,0,0,0,0,0,0,0,0,0,0,0,0,0,0,0,0,0,0,0,0,0,0,0],"sum_hessian":[1.214E3,8.06E2,4.08E2,7.58E2,4.8E1,2.97E2,1.11E2,2.74E2,4.84E2,3.2E1,1.6E1,2.57E2,4E1,1E1,1.01E2,1.93E2,8.1E1,3.32E2,1.52E2,6E0,2.6E1,8E0,8E0,3.6E1,2.21E2,3.5E1,5E0,8.1E1,2E1,1.12E2,8.1E1,7.5E1,6E0,2.72E2,6E1,1.9E1,1.33E2,2.1E1,5E0,2.9E1,7E0,2.12E2,9E0,2.9E1,6E0,2E1,6.1E1,1.2E1,8E0,3.4E1,7.8E1,4.1E1,4E1,6E0,6.9E1,2.04E2,6.8E1,1.3E1,4.7E1,8E0,1.1E1,3.9E1,9.4E1,8E0,1.3E1,1.1E1,1.8E1,1.13E2,9.9E1,1.7E1,1.2E1,5E0,1.5E1,2.1E1,4E1],"tree_param":{"num_deleted":"0","num_feature":"108","num_nodes":"75","size_leaf_vector":"1"}},{"base_weights":[-6.891589E-5,-1.1536045E-1,2.1932097E-1,-1.4140068E-1,3.1542018E-1,1.8594863E-1,6.2347955E-1,-2.3772284E-1,-9.966083E-2,9.7989105E-2,4.439323E-1,2.0031025E-1,-2.0797515E-2,1.2983899E-2,6.9768363E-1,-1.2309202E-1,-2.6210612E-1,-1.0917089E-1,2.0554057E-1,-1.5633956E-3,1.5064867E-1,5.361315E-1,4.3735397E-3,1.2991235E-1,3.0935687E-1,2.6808556E-2,4.1170627E-2,-1.5695792E-1,1.7458881E-3,-3.1859574E-1,-2.3196001E-1,-9.462764E-2,-2.334858E-1,3.7976843E-3,1.7217666E-2,9.8024225E-3,2.6616172E-3,2.8443016E-2,1.4156371E-2,2.881341E-1,8.180124E-2,4.5228504E-2,2.7092597E-1,-1.2578858E-2,-4.258064E-3,-2.4761502E-2,-1.3677224E-2,-1.0467445E-2,-2.3322051E-2,-6.459598E-3,-1.8597944E-3,-1.9706527E-2,-8.771222E-3,1.5471448E-2,3.040413E-3,4.6514272E-4,1.1069095E-2,1.050675E-2,2.1258725E-2],"categories":[],"categories_nodes":[],"categories_segments":[],"categories_sizes":[],"default_left":[0,0,0,0,0,0,0,0,0,0,0,0,0,0,0,0,0,0,0,0,0,0,0,0,0,0,0,0,0,0,0,0,0,0,0,0,0,0,0,0,0,0,0,0,0,0,0,0,0,0,0,0,0,0,0,0,0,0,0],"id":18,"left_children":[1,3,5,7,9,11,13,15,17,19,21,23,-1,-1,25,27,29,31,33,-1,35,37,-1,39,41,-1,-1,43,-1,45,47,49,51,-1,-1,-1,-1,-1,-1,53,55,-1,57,-1,-1,-1,-1,-1,-1,-1,-1,-1,-1,-1,-1,-1,-1,-1,-1],"loss_changes":[3.0251389E1,8.839218E0,5.4410076E0,2.951457E0,1.213913E0,3.4739418E0,6.265526E-1,5.9103966E-1,1.5259261E0,1.2851506E-1,8.631315E-1,2.8308783E0,0E0,0E0,7.841396E-2,2.2689718E-1,2.3773766E-1,8.8730097E-1,2.794851E-1,0E0,5.4189026E-2,1.14738464E-1,0E0,1.7196295E0,3.2753954E0,0E0,0E0,2.1962541E-1,0E0,2.686696E-1,3.5279417E-1,9.928117E-1,3.952601E-1,0E0,0E0,0E0,0E0,0E0,0E0,3.7187576E-1,1.8861188E0,0E0,1.1556816E0,0E0,0E0,0E0,0E0,0E0,0E0,0E0,0E0,0E0,0E0,0E0,0E0,0E0,0E0,0E0,0E0],"parents":[2147483647,0,0,1,1,2,2,3,3,4,4,5,5,6,6,7,7,8,8,9,9,10,10,11,11,14,14,15,15,16,16,17,17,18,18,20,20,21,21,23,23,24,24,27,27,29,29,30,30,31,31,32,32,39,39,40,40,42,42],"right_children":[2,4,6,8,10,12,14,16,18,20,22,24,-1,-1,26,28,30,32,34,-1,36,38,-1,40,42,-1,-1,44,-1,46,48,50,52,-1,-1,-1,-1,-1,-1,54,56,-1,58,-1,-1,-1,-1,-1,-1,-1,-1,-1,-1,-1,-1,-1,-1,-1,-1],"split_conditions":[1.5291523E8,1.5770851E3,3.3557704E9,3.07E2,8.7573164E4,1.8445437E3,6.6993E4,3.7501616E3,2.9203622E5,3.5244517E3,2E0,9.2849056E8,-2.0797515E-2,1.2983899E-2,1.6941456E1,1.5691E4,2.31E2,4.4674267E1,3.444E3,-1.5633956E-3,8.947E3,6.96804E5,4.3735397E-3,1.125E0,2.3649069E1,2.6808556E-2,4.1170627E-2,3.1E1,1.7458881E-3,7.2981364E-1,3.676E3,8.26E2,1.48E2,3.7976843E-3,1.7217666E-2,9.8024225E-3,2.6616172E-3,2.8443016E-2,1.4156371E-2,7.5162004E9,1.3475061E3,4.5228504E-2,6.1121254E9,-1.2578858E-2,-4.258064E-3,-2.4761502E-2,-1.3677224E-2,-1.0467445E-2,-2.3322051E-2,-6.459598E-3,-1.8597944E-3,-1.9706527E-2,-8.771222E-3,1.5471448E-2,3.040413E-3,4.6514272E-4,1.1069095E-2,1.050675E-2,2.1258725E-2],"split_indices":[7,64,7,2,40,70,2,57,40,67,8,7,0,0,47,41,2,65,2,0,2,9,0,65,60,0,0,3,0,65,45,2,12,0,0,0,0,0,0,43,64,0,12,0,0,0,0,0,0,0,0,0,0,0,0,0,0,0,0],"split_type":[0,0,0,0,0,0,0,0,0,0,0,0,0,0,0,0,0,0,0,0,0,0,0,0,0,0,0,0,0,0,0,0,0,0,0,0,0,0,0,0,0,0,0,0,0,0,0,0,0,0,0,0,0,0,0,0,0,0,0],"sum_hessian":[1.194E3,7.83E2,4.11E2,7.39E2,4.4E1,3.81E2,3E1,2.22E2,5.17E2,1.7E1,2.7E1,3.73E2,8E0,6E0,2.4E1,4E1,1.82E2,5.02E2,1.5E1,5E0,1.2E1,2.1E1,6E0,2.28E2,1.45E2,1.5E1,9E0,3.3E1,7E0,6E1,1.22E2,4.51E2,5.1E1,9E0,6E0,7E0,5E0,1.6E1,5E0,5.2E1,1.76E2,7E0,1.38E2,1.2E1,2.1E1,7E0,5.3E1,1.17E2,5E0,2.64E2,1.87E2,1E1,4.1E1,4.5E1,7E0,1.19E2,5.7E1,1.07E2,3.1E1],"tree_param":{"num_deleted":"0","num_feature":"108","num_nodes":"59","size_leaf_vector":"1"}},{"base_weights":[3.175454E-3,-9.787751E-2,2.685821E-1,-1.3615508E-1,9.658243E-2,1.7504214E-1,4.2208394E-1,-2.0395824E-1,-8.2607485E-2,2.5687513E-1,-2.09704E-2,5.8006996E-1,1.4055775E-1,3.6870605E-1,7.395021E-1,-2.2350098E-1,-1.11488596E-1,-1.13597944E-1,2.5409615E-2,3.80173E-2,3.476059E-1,4.9991015E-2,-1.1697426E-1,1.855911E-2,3.7389137E-2,1.5942289E-1,-2.2843856E-2,3.8905315E-2,3.2597935E-1,4.419413E-2,2.5234764E-2,-2.0691344E-1,-4.265027E-1,-1.4902754E-2,-1.511729E-1,-1.2485784E-1,2.9538272E-2,2.2117232E-1,-1.1030661E-1,-1.2640534E-2,1.6399728E-1,4.6795197E-3,3.9361975E-1,1.3212438E-2,1.0216798E-2,-1.6253734E-1,-2.0411173E-3,6.773674E-2,3.3187917E-1,3.5429838E-1,-2.2901283E-3,-1.1865377E-2,-6.674881E-3,-3.623377E-3,-2.809208E-2,2.1914444E-3,-6.902899E-3,-9.731136E-3,-2.3989265E-3,-8.801263E-3,-4.5882743E-3,7.4905907E-3,-2.7159136E-3,2.0225443E-2,5.466802E-3,-6.199203E-5,-9.091007E-3,1.4905113E-2,2.35845E-3,1.6055528E-2,2.8755685E-2,-2.0130966E-3,4.1345945E-3,-1.0356832E-2,-3.0383866E-3,1.0424963E-2,4.4381816E-4,1.38161285E-2,3.207781E-2,1.3341131E-2,2.178419E-2],"categories":[],"categories_nodes":[],"categories_segments":[],"categories_sizes":[],"default_left":[0,0,0,0,0,0,0,0,0,0,0,0,0,0,0,0,0,0,0,0,0,0,0,0,0,0,0,0,0,0,0,0,0,0,0,0,0,0,0,0,0,0,0,0,0,0,0,0,0,0,0,0,0,0,0,0,0,0,0,0,0,0,0,0,0,0,0,0,0,0,0,0,0,0,0,0,0,0,0,0,0],"id":19,"left_children":[1,3,5,7,9,11,13,15,17,19,21,23,25,27,29,31,33,35,37,39,41,43,45,-1,-1,47,-1,-1,49,-1,-1,51,53,55,57,59,61,63,65,-1,67,-1,69,71,-1,73,-1,75,77,79,-1,-1,-1,-1,-1,-1,-1,-1,-1,-1,-1,-1,-1,-1,-1,-1,-1,-1,-1,-1,-1,-1,-1,-1,-1,-1,-1,-1,-1,-1,-1],"loss_changes":[3.22909E1,6.5038443E0,4.693159E0,2.6299295E0,2.7187586E0,2.8236313E0,1.8452301E0,5.551653E-1,1.3720136E0,1.198071E0,5.7810354E-1,3.1183958E-1,2.3130615E0,1.7791452E0,1.7128086E-1,8.007183E-1,2.2005779E-1,5.162091E-1,2.468669E0,7.617908E-1,4.5744562E-1,2.891336E-1,1.155203E-1,0E0,0E0,2.9501476E0,0E0,0E0,1.0851173E0,0E0,0E0,6.269579E-1,9.999447E-1,1.4595933E-1,2.0086771E-1,4.879217E-1,2.6824093E-1,7.650151E-1,4.6936262E-1,0E0,2.1886581E-1,0E0,2.4335337E-1,1.6718209E-1,0E0,1.0104501E-1,0E0,1.0762227E0,7.8990793E-1,5.864706E-1,0E0,0E0,0E0,0E0,0E0,0E0,0E0,0E0,0E0,0E0,0E0,0E0,0E0,0E0,0E0,0E0,0E0,0E0,0E0,0E0,0E0,0E0,0E0,0E0,0E0,0E0,0E0,0E0,0E0,0E0,0E0],"parents":[2147483647,0,0,1,1,2,2,3,3,4,4,5,5,6,6,7,7,8,8,9,9,10,10,11,11,12,12,13,13,14,14,15,15,16,16,17,17,18,18,19,19,20,20,21,21,22,22,25,25,28,28,31,31,32,32,33,33,34,34,35,35,36,36,37,37,38,38,40,40,42,42,43,43,45,45,47,47,48,48,49,49],"right_children":[2,4,6,8,10,12,14,16,18,20,22,24,26,28,30,32,34,36,38,40,42,44,46,-1,-1,48,-1,-1,50,-1,-1,52,54,56,58,60,62,64,66,-1,68,-1,70,72,-1,74,-1,76,78,80,-1,-1,-1,-1,-1,-1,-1,-1,-1,-1,-1,-1,-1,-1,-1,-1,-1,-1,-1,-1,-1,-1,-1,-1,-1,-1,-1,-1,-1,-1,-1],"split_conditions":[2.8681312E8,7.1938715E2,1.440108E9,8.193023E3,9.994259E0,6.9600677E0,4.2553526E-1,7.575959E7,9.4446504E7,4.414E3,6.321531E1,4.3646963E8,3.9457364E0,1.6492308E1,2.229E3,2.6700245E8,1.3434875E8,2.1804023E5,6.849315E-3,2E0,3.2168832E0,1.7049069E5,4.58531E5,1.855911E-2,3.7389137E-2,1.6629243E3,-2.2843856E-2,3.8905315E-2,5.30113E5,4.419413E-2,2.5234764E-2,1.31E2,5.9259257E0,2E0,2.5674125E5,3.2E2,2.356589E0,3.33083E5,4.5E1,-1.2640534E-2,1.0924087E7,4.6795197E-3,1.5011419E5,2.310848E7,1.0216798E-2,7.805608E4,-2.0411173E-3,1.625E0,5.3592134E3,6.6993E4,-2.2901283E-3,-1.1865377E-2,-6.674881E-3,-3.623377E-3,-2.809208E-2,2.1914444E-3,-6.902899E-3,-9.731136E-3,-2.3989265E-3,-8.801263E-3,-4.5882743E-3,7.4905907E-3,-2.7159136E-3,2.0225443E-2,5.466802E-3,-6.199203E-5,-9.091007E-3,1.4905113E-2,2.35845E-3,1.6055528E-2,2.8755685E-2,-2.0130966E-3,4.1345945E-3,-1.0356832E-2,-3.0383866E-3,1.0424963E-2,4.4381816E-4,1.38161285E-2,3.207781E-2,1.3341131E-2,2.178419E-2],"split_indices":[7,64,7,40,65,45,50,7,7,2,68,7,69,68,0,43,7,40,70,10,66,40,41,0,0,64,0,0,2,0,0,0,66,8,57,7,65,57,3,0,57,0,40,44,0,40,0,65,64,2,0,0,0,0,0,0,0,0,0,0,0,0,0,0,0,0,0,0,0,0,0,0,0,0,0,0,0,0,0,0,0],"split_type":[0,0,0,0,0,0,0,0,0,0,0,0,0,0,0,0,0,0,0,0,0,0,0,0,0,0,0,0,0,0,0,0,0,0,0,0,0,0,0,0,0,0,0,0,0,0,0,0,0,0,0,0,0,0,0,0,0,0,0,0,0,0,0,0,0,0,0,0,0,0,0,0,0,0,0,0,0,0,0,0,0],"sum_hessian":[1.202E3,8.71E2,3.31E2,7.28E2,1.43E2,2.07E2,1.24E2,3.2E2,4.08E2,6E1,8.3E1,1.5E1,1.92E2,1.08E2,1.6E1,2.63E2,5.7E1,3.17E2,9.1E1,1.8E1,4.2E1,4.8E1,3.5E1,9E0,6E0,1.87E2,5E0,8E0,1E2,7E0,9E0,2.45E2,1.8E1,1.7E1,4E1,2.94E2,2.3E1,3.7E1,5.4E1,5E0,1.3E1,7E0,3.5E1,4E1,8E0,2.1E1,1.4E1,1.23E2,6.4E1,9.3E1,7E0,1.54E2,9.1E1,6E0,1.2E1,1.2E1,5E0,2.6E1,1.4E1,9.8E1,1.96E2,9E0,1.4E1,1.2E1,2.5E1,2.3E1,3.1E1,5E0,8E0,2.9E1,6E0,2.3E1,1.7E1,1.3E1,8E0,3.4E1,8.9E1,5.8E1,6E0,5.4E1,3.9E1],"tree_param":{"num_deleted":"0","num_feature":"108","num_nodes":"81","size_leaf_vector":"1"}},{"base_weights":[6.211794E-3,-8.9507304E-2,2.4507536E-1,-1.1517844E-1,2.2663738E-1,1.942828E-1,5.212479E-1,-1.8960899E-1,-5.6475315E-2,3.331019E-1,6.446131E-2,2.9597464E-1,5.7151753E-2,3.919395E-3,5.9764993E-1,-1.5303785E-1,-2.393197E-1,-3.312241E-2,-1.7373897E-1,7.827442E-2,4.3041718E-1,1.0699122E-2,1.8568661E-2,3.3132905E-1,-1.7612562E-2,-5.4945885E-3,1.6256784E-1,4.872741E-1,8.945139E-1,-2.5045842E-1,-1.1564725E-1,-2.0892869E-1,-3.6101973E-1,-7.3350124E-2,2.677249E-2,-1.6747955E-2,-1.5039885E-1,8.068612E-3,-4.487545E-4,9.33015E-3,2.3433391E-2,-4.1165776E-3,6.290002E-2,5.361396E-1,2.7180764E-1,-6.7721464E-2,1.0627411E-1,2.5042182E-1,6.000621E-2,2.5834864E-2,7.820222E-3,5.4081023E-2,2.4958022E-2,-8.807193E-3,-1.6715128E-2,-7.627745E-3,-2.451923E-3,-1.1100467E-2,-4.0053455E-3,-1.1833661E-2,-3.2407664E-2,-6.3648336E-3,-2.676644E-4,7.3789367E-3,-1.0461363E-3,-8.109629E-3,-7.9911447E-4,5.1561506E-3,-4.3668417E-4,1.55391125E-2,3.369642E-2,8.020623E-3,1.7596293E-2,3.756656E-3,-5.7004364E-3,2.880002E-3,7.6598707E-3,2.9415763E-3,1.4204264E-2,9.578527E-5,8.123141E-3],"categories":[],"categories_nodes":[],"categories_segments":[],"categories_sizes":[],"default_left":[0,0,0,0,0,0,0,0,0,0,0,0,0,0,0,0,0,0,0,0,0,0,0,0,0,0,0,0,0,0,0,0,0,0,0,0,0,0,0,0,0,0,0,0,0,0,0,0,0,0,0,0,0,0,0,0,0,0,0,0,0,0,0,0,0,0,0,0,0,0,0,0,0,0,0,0,0,0,0,0,0],"id":20,"left_children":[1,3,5,7,9,11,13,15,17,19,21,23,25,-1,27,29,31,33,35,37,39,-1,41,43,-1,45,47,49,51,53,55,57,59,61,63,-1,65,-1,-1,-1,-1,-1,67,69,71,73,75,77,79,-1,-1,-1,-1,-1,-1,-1,-1,-1,-1,-1,-1,-1,-1,-1,-1,-1,-1,-1,-1,-1,-1,-1,-1,-1,-1,-1,-1,-1,-1,-1,-1],"loss_changes":[2.7572823E1,7.013802E0,4.738222E0,3.4716282E0,1.1008174E0,4.069001E0,1.7327948E0,6.0148525E-1,1.2183312E0,9.3345547E-1,1.9107299E-1,4.049548E0,8.3298874E-1,0E0,1.0386238E0,7.1777105E-1,4.6826553E-1,9.030924E-1,2.4784303E-1,9.524422E-2,2.7583885E-1,0E0,1.0678459E-1,1.8047695E0,0E0,5.6359845E-1,4.0846407E-1,4.6770477E-1,3.6191082E-1,3.020482E-1,4.0601707E-1,3.0381584E-1,8.4184384E-1,8.9087117E-1,9.280819E-1,0E0,1.573745E-1,0E0,0E0,0E0,0E0,0E0,5.1724426E-2,9.9397373E-1,1.1780615E0,3.9214885E-1,6.1538666E-2,1.9173872E-1,1.4450014E-1,0E0,0E0,0E0,0E0,0E0,0E0,0E0,0E0,0E0,0E0,0E0,0E0,0E0,0E0,0E0,0E0,0E0,0E0,0E0,0E0,0E0,0E0,0E0,0E0,0E0,0E0,0E0,0E0,0E0,0E0,0E0,0E0],"parents":[2147483647,0,0,1,1,2,2,3,3,4,4,5,5,6,6,7,7,8,8,9,9,10,10,11,11,12,12,14,14,15,15,16,16,17,17,18,18,19,19,20,20,22,22,23,23,25,25,26,26,27,27,28,28,29,29,30,30,31,31,32,32,33,33,34,34,36,36,42,42,43,43,44,44,45,45,46,46,47,47,48,48],"right_children":[2,4,6,8,10,12,14,16,18,20,22,24,26,-1,28,30,32,34,36,38,40,-1,42,44,-1,46,48,50,52,54,56,58,60,62,64,-1,66,-1,-1,-1,-1,-1,68,70,72,74,76,78,80,-1,-1,-1,-1,-1,-1,-1,-1,-1,-1,-1,-1,-1,-1,-1,-1,-1,-1,-1,-1,-1,-1,-1,-1,-1,-1,-1,-1,-1,-1,-1,-1],"split_conditions":[2.8681312E8,1.5078629E3,4.896081E3,4.17E2,1.09E2,1.0596466E1,5.316467E1,7.87672E5,3.529313E1,5.446E3,2.72226E5,3.8879236E7,3.19E2,3.919395E-3,1.5324995E4,2.31E2,2.4307092E2,7.575959E7,1.120084E7,4.171707E9,8.11643E4,1.0699122E-2,1.712975E6,2.3518152E6,-1.7612562E-2,5.861711E8,8.2352405E6,3.3537305E2,1E0,5.6822E4,4.6396548E7,3.94E2,3.1282E4,9.65E2,2.59E2,-1.6747955E-2,9.721307E6,8.068612E-3,-4.487545E-4,9.33015E-3,2.3433391E-2,-4.1165776E-3,1.329E6,7.4212205E8,7.64454E8,5.61E2,1.165E4,2.0605461E3,9.712995E5,2.5834864E-2,7.820222E-3,5.4081023E-2,2.4958022E-2,-8.807193E-3,-1.6715128E-2,-7.627745E-3,-2.451923E-3,-1.1100467E-2,-4.0053455E-3,-1.1833661E-2,-3.2407664E-2,-6.3648336E-3,-2.676644E-4,7.3789367E-3,-1.0461363E-3,-8.109629E-3,-7.9911447E-4,5.1561506E-3,-4.3668417E-4,1.55391125E-2,3.369642E-2,8.020623E-3,1.7596293E-2,3.756656E-3,-5.7004364E-3,2.880002E-3,7.6598707E-3,2.9415763E-3,1.4204264E-2,9.578527E-5,8.123141E-3],"split_indices":[7,64,64,2,3,65,68,5,65,2,41,57,8,0,64,2,45,7,7,5,40,0,1,57,0,12,57,70,24,5,43,2,41,2,0,0,12,0,0,0,0,0,41,43,7,11,2,4,59,0,0,0,0,0,0,0,0,0,0,0,0,0,0,0,0,0,0,0,0,0,0,0,0,0,0,0,0,0,0,0,0],"split_type":[0,0,0,0,0,0,0,0,0,0,0,0,0,0,0,0,0,0,0,0,0,0,0,0,0,0,0,0,0,0,0,0,0,0,0,0,0,0,0,0,0,0,0,0,0,0,0,0,0,0,0,0,0,0,0,0,0,0,0,0,0,0,0,0,0,0,0,0,0,0,0,0,0,0,0,0,0,0,0,0,0],"sum_hessian":[1.204E3,8.6E2,3.44E2,7.96E2,6.4E1,2.92E2,5.2E1,3.5E2,4.46E2,3.8E1,2.6E1,1.67E2,1.25E2,8E0,4.4E1,2.04E2,1.46E2,3.73E2,7.3E1,1.1E1,2.7E1,5E0,2.1E1,1.59E2,8E0,7.9E1,4.6E1,3.4E1,1E1,5.5E1,1.49E2,1.19E2,2.7E1,2.23E2,1.5E2,7E0,6.6E1,5E0,6E0,6E0,2.1E1,6E0,1.5E1,3.4E1,1.25E2,5.1E1,2.8E1,2.4E1,2.2E1,2.9E1,5E0,5E0,5E0,3.4E1,2.1E1,8.9E1,6E1,1.01E2,1.8E1,2.1E1,6E0,1.19E2,1.04E2,4.1E1,1.09E2,5.8E1,8E0,9E0,6E0,1.6E1,1.8E1,6E1,6.5E1,1.3E1,3.8E1,1.6E1,1.2E1,5E0,1.9E1,1.5E1,7E0],"tree_param":{"num_deleted":"0","num_feature":"108","num_nodes":"81","size_leaf_vector":"1"}},{"base_weights":[1.3929251E-2,-8.360087E-2,2.4545383E-1,-1.2048477E-1,1.2568323E-1,2.0241141E-1,6.040988E-1,-2.0446552E-1,-7.352297E-2,7.646503E-2,4.81519E-1,2.7869657E-1,8.483872E-2,4.3703676E-3,7.005454E-1,-1.5932603E-1,-2.5475794E-1,-2.0625211E-2,-1.17202945E-1,1.2359641E-1,-9.0610765E-2,1.3888223E-2,2.962566E-2,3.1453967E-1,-1.307561E-1,1.9504102E-2,2.2318718E-1,2.441446E-2,5.0955508E-2,-2.4663162E-1,-1.2168118E-1,-2.983044E-1,-1.85038E-1,-5.9018016E-2,7.2233275E-2,-1.3220884E-1,3.5994507E-2,2.9486263E-1,8.084821E-2,-9.219129E-4,-8.022556E-3,1.5245935E-1,3.8561305E-1,1.5313E-2,-3.6349356E-1,-1.13063395E-1,6.1389152E-2,2.5656566E-1,-4.2019415E-4,-8.296375E-3,-1.6753703E-2,-4.21889E-3,-1.1619489E-2,-1.2764562E-2,-2.548072E-2,-5.6454693E-3,-1.1955574E-2,-3.296765E-3,8.3345E-3,9.184827E-3,-3.5685864E-3,-7.152696E-3,1.2281121E-3,8.474135E-3,-1.7432928E-3,2.3161149E-2,8.552059E-3,-9.418852E-3,5.2706017E-3,1.0236817E-2,-3.856813E-3,2.704261E-2,1.5371482E-2,-1.6426191E-3,-3.0475589E-2,-8.713346E-3,-1.6897295E-3,6.6414033E-3,9.664466E-4,8.949999E-3,1.586203E-2],"categories":[],"categories_nodes":[],"categories_segments":[],"categories_sizes":[],"default_left":[0,0,0,0,0,0,0,0,0,0,0,0,0,0,0,0,0,0,0,0,0,0,0,0,0,0,0,0,0,0,0,0,0,0,0,0,0,0,0,0,0,0,0,0,0,0,0,0,0,0,0,0,0,0,0,0,0,0,0,0,0,0,0,0,0,0,0,0,0,0,0,0,0,0,0,0,0,0,0,0,0],"id":21,"left_children":[1,3,5,7,9,11,13,15,17,19,21,23,25,-1,27,29,31,33,35,37,39,-1,-1,41,43,45,47,-1,-1,49,51,53,55,57,59,61,63,65,67,-1,-1,69,71,-1,73,75,77,79,-1,-1,-1,-1,-1,-1,-1,-1,-1,-1,-1,-1,-1,-1,-1,-1,-1,-1,-1,-1,-1,-1,-1,-1,-1,-1,-1,-1,-1,-1,-1,-1,-1],"loss_changes":[2.6665653E1,6.429808E0,5.280655E0,2.7732954E0,2.1523802E0,2.7926369E0,1.7686262E0,5.337639E-1,1.0488935E0,8.8527E-1,2.091136E-1,2.8295794E0,1.1255147E0,0E0,1.6094599E0,4.169681E-1,3.0305672E-1,7.422384E-1,5.7717633E-1,6.131159E-1,1.3235615E-1,0E0,0E0,1.9571381E0,1.7855318E0,4.8446417E-1,3.1186306E-1,0E0,0E0,2.4106765E-1,3.7438214E-1,4.0727043E-1,1.7635465E-1,3.3181876E-1,1.0700234E0,5.836334E-1,2.3845153E-1,2.854054E-1,5.8058923E-1,0E0,0E0,7.834133E-1,1.236826E0,0E0,9.5256007E-1,1.0460183E-1,2.0570107E-1,1.1882615E-1,0E0,0E0,0E0,0E0,0E0,0E0,0E0,0E0,0E0,0E0,0E0,0E0,0E0,0E0,0E0,0E0,0E0,0E0,0E0,0E0,0E0,0E0,0E0,0E0,0E0,0E0,0E0,0E0,0E0,0E0,0E0,0E0,0E0],"parents":[2147483647,0,0,1,1,2,2,3,3,4,4,5,5,6,6,7,7,8,8,9,9,10,10,11,11,12,12,14,14,15,15,16,16,