{"learner":{"attributes":{},"feature_names":["numTasks_sum","duration_max","duration_min","input_recordsRead_sum","output_recordsWritten_sum","peakExecutionMemory_max","resultSerializationTime_sum","resultSize_max","sr_localBlocksFetched_sum","sr_remoteBlocksFetched_sum","sw_recordsWritten_sum","sqlOp_Exchange","sqlOp_Scan parquet","sqlOp_Sort","Duration","numExecutors","executorCores","maxMem","maxOnHeapMem","maxOffHeapMem","executorMemory","numGpusPerExecutor","executorOffHeap","taskCpu","taskGpu","cache_hit_ratio","scan_bw","scan_time","decode_time","data_size","shuffle_read_bw","shuffle_write_bw","diskBytesSpilledRatio","memoryBytesSpilledRatio","input_bytesReadRatio","output_bytesWrittenRatio","sr_localBytesReadRatio","sr_remoteBytesReadRatio","sr_remoteBytesReadToDiskRatio","sr_totalBytesReadRatio","sw_bytesWrittenRatio","diskBytesSpilled_mean","memoryBytesSpilled_mean","input_bytesRead_mean","output_bytesWritten_mean","sr_localBytesRead_mean","sr_remoteBytesRead_mean","sr_remoteBytesReadToDisk_mean","sr_totalBytesRead_mean","sw_bytesWritten_mean","executorCPUTime_mean","executorDeserializeCPUTime_mean","executorDeserializeTime_mean","executorRunTime_mean","jvmGCTime_mean","sr_fetchWaitTime_mean","sw_writeTime_mean","platform_databricks-aws","platform_databricks-azure","platform_dataproc","platform_emr","platform_onprem","sqlOp_AQEShuffleRead","sqlOp_BatchEvalPython","sqlOp_BroadcastExchange","sqlOp_BroadcastHashJoin","sqlOp_BroadcastNestedLoopJoin","sqlOp_CartesianProduct","sqlOp_ColumnarToRow","sqlOp_CommandResult","sqlOp_CustomShuffleReader","sqlOp_DeserializeToObject","sqlOp_Execute InsertIntoHadoopFsRelationCommand csv","sqlOp_Execute InsertIntoHadoopFsRelationCommand json","sqlOp_Execute InsertIntoHadoopFsRelationCommand orc","sqlOp_Execute InsertIntoHadoopFsRelationCommand parquet","sqlOp_Execute InsertIntoHadoopFsRelationCommand text","sqlOp_Execute InsertIntoHadoopFsRelationCommand unknown","sqlOp_Expand","sqlOp_Filter","sqlOp_Generate","sqlOp_GenerateBloomFilter","sqlOp_GlobalLimit","sqlOp_HashAggregate","sqlOp_HashAggregatePrefixGroupingSets","sqlOp_LocalLimit","sqlOp_LocalTableScan","sqlOp_MapElements","sqlOp_ObjectHashAggregate","sqlOp_OutputAdapter","sqlOp_PartialWindow","sqlOp_Project","sqlOp_ReusedSort","sqlOp_RunningWindowFunction","sqlOp_Scan ExistingRDD","sqlOp_Scan ExistingRDD Delta Table Checkpoint","sqlOp_Scan ExistingRDD Delta Table State","sqlOp_Scan OneRowRelation","sqlOp_Scan csv","sqlOp_Scan jdbc","sqlOp_Scan json","sqlOp_Scan orc","sqlOp_Scan text","sqlOp_Scan unknown","sqlOp_SerializeFromObject","sqlOp_SortAggregate","sqlOp_SortMergeJoin","sqlOp_Subquery","sqlOp_SubqueryBroadcast","sqlOp_SubqueryOutputBroadcast","sqlOp_TakeOrderedAndProject","sqlOp_Window","sqlOp_WindowGroupLimit","sqlOp_WindowSort"],"feature_types":["int","int","int","int","int","int","int","int","int","int","int","int","int","int","int","int","int","int","int","int","int","int","int","int","int","float","float","int","int","int","float","float","float","float","float","float","float","float","float","float","float","float","float","float","float","float","float","float","float","float","float","float","float","float","float","float","float","int","int","int","int","int","int","int","int","int","int","int","int","int","int","int","int","int","int","int","int","int","int","int","int","int","int","int","int","int","int","int","int","int","int","int","int","int","int","int","int","int","int","int","int","int","int","int","int","int","int","int","int","int","int","int","int","int"],"gradient_booster":{"model":{"gbtree_model_param":{"num_parallel_tree":"1","num_trees":"86"},"iteration_indptr":[0,1,2,3,4,5,6,7,8,9,10,11,12,13,14,15,16,17,18,19,20,21,22,23,24,25,26,27,28,29,30,31,32,33,34,35,36,37,38,39,40,41,42,43,44,45,46,47,48,49,50,51,52,53,54,55,56,57,58,59,60,61,62,63,64,65,66,67,68,69,70,71,72,73,74,75,76,77,78,79,80,81,82,83,84,85,86],"tree_info":[0,0,0,0,0,0,0,0,0,0,0,0,0,0,0,0,0,0,0,0,0,0,0,0,0,0,0,0,0,0,0,0,0,0,0,0,0,0,0,0,0,0,0,0,0,0,0,0,0,0,0,0,0,0,0,0,0,0,0,0,0,0,0,0,0,0,0,0,0,0,0,0,0,0,0,0,0,0,0,0,0,0,0,0,0,0],"trees":[{"base_weights":[3.0907549E-2,-4.4965E-1,1.7606275E-1,-3.501219E-2,-1.9417772E-1,1.22446105E-1,4.9262937E-2,-6.5982506E-2,-2.5085904E-2,1.7504652E-1,-4.1519904E-1,3.8461355E-3,-1.3173944E-1,3.9571816E-1,8.3733395E-2,-2.4472903E-2,1.9480467E-4,-1.6692185E-1,-2.239714E-4,4.7272155E-1,-4.734319E-3,1.3525848E-2,3.4745905E-1,-8.087949E-3,-3.3221291E-3,1.7435956E-3,5.351468E-1,8.173585E-2,-2.709907E-1,1.697766E-2,1.1011912E-3,8.270968E-3,2.2447921E-2,-7.5198606E-2,1.9693656E-1,-1.3082586E-2,-2.8940768E-3,-2.2825347E-1,1.4140765E-1,2.4372498E-2,1.0421612E-2,2.6956857E-3,-1.3235425E-2,3.214921E-4,8.044053E-3,2.505063E-3,-1.436082E-3],"categories":[],"categories_nodes":[],"categories_segments":[],"categories_sizes":[],"default_left":[0,0,0,0,0,0,0,0,0,0,0,0,0,0,0,0,0,0,0,0,0,0,0,0,0,0,0,0,0,0,0,0,0,0,0,0,0,0,0,0,0,0,0,0,0,0,0],"id":0,"left_children":[1,3,5,-1,7,9,-1,11,-1,13,15,-1,17,19,21,-1,-1,23,-1,25,-1,27,29,-1,-1,-1,31,33,35,-1,-1,-1,-1,37,39,-1,-1,41,43,45,-1,-1,-1,-1,-1,-1,-1],"loss_changes":[6.008377E0,2.1083813E0,3.6855347E0,0E0,7.6176286E-1,1.8826221E0,0E0,1.4273557E-1,0E0,1.155728E0,5.3593755E-1,0E0,3.8941488E-2,7.339783E-1,7.9146826E-1,0E0,0E0,5.393505E-3,0E0,3.769598E-1,0E0,7.013903E-1,2.3828328E-1,0E0,0E0,0E0,4.458499E-2,5.390992E-1,6.3313246E-2,0E0,0E0,0E0,0E0,4.6326113E-1,1.9846904E-1,0E0,0E0,2.86385E-1,4.9869172E-2,1.6943164E-2,0E0,0E0,0E0,0E0,0E0,0E0,0E0],"parents":[2147483647,0,0,1,1,2,2,4,4,5,5,7,7,9,9,10,10,12,12,13,13,14,14,17,17,19,19,21,21,22,22,26,26,27,27,28,28,33,33,34,34,37,37,38,38,39,39],"right_children":[2,4,6,-1,8,10,-1,12,-1,14,16,-1,18,20,22,-1,-1,24,-1,26,-1,28,30,-1,-1,-1,32,34,36,-1,-1,-1,-1,38,40,-1,-1,42,44,46,-1,-1,-1,-1,-1,-1,-1],"split_conditions":[1.5116162E2,7.73E3,3.4537086E0,-3.501219E-2,1.4804675E2,7.960309E7,4.9262937E-2,1E0,-2.5085904E-2,2.0971744E8,5.3949125E6,3.8461355E-3,1.6351E4,7.7579245E8,6.67983E5,-2.4472903E-2,1.9480467E-4,1.4176E4,-2.239714E-4,1.8605653E2,-4.734319E-3,2.5737E4,7.327557E9,-8.087949E-3,-3.3221291E-3,1.7435956E-3,1.6838096E8,2.1996392E-1,7.9208275E8,1.697766E-2,1.1011912E-3,8.270968E-3,2.2447921E-2,1.7229862E0,2.574E3,-1.3082586E-2,-2.8940768E-3,5.88E2,4.9E2,9E0,1.0421612E-2,2.6956857E-3,-1.3235425E-2,3.214921E-4,8.044053E-3,2.505063E-3,-1.436082E-3],"split_indices":[53,27,37,0,53,43,0,110,0,5,49,0,7,3,27,0,0,27,0,53,0,7,3,0,0,0,5,37,10,0,0,0,0,51,14,0,0,0,0,2,0,0,0,0,0,0,0],"split_type":[0,0,0,0,0,0,0,0,0,0,0,0,0,0,0,0,0,0,0,0,0,0,0,0,0,0,0,0,0,0,0,0,0,0,0,0,0,0,0,0,0,0,0,0,0,0,0],"sum_hessian":[8.4E1,1.9E1,6.5E1,6E0,1.3E1,6.3E1,2E0,1.1E1,2E0,5.8E1,5E0,3E0,8E0,1.6E1,4.2E1,3E0,2E0,6E0,2E0,1.4E1,2E0,3.4E1,8E0,3E0,3E0,2E0,1.2E1,2.8E1,6E0,6E0,2E0,2E0,1E1,1.2E1,1.6E1,4E0,2E0,7E0,5E0,5E0,1.1E1,2E0,5E0,2E0,3E0,3E0,2E0],"tree_param":{"num_deleted":"0","num_feature":"114","num_nodes":"47","size_leaf_vector":"1"}},{"base_weights":[-5.326923E-3,-1.00865744E-1,7.7019095E-1,-7.2289264E-1,-2.394027E-2,4.5373272E-2,2.2472736E-1,-3.499317E-2,-5.311049E-3,2.2857659E-2,-2.9491534E-2,1.8849086E-3,1.2745015E-2,-1.5815644E-1,1.6301146E-1,-3.7383758E-2,-4.554152E-1,3.0245143E-1,-7.771215E-2,-1.950346E-1,1.5553562E-1,-2.447952E-2,-2.2729757E-1,4.3749347E-1,8.314745E-2,-2.298481E-1,9.456623E-3,-2.5395396E-1,2.5926318E-3,-1.09647416E-1,3.505989E-1,-3.3226148E-3,-1.1474632E-2,2.0423872E-2,3.644791E-3,-4.5964923E-3,1.4806294E-1,2.955703E-3,-1.2330854E-2,-1.1861482E-2,-4.0413043E-3,-1.093536E-3,-6.044595E-3,1.8764121E-2,2.3702802E-3,2.5448073E-3,8.3858045E-3],"categories":[],"categories_nodes":[],"categories_segments":[],"categories_sizes":[],"default_left":[0,0,0,0,0,0,0,0,0,0,0,0,0,0,0,0,0,0,0,0,0,0,0,0,0,0,0,0,0,0,0,0,0,0,0,0,0,0,0,0,0,0,0,0,0,0,0],"id":1,"left_children":[1,3,5,7,9,-1,11,-1,-1,13,-1,-1,-1,15,17,19,21,23,25,27,29,-1,31,33,35,37,-1,39,-1,41,43,-1,-1,-1,-1,-1,45,-1,-1,-1,-1,-1,-1,-1,-1,-1,-1],"loss_changes":[6.0791435E0,3.475723E0,1.6605277E0,6.9039154E-1,2.2753253E0,0E0,7.3868394E-2,0E0,0E0,1.6240797E0,0E0,0E0,0E0,9.881954E-1,1.2318978E0,6.690268E-1,1.7015076E-1,6.4477444E-1,7.3682046E-1,2.016811E-1,5.55717E-1,0E0,2.2281617E-2,3.6264062E-1,1.4778924E-1,2.861393E-1,0E0,4.3399394E-2,0E0,1.4080964E-2,1.9661462E-1,0E0,0E0,0E0,0E0,0E0,3.020525E-2,0E0,0E0,0E0,0E0,0E0,0E0,0E0,0E0,0E0,0E0],"parents":[2147483647,0,0,1,1,2,2,3,3,4,4,6,6,9,9,13,13,14,14,15,15,16,16,17,17,18,18,19,19,20,20,22,22,23,23,24,24,25,25,27,27,29,29,30,30,36,36],"right_children":[2,4,6,8,10,-1,12,-1,-1,14,-1,-1,-1,16,18,20,22,24,26,28,30,-1,32,34,36,38,-1,40,-1,42,44,-1,-1,-1,-1,-1,46,-1,-1,-1,-1,-1,-1,-1,-1,-1,-1],"split_conditions":[4.796E3,2.7362996E7,2.2127E4,9.775465E1,7.822023E7,4.5373272E-2,1.591E3,-3.499317E-2,-5.311049E-3,7.496748E1,-2.9491534E-2,1.8849086E-3,1.2745015E-2,1.8352579E0,2.5766452E7,1.5195573E2,2.053E3,6.3609333E0,1.0264802E3,2.993352E5,1.046E3,-2.447952E-2,1.112E3,9.235021E-1,1E0,6.8540044E5,9.456623E-3,1.4176E4,2.5926318E-3,2.077811E8,4.1000212E5,-3.3226148E-3,-1.1474632E-2,2.0423872E-2,3.644791E-3,-4.5964923E-3,1.898E3,2.955703E-3,-1.2330854E-2,-1.1861482E-2,-4.0413043E-3,-1.093536E-3,-6.044595E-3,1.8764121E-2,2.3702802E-3,2.5448073E-3,8.3858045E-3],"split_indices":[1,3,14,53,43,0,0,0,0,50,0,0,0,54,43,53,14,55,53,45,1,0,1,25,6,26,0,27,0,3,31,0,0,0,0,0,0,0,0,0,0,0,0,0,0,0,0],"split_type":[0,0,0,0,0,0,0,0,0,0,0,0,0,0,0,0,0,0,0,0,0,0,0,0,0,0,0,0,0,0,0,0,0,0,0,0,0,0,0,0,0,0,0,0,0,0,0],"sum_hessian":[8E1,7.2E1,8E0,7E0,6.5E1,4E0,4E0,5E0,2E0,6.2E1,3E0,2E0,2E0,2.7E1,3.5E1,2E1,7E0,2.2E1,1.3E1,1.1E1,9E0,3E0,4E0,1.3E1,9E0,9E0,4E0,9E0,2E0,4E0,5E0,2E0,2E0,1E1,3E0,2E0,7E0,2E0,7E0,6E0,3E0,2E0,2E0,3E0,2E0,4E0,3E0],"tree_param":{"num_deleted":"0","num_feature":"114","num_nodes":"47","size_leaf_vector":"1"}},{"base_weights":[2.420979E-3,-9.60277E-2,5.6263494E-1,-7.1286565E-1,-2.0942157E-2,4.8740335E-2,3.2461828E-1,-3.3388052E-2,-7.476856E-3,6.420621E-2,-5.768101E-1,1.5048607E-1,1.966615E-2,9.516177E-3,3.312358E-1,-2.7328167E-2,-9.701308E-3,9.238549E-3,1.0480481E-3,1.2393293E-1,-1.4173846E-1,2.8629187E-3,3.8655928E-1,2.9456052E-1,-1.423362E-1,-2.4067289E-1,1.621988E-1,1.7126605E-2,6.011281E-3,3.8899165E-1,-5.2027125E-3,-2.5052142E-1,5.3381817E-3,1.9429415E-2,-3.5066795E-1,7.008064E-4,1.1736712E-2,4.400292E-1,1.4907469E-3,-3.799506E-3,-1.214522E-2,-1.5126602E-3,3.534724E-3,-1.6387055E-2,-4.2208843E-3,6.902574E-3,2.0991977E-2],"categories":[],"categories_nodes":[],"categories_segments":[],"categories_sizes":[],"default_left":[0,0,0,0,0,0,0,0,0,0,0,0,0,0,0,0,0,0,0,0,0,0,0,0,0,0,0,0,0,0,0,0,0,0,0,0,0,0,0,0,0,0,0,0,0,0,0],"id":2,"left_children":[1,3,5,7,9,-1,11,-1,-1,13,15,17,-1,19,21,-1,-1,-1,-1,23,25,-1,27,29,31,33,35,-1,-1,37,-1,39,-1,41,43,-1,-1,45,-1,-1,-1,-1,-1,-1,-1,-1,-1],"loss_changes":[4.797128E0,3.4124267E0,1.7150397E0,4.2838287E-1,3.208229E0,0E0,2.6683426E-1,0E0,0E0,8.584755E-1,1.8931055E-1,6.812261E-2,0E0,8.828693E-1,1.1436939E-1,0E0,0E0,0E0,0E0,1.3594795E0,7.005736E-1,0E0,2.913189E-2,7.788966E-1,3.9644253E-1,4.9318272E-1,1.14293486E-1,0E0,0E0,2.5178623E-1,0E0,5.3077996E-2,0E0,2.8301142E-2,1.5514445E-1,0E0,0E0,2.3841524E-1,0E0,0E0,0E0,0E0,0E0,0E0,0E0,0E0,0E0],"parents":[2147483647,0,0,1,1,2,2,3,3,4,4,6,6,9,9,10,10,11,11,13,13,14,14,19,19,20,20,22,22,23,23,24,24,25,25,26,26,29,29,31,31,33,33,34,34,37,37],"right_children":[2,4,6,8,10,-1,12,-1,-1,14,16,18,-1,20,22,-1,-1,-1,-1,24,26,-1,28,30,32,34,36,-1,-1,38,-1,40,-1,42,44,-1,-1,46,-1,-1,-1,-1,-1,-1,-1,-1,-1],"split_conditions":[3.625E3,7.73E3,1.2996979E0,4.01054E1,6.6774924E7,4.8740335E-2,1.4774E4,-3.3388052E-2,-7.476856E-3,7.8246525E6,7.204109E8,1.097E4,1.966615E-2,5.18914E5,9.0087074E-1,-2.7328167E-2,-9.701308E-3,9.238549E-3,1.0480481E-3,6.8540044E5,1.5465E4,2.8629187E-3,1.1E1,6.3609333E0,1.4201619E5,3.498605E7,3.949E3,1.7126605E-2,6.011281E-3,2.491E3,-5.2027125E-3,1.4792443E9,5.3381817E-3,3.98E2,9E0,7.008064E-4,1.1736712E-2,2.2952059E-1,1.4907469E-3,-3.799506E-3,-1.214522E-2,-1.5126602E-3,3.534724E-3,-1.6387055E-2,-4.2208843E-3,6.902574E-3,2.0991977E-2],"split_indices":[1,27,51,50,43,0,7,0,0,48,10,7,0,49,54,0,0,0,0,26,8,0,2,55,31,10,14,0,0,1,0,3,0,0,2,0,0,25,0,0,0,0,0,0,0,0,0],"split_type":[0,0,0,0,0,0,0,0,0,0,0,0,0,0,0,0,0,0,0,0,0,0,0,0,0,0,0,0,0,0,0,0,0,0,0,0,0,0,0,0,0,0,0,0,0,0,0],"sum_hessian":[8.5E1,7.3E1,1.2E1,7E0,6.6E1,2E0,1E1,5E0,2E0,5.8E1,8E0,6E0,4E0,4.9E1,9E0,5E0,3E0,3E0,3E0,2.8E1,2.1E1,2E0,7E0,1.7E1,1.1E1,1.6E1,5E0,5E0,2E0,1.4E1,3E0,8E0,3E0,5E0,1.1E1,3E0,2E0,1.2E1,2E0,3E0,5E0,3E0,2E0,8E0,3E0,4E0,8E0],"tree_param":{"num_deleted":"0","num_feature":"114","num_nodes":"47","size_leaf_vector":"1"}},{"base_weights":[6.139335E-3,-4.55543E-1,1.4071143E-1,-7.2061175E-1,-2.3699214E-1,4.9004134E-2,5.951642E-1,-3.52418E-2,-1.046901E-2,-3.482485E-2,-4.0530342E-1,1.4784318E-1,-5.38493E-1,4.7471125E-2,3.4959975E-1,-5.2846037E-3,2.9041232E-3,-2.160018E-2,-6.1046653E-3,2.4165684E-1,-1.5940322E-1,-1.0687037E-2,-2.7173774E-2,1.762106E-1,1.9051615E-2,4.1515896E-1,7.294326E-2,5.346693E-3,-2.6197717E-1,8.967902E-3,1.8085318E-3,4.9060655E-1,1.5734677E-1,-5.9674848E-2,1.4282455E-2,-1.17041595E-1,-1.4979861E-2,5.3254156E-3,2.088258E-2,1.8769775E-3,9.789439E-3,-2.0908761E-1,1.15873866E-1,-6.74349E-3,-1.5207782E-4,-1.142377E-2,-1.1865556E-1,8.358254E-4,5.61687E-3,-1.2596257E-3,-6.0073924E-3],"categories":[],"categories_nodes":[],"categories_segments":[],"categories_sizes":[],"default_left":[0,0,0,0,0,0,0,0,0,0,0,0,0,0,0,0,0,0,0,0,0,0,0,0,0,0,0,0,0,0,0,0,0,0,0,0,0,0,0,0,0,0,0,0,0,0,0,0,0,0,0],"id":3,"left_children":[1,3,5,7,9,11,13,-1,-1,15,17,19,21,-1,23,-1,-1,-1,-1,25,27,-1,-1,29,-1,31,33,-1,35,-1,-1,37,39,41,-1,43,-1,-1,-1,-1,-1,45,47,-1,-1,-1,49,-1,-1,-1,-1],"loss_changes":[5.7800193E0,1.0457716E0,2.971552E0,4.9800014E-1,4.2823672E-1,3.6217394E0,1.4025936E0,0E0,0E0,8.6838655E-2,1.7101407E-1,1.5661881E0,1.84407E-1,0E0,1.5358579E-1,0E0,0E0,0E0,0E0,1.1698756E0,4.3094566E-1,0E0,0E0,3.0977026E-2,0E0,3.1183076E-1,8.758205E-1,0E0,1.3125026E-1,0E0,0E0,1.6101003E-1,4.91236E-2,4.4389528E-1,0E0,3.707459E-2,0E0,0E0,0E0,0E0,0E0,3.3156455E-2,1.8029168E-2,0E0,0E0,0E0,1.3259366E-2,0E0,0E0,0E0,0E0],"parents":[2147483647,0,0,1,1,2,2,3,3,4,4,5,5,6,6,9,9,10,10,11,11,12,12,14,14,19,19,20,20,23,23,25,25,26,26,28,28,31,31,32,32,33,33,35,35,41,41,42,42,46,46],"right_children":[2,4,6,8,10,12,14,-1,-1,16,18,20,22,-1,24,-1,-1,-1,-1,26,28,-1,-1,30,-1,32,34,-1,36,-1,-1,38,40,42,-1,44,-1,-1,-1,-1,-1,46,48,-1,-1,-1,50,-1,-1,-1,-1],"split_conditions":[1.5195573E2,7.73E3,3.625E3,2.6858338E5,1E0,6.1061732E7,1.2996979E0,-3.52418E-2,-1.046901E-2,2.76E2,3.645971E5,5.08616E5,7.2898104E7,4.7471125E-2,1.4774E4,-5.2846037E-3,2.9041232E-3,-2.160018E-2,-6.1046653E-3,5.0452443E10,5.1049835E6,-1.0687037E-2,-2.7173774E-2,1.097E4,1.9051615E-2,7.11E2,7.174E3,5.346693E-3,3.318829E-2,8.967902E-3,1.8085318E-3,2.533423E6,9.22E2,2.2918523E5,1.4282455E-2,1.062E3,-1.4979861E-2,5.3254156E-3,2.088258E-2,1.8769775E-3,9.789439E-3,1.015E3,8.6155605E-1,-6.74349E-3,-1.5207782E-4,-1.142377E-2,6.094678E-1,8.358254E-4,5.61687E-3,-1.2596257E-3,-6.0073924E-3],"split_indices":[53,27,1,31,106,43,51,0,0,0,31,31,43,0,7,0,0,0,0,29,43,0,0,7,0,0,14,0,36,0,0,43,0,31,0,1,0,0,0,0,0,1,54,0,0,0,25,0,0,0,0],"split_type":[0,0,0,0,0,0,0,0,0,0,0,0,0,0,0,0,0,0,0,0,0,0,0,0,0,0,0,0,0,0,0,0,0,0,0,0,0,0,0,0,0,0,0,0,0,0,0,0,0,0,0],"sum_hessian":[9.1E1,2E1,7.1E1,8E0,1.2E1,6E1,1.1E1,5E0,3E0,6E0,6E0,5.2E1,8E0,2E0,9E0,3E0,3E0,3E0,3E0,4E1,1.2E1,4E0,4E0,5E0,4E0,1.9E1,2.1E1,3E0,9E0,3E0,2E0,1.4E1,5E0,1.5E1,6E0,5E0,4E0,2E0,1.2E1,3E0,2E0,8E0,7E0,3E0,2E0,3E0,5E0,2E0,5E0,2E0,3E0],"tree_param":{"num_deleted":"0","num_feature":"114","num_nodes":"51","size_leaf_vector":"1"}},{"base_weights":[2.4319516E-2,-3.6956146E-1,1.4513952E-1,-7.2198707E-1,-2.0395382E-1,2.0976263E-1,-2.6259972E-2,-1.0091499E-2,-3.4733098E-2,-2.598914E-1,5.7994446E-4,4.0567048E-2,1.6406456E-1,-7.4650144E-4,-3.0613622E-1,2.22156E-1,-5.857871E-2,-3.0516763E-3,-1.38029E-2,2.5526386E-1,-7.717157E-3,-2.0418005E-1,1.9327862E-2,3.2235253E-1,1.0406894E-1,-2.9019344E-1,7.3792E-4,1.7444305E-1,4.408706E-1,4.505527E-3,2.5266314E-1,-5.973311E-3,-1.3357495E-2,1.3827509E-2,-2.6921995E-2,6.160525E-3,5.221118E-1,-7.6338644E-3,7.892083E-2,1.1698266E-2,4.14059E-3,6.1659827E-3,-6.615323E-3,2.3019461E-2,9.387998E-3,1.0882365E-3,4.805072E-3],"categories":[],"categories_nodes":[],"categories_segments":[],"categories_sizes":[],"default_left":[0,0,0,0,0,0,0,0,0,0,0,0,0,0,0,0,0,0,0,0,0,0,0,0,0,0,0,0,0,0,0,0,0,0,0,0,0,0,0,0,0,0,0,0,0,0,0],"id":4,"left_children":[1,3,5,7,9,11,-1,-1,-1,13,-1,-1,15,-1,17,19,21,-1,-1,23,-1,25,-1,27,29,31,-1,33,35,37,39,-1,-1,-1,41,-1,43,-1,45,-1,-1,-1,-1,-1,-1,-1,-1],"loss_changes":[4.0510893E0,1.0200357E0,3.5746372E0,2.3545527E-1,1.8744677E-1,2.139978E0,0E0,0E0,0E0,1.277672E-1,0E0,0E0,7.7610004E-1,0E0,8.009553E-2,7.0355463E-1,1.1485132E0,0E0,0E0,4.127655E-1,0E0,2.1654099E-1,0E0,4.4899154E-1,2.207798E-1,4.562497E-3,0E0,5.518861E-1,2.8571272E-1,1.6421197E-1,9.458989E-3,0E0,0E0,0E0,2.3729338E-1,0E0,8.563185E-2,0E0,1.4585014E-2,0E0,0E0,0E0,0E0,0E0,0E0,0E0,0E0],"parents":[2147483647,0,0,1,1,2,2,3,3,4,4,5,5,9,9,12,12,14,14,15,15,16,16,19,19,21,21,23,23,24,24,25,25,27,27,28,28,29,29,30,30,34,34,36,36,38,38],"right_children":[2,4,6,8,10,12,-1,-1,-1,14,-1,-1,16,-1,18,20,22,-1,-1,24,-1,26,-1,28,30,32,-1,34,36,38,40,-1,-1,-1,42,-1,44,-1,46,-1,-1,-1,-1,-1,-1,-1,-1],"split_conditions":[1.5195573E2,2.52E2,7.960309E7,1.6358411E8,1.9606045E5,1.9411758E-2,-2.6259972E-2,-1.0091499E-2,-3.4733098E-2,1.3835684E5,5.7994446E-4,4.0567048E-2,2.1282E4,-7.4650144E-4,3.4872524E-2,1E0,8.264212E-2,-3.0516763E-3,-1.38029E-2,1.010586E1,-7.717157E-3,4.1604185E0,1.9327862E-2,1.327E3,7.1080825E5,2.8152779E-2,7.3792E-4,3.53652E5,2.4981093E2,2.6375946E-1,9E0,-5.973311E-3,-1.3357495E-2,1.3827509E-2,1.755E3,6.160525E-3,9.169918E8,-7.6338644E-3,1.203E3,1.1698266E-2,4.14059E-3,6.1659827E-3,-6.615323E-3,2.3019461E-2,9.387998E-3,1.0882365E-3,4.805072E-3],"split_indices":[53,9,43,5,45,25,0,0,0,26,0,0,7,0,36,66,36,0,0,55,0,52,0,8,26,36,0,10,53,40,2,0,0,0,14,0,10,0,0,0,0,0,0,0,0,0,0],"split_type":[0,0,0,0,0,0,0,0,0,0,0,0,0,0,0,0,0,0,0,0,0,0,0,0,0,0,0,0,0,0,0,0,0,0,0,0,0,0,0,0,0,0,0,0,0,0,0],"sum_hessian":[8.3E1,1.9E1,6.4E1,5E0,1.4E1,6E1,4E0,2E0,3E0,1.1E1,3E0,2E0,5.8E1,2E0,9E0,4.6E1,1.2E1,2E0,7E0,4.3E1,3E0,1E1,2E0,2.9E1,1.4E1,7E0,3E0,1.4E1,1.5E1,9E0,5E0,3E0,4E0,7E0,7E0,4E0,1.1E1,2E0,7E0,3E0,2E0,3E0,4E0,8E0,3E0,4E0,3E0],"tree_param":{"num_deleted":"0","num_feature":"114","num_nodes":"47","size_leaf_vector":"1"}},{"base_weights":[2.9098012E-3,-3.1791516E-2,6.821621E-2,4.4565625E-3,4.3877628E-1,6.6145346E-2,-4.4334418E-1,1.2894578E-1,2.638446E-2,-7.960212E-3,2.996171E-1,-1.9643841E-2,-6.8915924E-3,8.7781465E-3,9.7141246E-4,-9.683553E-2,1.1875525E-1,1.9286403E-2,1.3689929E-1,-1.993071E-2,-1.41664725E-2,-1.0721448E-1,2.9284364E-1,8.919543E-3,-4.7702165E-3,-7.512586E-2,1.3853986E-2,-9.808272E-3,5.289751E-3,3.7340015E-1,2.2858079E-3,-9.708821E-3,-1.6232707E-2,1.6688209E-2,5.5174027E-3,2.2174472E-3,-4.617055E-3],"categories":[],"categories_nodes":[],"categories_segments":[],"categories_sizes":[],"default_left":[0,0,0,0,0,0,0,0,0,0,0,0,0,0,0,0,0,0,0,0,0,0,0,0,0,0,0,0,0,0,0,0,0,0,0,0,0],"id":5,"left_children":[1,-1,3,5,7,9,11,13,-1,15,17,-1,-1,-1,-1,19,21,-1,23,25,-1,27,29,-1,-1,31,-1,-1,-1,33,-1,-1,35,-1,-1,-1,-1],"loss_changes":[4.322982E0,0E0,1.7700531E0,1.8249036E0,7.196095E-1,1.0058751E0,3.845668E-2,5.4225683E-2,0E0,5.1828414E-1,3.746667E-1,0E0,0E0,0E0,0E0,5.4478025E-1,7.7883244E-1,0E0,2.4108313E-1,4.815336E-1,0E0,3.4822676E-1,1.8578815E-1,0E0,0E0,2.0024544E-1,0E0,0E0,0E0,3.9642096E-2,0E0,0E0,1.2581514E-1,0E0,0E0,0E0,0E0],"parents":[2147483647,0,0,2,2,3,3,4,4,5,5,6,6,7,7,9,9,10,10,15,15,16,16,18,18,19,19,21,21,22,22,25,25,29,29,32,32],"right_children":[2,-1,4,6,8,10,12,14,-1,16,18,-1,-1,-1,-1,20,22,-1,24,26,-1,28,30,-1,-1,32,-1,-1,-1,34,-1,-1,36,-1,-1,-1,-1],"split_conditions":[5.721E3,-3.1791516E-2,3.625E3,6.6774924E7,1.4774E4,4.2084744E2,4.3759488E8,1.097E4,2.638446E-2,7.58932E1,2.6757272E5,-1.9643841E-2,-6.8915924E-3,8.7781465E-3,9.7141246E-4,2.2760513E0,1E0,1.9286403E-2,2.3135E4,2.395E3,-1.41664725E-2,1.573075E5,2.0142368E8,8.919543E-3,-4.7702165E-3,5.91E2,1.3853986E-2,-9.808272E-3,5.289751E-3,7.4811506E5,2.2858079E-3,-9.708821E-3,5.286065E0,1.6688209E-2,5.5174027E-3,2.2174472E-3,-4.617055E-3],"split_indices":[27,0,1,43,7,53,5,7,0,50,26,0,0,0,0,54,110,0,7,14,0,31,5,0,0,1,0,0,0,30,0,0,55,0,0,0,0],"split_type":[0,0,0,0,0,0,0,0,0,0,0,0,0,0,0,0,0,0,0,0,0,0,0,0,0,0,0,0,0,0,0,0,0,0,0,0,0],"sum_hessian":[7.9E1,5E0,7.4E1,6.4E1,1E1,5.7E1,7E0,5E0,5E0,4.4E1,1.3E1,5E0,2E0,2E0,3E0,2.6E1,1.8E1,5E0,8E0,2.1E1,5E0,8E0,1E1,6E0,2E0,1.9E1,2E0,5E0,3E0,7E0,3E0,4E0,1.5E1,5E0,2E0,9E0,6E0],"tree_param":{"num_deleted":"0","num_feature":"114","num_nodes":"37","size_leaf_vector":"1"}},{"base_weights":[3.037406E-2,-4.58387E-2,6.875097E-1,-5.260869E-3,-2.489022E-2,4.3501325E-2,1.128079E-2,-1.7170534E-1,1.4050956E-1,-1.1526793E-1,-2.2665933E-2,2.3248728E-1,-6.840473E-2,4.4933975E-2,-2.7827823E-1,3.8788006E-1,-7.026434E-3,-1.911713E-1,1.6625604E-1,1.6911636E-1,-1.1591075E-1,-1.8513774E-2,-1.7354706E-1,4.932551E-1,4.3936493E-3,1.077832E-1,-1.8931656E-1,2.3782146E-3,-1.0619972E-2,8.603179E-3,2.2202178E-3,-2.61156E-3,2.7980018E-1,-2.0204377E-1,3.7104392E-3,-2.3362637E-1,1.9601047E-4,5.898081E-3,2.1350702E-2,6.4430427E-4,5.291263E-3,-1.0021627E-2,-2.3030266E-3,1.4651687E-2,1.0818121E-3,-9.69153E-3,-2.8618064E-3,-1.875159E-3,-1.0929215E-2],"categories":[],"categories_nodes":[],"categories_segments":[],"categories_sizes":[],"default_left":[0,0,0,0,0,0,0,0,0,0,0,0,0,0,0,0,0,0,0,0,0,0,0,0,0,0,0,0,0,0,0,0,0,0,0,0,0,0,0,0,0,0,0,0,0,0,0,0,0],"id":6,"left_children":[1,3,5,7,-1,-1,-1,9,11,13,-1,15,17,19,21,23,25,27,29,31,33,-1,35,37,-1,39,41,-1,-1,-1,-1,-1,43,45,-1,47,-1,-1,-1,-1,-1,-1,-1,-1,-1,-1,-1,-1,-1],"loss_changes":[4.338577E0,1.8684204E0,1.2076569E0,1.8195646E0,0E0,0E0,0E0,7.401699E-1,7.845216E-1,8.4817E-1,0E0,1.0448489E0,4.0629387E-1,3.591618E-1,2.4567544E-1,4.378562E-1,2.715491E-1,1.9965479E-1,1.702115E-2,2.798943E-1,1.6451824E-1,0E0,1.2990922E-1,1.3658142E-1,0E0,1.7980523E-2,2.8705195E-2,0E0,0E0,0E0,0E0,0E0,1.577946E-1,1.7420068E-2,0E0,6.3708544E-2,0E0,0E0,0E0,0E0,0E0,0E0,0E0,0E0,0E0,0E0,0E0,0E0,0E0],"parents":[2147483647,0,0,1,1,2,2,3,3,7,7,8,8,9,9,11,11,12,12,13,13,14,14,15,15,16,16,17,17,18,18,19,19,20,20,22,22,23,23,25,25,26,26,32,32,33,33,35,35],"right_children":[2,4,6,8,-1,-1,-1,10,12,14,-1,16,18,20,22,24,26,28,30,32,34,-1,36,38,-1,40,42,-1,-1,-1,-1,-1,44,46,-1,48,-1,-1,-1,-1,-1,-1,-1,-1,-1,-1,-1,-1,-1],"split_conditions":[9.232931E2,7.960309E7,1.3927366E9,7.58932E1,-2.489022E-2,4.3501325E-2,1.128079E-2,7.213879E1,2.5766452E7,3.0371946E-1,-2.2665933E-2,6.3609333E0,4.89399E5,2.037744E10,1.0325462E9,9.235021E-1,1.7476E4,1.2019E4,2.573E3,1.5195573E2,7.067839E1,-1.8513774E-2,1E0,1.5637306E8,4.3936493E-3,5.35E2,1.194E3,2.3782146E-3,-1.0619972E-2,8.603179E-3,2.2202178E-3,-2.61156E-3,1.166E3,1.046E3,3.7104392E-3,1.7678711E5,1.9601047E-4,5.898081E-3,2.1350702E-2,6.4430427E-4,5.291263E-3,-1.0021627E-2,-2.3030266E-3,1.4651687E-2,1.0818121E-3,-9.69153E-3,-2.8618064E-3,-1.875159E-3,-1.0929215E-2],"split_indices":[50,43,3,50,0,0,0,50,43,39,0,55,27,29,29,25,7,7,1,53,50,0,13,3,0,0,1,0,0,0,0,0,1,1,0,26,0,0,0,0,0,0,0,0,0,0,0,0,0],"split_type":[0,0,0,0,0,0,0,0,0,0,0,0,0,0,0,0,0,0,0,0,0,0,0,0,0,0,0,0,0,0,0,0,0,0,0,0,0,0,0,0,0,0,0,0,0,0,0,0,0],"sum_hessian":[8.5E1,7.7E1,8E0,7.3E1,4E0,3E0,5E0,3.4E1,3.9E1,3.1E1,3E0,2.7E1,1.2E1,1.6E1,1.5E1,1.6E1,1.1E1,8E0,4E0,9E0,7E0,4E0,1.1E1,1.1E1,5E0,7E0,4E0,2E0,6E0,2E0,2E0,3E0,6E0,5E0,2E0,8E0,3E0,2E0,9E0,2E0,5E0,2E0,2E0,4E0,2E0,3E0,2E0,2E0,6E0],"tree_param":{"num_deleted":"0","num_feature":"114","num_nodes":"49","size_leaf_vector":"1"}},{"base_weights":[-3.9784666E-2,-3.7873137E-1,8.311061E-2,-3.201475E-2,-2.3522155E-1,-1.695323E-2,1.1734222E-1,-2.2330448E-2,-1.2981537E-1,2.0036837E-1,-1.5790915E-1,-1.820334E-1,1.10273715E-2,2.506054E-1,-6.330355E-2,-2.88124E-1,1.6233003E-2,-1.7062953E-3,-2.2845422E-1,3.3418743E-3,-2.6239841E-3,5.056085E-2,3.40989E-1,-9.967663E-3,1.028627E-1,-1.5903302E-2,-1.7771989E-1,-1.0332054E-2,-3.1319642E-3,1.0065071E-1,-3.4101356E-3,1.0204153E-1,4.0757117E-1,6.02521E-3,6.7123125E-4,-8.976363E-3,-3.925824E-3,2.8917959E-2,6.5074684E-3,8.815326E-3,-1.840195E-3,5.399654E-1,2.501609E-1,2.8422151E-3,-1.5305225E-3,2.2967033E-2,9.058901E-3,1.2174066E-1,1.3158986E-2,1.6980717E-3,5.859316E-3],"categories":[],"categories_nodes":[],"categories_segments":[],"categories_sizes":[],"default_left":[0,0,0,0,0,0,0,0,0,0,0,0,0,0,0,0,0,0,0,0,0,0,0,0,0,0,0,0,0,0,0,0,0,0,0,0,0,0,0,0,0,0,0,0,0,0,0,0,0,0,0],"id":7,"left_children":[1,3,5,-1,7,-1,9,-1,11,13,15,17,19,21,23,25,-1,-1,27,-1,-1,29,31,-1,33,-1,35,-1,-1,37,-1,39,41,-1,-1,-1,-1,43,-1,-1,-1,45,47,-1,-1,-1,-1,49,-1,-1,-1],"loss_changes":[3.4471822E0,1.1991894E0,1.1307755E0,0E0,5.641699E-1,0E0,1.3571177E0,0E0,1.1232534E-1,6.119386E-1,1.1652277E0,6.0665816E-2,3.489015E-2,6.6982746E-1,2.813235E-1,8.532792E-2,0E0,0E0,2.1564215E-2,0E0,0E0,9.856044E-2,3.7206173E-1,0E0,1.936458E-2,0E0,9.077519E-3,0E0,0E0,4.2489424E-2,0E0,1.3972396E-1,2.8172612E-1,0E0,0E0,0E0,0E0,2.0767223E-2,0E0,0E0,0E0,1.1561394E-2,8.149922E-2,0E0,0E0,0E0,0E0,6.7525283E-3,0E0,0E0,0E0],"parents":[2147483647,0,0,1,1,2,2,4,4,6,6,8,8,9,9,10,10,11,11,12,12,13,13,14,14,15,15,18,18,21,21,22,22,24,24,26,26,29,29,31,31,32,32,37,37,41,41,42,42,47,47],"right_children":[2,4,6,-1,8,-1,10,-1,12,14,16,18,20,22,24,26,-1,-1,28,-1,-1,30,32,-1,34,-1,36,-1,-1,38,-1,40,42,-1,-1,-1,-1,44,-1,-1,-1,46,48,-1,-1,-1,-1,50,-1,-1,-1],"split_conditions":[1.5116162E2,2.52E2,2.1599625E2,-3.201475E-2,8.5539725E8,-1.695323E-2,2.136E4,-2.2330448E-2,1.9606045E5,6.1061732E7,3.5E1,1.3314917E0,8.31E2,2.2485123E2,2.386E3,1.4837399E0,1.6233003E-2,-1.7062953E-3,2.0967135E0,3.3418743E-3,-2.6239841E-3,9E0,3E2,-9.967663E-3,8.24E2,-1.5903302E-2,2E0,-1.0332054E-2,-3.1319642E-3,5.5345E4,-3.4101356E-3,1.755E3,1E0,6.02521E-3,6.7123125E-4,-8.976363E-3,-3.925824E-3,1.6759E4,6.5074684E-3,8.815326E-3,-1.840195E-3,2.6962412E7,2.1E1,2.8422151E-3,-1.5305225E-3,2.2967033E-2,9.058901E-3,9.02E2,1.3158986E-2,1.6980717E-3,5.859316E-3],"split_indices":[53,9,49,0,29,0,7,0,45,43,2,52,1,53,1,51,0,0,52,0,0,2,9,0,0,0,6,0,0,27,0,14,6,0,0,0,0,7,0,0,0,43,6,0,0,0,0,0,0,0,0],"split_type":[0,0,0,0,0,0,0,0,0,0,0,0,0,0,0,0,0,0,0,0,0,0,0,0,0,0,0,0,0,0,0,0,0,0,0,0,0,0,0,0,0,0,0,0,0,0,0,0,0,0,0],"sum_hessian":[8.1E1,2.1E1,6E1,4E0,1.7E1,3E0,5.7E1,3E0,1.4E1,4.4E1,1.3E1,1E1,4E0,3.7E1,7E0,1.1E1,2E0,3E0,7E0,2E0,2E0,1.2E1,2.5E1,3E0,4E0,4E0,7E0,5E0,2E0,9E0,3E0,6E0,1.9E1,2E0,2E0,3E0,4E0,5E0,4E0,3E0,3E0,9E0,1E1,3E0,2E0,7E0,2E0,5E0,5E0,2E0,3E0],"tree_param":{"num_deleted":"0","num_feature":"114","num_nodes":"51","size_leaf_vector":"1"}},{"base_weights":[-1.7318588E-2,-6.441825E-1,4.8894964E-2,-2.997353E-2,-7.1517867E-3,-3.525949E-2,3.430345E-1,5.5478957E-2,-4.4450155E-1,2.4107687E-2,2.112032E-1,2.1548556E-1,-7.7936426E-2,-9.212168E-4,-5.993974E-1,8.422292E-2,1.5527591E-2,-7.47548E-2,3.2232067E-1,-1.6477509E-1,1.23697974E-1,-3.144187E-2,-1.23068895E-2,7.3910374E-3,-3.6845373E-3,-6.821386E-3,4.5557437E-3,9.2439145E-2,4.1040137E-1,-2.3145463E-1,-7.876694E-3,8.988646E-3,3.2132745E-2,5.5173044E-3,-1.349742E-4,4.6657303E-1,3.3733407E-3,-3.113483E-1,-7.303836E-2,3.6568237E-3,-6.812597E-3,2.5718382E-3,-9.1887795E-4,2.0560648E-2,5.9201326E-3,-3.481023E-1,-4.7578057E-3,-2.1402423E-4,-5.4204585E-3,-5.9803994E-3,-1.5447612E-2],"categories":[],"categories_nodes":[],"categories_segments":[],"categories_sizes":[],"default_left":[0,0,0,0,0,0,0,0,0,0,0,0,0,0,0,0,0,0,0,0,0,0,0,0,0,0,0,0,0,0,0,0,0,0,0,0,0,0,0,0,0,0,0,0,0,0,0,0,0,0,0],"id":8,"left_children":[1,3,5,-1,-1,7,9,11,13,-1,15,17,19,-1,21,23,-1,25,27,29,31,-1,-1,-1,-1,-1,-1,33,35,37,39,-1,41,-1,-1,43,-1,45,47,-1,-1,-1,-1,-1,-1,49,-1,-1,-1,-1,-1],"loss_changes":[3.4765687E0,3.138728E-1,1.8933346E0,0E0,0E0,2.2527E0,4.840641E-1,1.0841613E0,7.0304537E-1,0E0,2.7409208E-1,7.3727584E-1,5.1065284E-1,0E0,2.1393895E-1,1.8657663E-1,0E0,1.5418158E-1,3.0628085E-1,2.0741516E-1,8.030768E-2,0E0,0E0,0E0,0E0,0E0,0E0,2.8572503E-2,1.7812777E-1,1.5445E-1,1.3464703E-1,0E0,1.28060635E-2,0E0,0E0,1.0861826E-1,0E0,2.0296931E-2,2.5884636E-2,0E0,0E0,0E0,0E0,0E0,0E0,4.118204E-3,0E0,0E0,0E0,0E0,0E0],"parents":[2147483647,0,0,1,1,2,2,5,5,6,6,7,7,8,8,10,10,11,11,12,12,14,14,15,15,17,17,18,18,19,19,20,20,27,27,28,28,29,29,30,30,32,32,35,35,37,37,38,38,45,45],"right_children":[2,4,6,-1,-1,8,10,12,14,-1,16,18,20,-1,22,24,-1,26,28,30,32,-1,-1,-1,-1,-1,-1,34,36,38,40,-1,42,-1,-1,44,-1,46,48,-1,-1,-1,-1,-1,-1,50,-1,-1,-1,-1,-1],"split_conditions":[7.73E3,3.28E2,7.657E3,-2.997353E-2,-7.1517867E-3,2.6962412E7,1E0,4.8162012E5,7.475293E5,2.4107687E-2,2.5E1,7.52E2,5.752585E5,-9.212168E-4,9.280322E-1,1.7894737E0,1.5527591E-2,2.71E2,3E2,7.58932E1,5.0341E4,-3.144187E-2,-1.23068895E-2,7.3910374E-3,-3.6845373E-3,-6.821386E-3,4.5557437E-3,1.755E3,6.72E2,1.1995653E0,2.3135E4,8.988646E-3,1.117E3,5.5173044E-3,-1.349742E-4,6.791339E5,3.3733407E-3,9E0,9.43E2,3.6568237E-3,-6.812597E-3,2.5718382E-3,-9.1887795E-4,2.0560648E-2,5.9201326E-3,2.76E2,-4.7578057E-3,-2.1402423E-4,-5.4204585E-3,-5.9803994E-3,-1.5447612E-2],"split_indices":[27,8,14,0,0,43,6,49,26,0,6,1,26,0,25,51,0,0,9,50,27,0,0,0,0,0,0,14,0,37,7,0,1,0,0,30,0,2,1,0,0,0,0,0,0,0,0,0,0,0,0],"split_type":[0,0,0,0,0,0,0,0,0,0,0,0,0,0,0,0,0,0,0,0,0,0,0,0,0,0,0,0,0,0,0,0,0,0,0,0,0,0,0,0,0,0,0,0,0,0,0,0,0,0,0],"sum_hessian":[8.2E1,7E0,7.5E1,5E0,2E0,5.9E1,1.6E1,4.9E1,1E1,4E0,1.2E1,2.2E1,2.7E1,3E0,7E0,8E0,4E0,6E0,1.6E1,1.9E1,8E0,3E0,4E0,5E0,3E0,4E0,2E0,5E0,1.1E1,1.3E1,6E0,3E0,5E0,3E0,2E0,9E0,2E0,8E0,5E0,4E0,2E0,3E0,2E0,7E0,2E0,6E0,2E0,3E0,2E0,2E0,4E0],"tree_param":{"num_deleted":"0","num_feature":"114","num_nodes":"51","size_leaf_vector":"1"}},{"base_weights":[-5.1120434E-2,-4.132882E-1,6.8461135E-2,-3.236413E-2,-2.1962495E-1,1.255514E-1,-2.3282383E-2,-4.6602944E-1,-4.9819767E-2,1.8781927E-1,-1.51916E-1,-2.1352949E-2,-7.936053E-3,-7.2638644E-3,2.8099152E-3,4.1533634E-2,3.1488928E-1,-2.5599125E-1,8.239743E-3,-9.136281E-3,9.454388E-2,4.0396956E-1,-3.452651E-2,-4.745275E-3,-1.3253171E-2,1.1643417E-2,-1.3980831E-2,5.0921054E-3,4.6422297E-1,-6.3900403E-3,5.822811E-3,8.301775E-2,-1.5714857E-1,2.3946062E-2,2.3876336E-1,8.6365733E-4,3.7990622E-3,-9.230953E-3,3.1345906E-5,1.6382327E-3,1.1615827E-2],"categories":[],"categories_nodes":[],"categories_segments":[],"categories_sizes":[],"default_left":[0,0,0,0,0,0,0,0,0,0,0,0,0,0,0,0,0,0,0,0,0,0,0,0,0,0,0,0,0,0,0,0,0,0,0,0,0,0,0,0,0],"id":9,"left_children":[1,3,5,-1,7,9,-1,11,13,15,17,-1,-1,-1,-1,19,21,23,-1,-1,25,27,29,-1,-1,-1,31,-1,33,-1,-1,35,37,-1,39,-1,-1,-1,-1,-1,-1],"loss_changes":[3.4929814E0,1.4265034E0,2.3890352E0,0E0,6.0439396E-1,1.013339E0,0E0,1.6103864E-2,1.7914423E-1,8.605819E-1,4.6941823E-1,0E0,0E0,0E0,0E0,3.579336E-1,7.9209876E-1,5.9628427E-2,0E0,0E0,4.4595677E-1,2.6919436E-1,1.6656607E-1,0E0,0E0,0E0,2.0746507E-1,0E0,3.9050198E-1,0E0,0E0,5.6571364E-3,7.522541E-2,0E0,7.982519E-2,0E0,0E0,0E0,0E0,0E0,0E0],"parents":[2147483647,0,0,1,1,2,2,4,4,5,5,7,7,8,8,9,9,10,10,15,15,16,16,17,17,20,20,21,21,22,22,26,26,28,28,31,31,32,32,34,34],"right_children":[2,4,6,-1,8,10,-1,12,14,16,18,-1,-1,-1,-1,20,22,24,-1,-1,26,28,30,-1,-1,-1,32,-1,34,-1,-1,36,38,-1,40,-1,-1,-1,-1,-1,-1],"split_conditions":[1.5116162E2,2.52E2,7.960309E7,-3.236413E-2,8.180048E5,2.5737E4,-2.3282383E-2,8E0,2.76E2,3.1565277E2,4.1604185E0,-2.1352949E-2,-7.936053E-3,-7.2638644E-3,2.8099152E-3,4.1091032E-4,7.4999895E9,2.1756981E-1,8.239743E-3,-9.136281E-3,2.0142368E8,2.4204762E-1,6.755E3,-4.745275E-3,-1.3253171E-2,1.1643417E-2,9E0,5.0921054E-3,1.3927366E9,-6.3900403E-3,5.822811E-3,4.2905E4,2.2903395E8,2.3946062E-2,1.631E3,8.6365733E-4,3.7990622E-3,-9.230953E-3,3.1345906E-5,1.6382327E-3,1.1615827E-2],"split_indices":[53,9,43,0,43,7,0,2,0,53,52,0,0,0,0,36,3,40,0,0,5,25,1,0,0,0,2,0,3,0,0,27,5,0,1,0,0,0,0,0,0],"split_type":[0,0,0,0,0,0,0,0,0,0,0,0,0,0,0,0,0,0,0,0,0,0,0,0,0,0,0,0,0,0,0,0,0,0,0,0,0,0,0,0,0],"sum_hessian":[7.9E1,1.9E1,6E1,5E0,1.4E1,5.6E1,4E0,5E0,9E0,4.6E1,1E1,3E0,2E0,4E0,5E0,2.2E1,2.4E1,8E0,2E0,3E0,1.9E1,1.9E1,5E0,4E0,4E0,6E0,1.3E1,4E0,1.5E1,3E0,2E0,8E0,5E0,8E0,7E0,2E0,6E0,3E0,2E0,2E0,5E0],"tree_param":{"num_deleted":"0","num_feature":"114","num_nodes":"41","size_leaf_vector":"1"}},{"base_weights":[-1.7911159E-2,-2.792768E-1,6.9482096E-2,-5.0440663E-1,-8.4617145E-2,1.5961193E-1,-2.2214937E-1,-2.4411472E-2,-5.772626E-4,-1.5949808E-1,2.6206437E-3,7.042571E-2,4.1489273E-1,2.0822768E-1,-4.3670508E-1,-4.26047E-4,-7.827497E-3,1.3998614E-1,-1.4529814E-1,2.938542E-3,1.9892255E-2,1.1632389E-2,7.5708464E-4,-9.438376E-3,-2.1834444E-2,-2.0284582E-2,2.2113572E-1,-2.7511314E-1,9.738082E-3,4.8349097E-2,-8.570806E-3,2.715319E-1,1.564076E-2,-1.4131071E-2,-3.8282538E-3,3.8759771E-3,-3.3783328E-3,3.480134E-1,1.5154874E-1,-1.3736113E-3,2.3918368E-3,1.563434E-2,4.3005673E-3,1.8721506E-3,7.9735825E-3],"categories":[],"categories_nodes":[],"categories_segments":[],"categories_sizes":[],"default_left":[0,0,0,0,0,0,0,0,0,0,0,0,0,0,0,0,0,0,0,0,0,0,0,0,0,0,0,0,0,0,0,0,0,0,0,0,0,0,0,0,0,0,0,0,0],"id":10,"left_children":[1,3,5,7,9,11,13,-1,-1,15,-1,17,19,21,23,-1,-1,25,27,-1,-1,-1,-1,-1,-1,29,31,33,-1,35,-1,37,39,-1,-1,-1,-1,41,43,-1,-1,-1,-1,-1,-1],"loss_changes":[2.0066233E0,9.2143977E-1,1.7702473E0,5.8105755E-1,1.5838262E-1,1.1319249E0,1.5683718E0,0E0,0E0,5.2505493E-2,0E0,6.0556763E-1,3.7841296E-1,9.572509E-2,1.2732553E-1,0E0,0E0,3.9466268E-1,5.808457E-1,0E0,0E0,0E0,0E0,0E0,0E0,1.6095339E-1,2.0287633E-1,8.732784E-2,0E0,7.032918E-2,0E0,9.408283E-2,1.3735724E-2,0E0,0E0,0E0,0E0,6.780267E-2,3.3806965E-2,0E0,0E0,0E0,0E0,0E0,0E0],"parents":[2147483647,0,0,1,1,2,2,3,3,4,4,5,5,6,6,9,9,11,11,12,12,13,13,14,14,17,17,18,18,25,25,26,26,27,27,29,29,31,31,32,32,37,37,38,38],"right_children":[2,4,6,8,10,12,14,-1,-1,16,-1,18,20,22,24,-1,-1,26,28,-1,-1,-1,-1,-1,-1,30,32,34,-1,36,-1,38,40,-1,-1,-1,-1,42,44,-1,-1,-1,-1,-1,-1],"split_conditions":[1.5195573E2,2.6858338E5,3.1821228E7,8E0,1.126448E8,4.2084744E2,6.8540044E5,-2.4411472E-2,-5.772626E-4,1.3835684E5,2.6206437E-3,2.1282E4,7.9220135E6,5.1125275E5,7.2898104E7,-4.26047E-4,-7.827497E-3,2.1380836E2,2.9E1,2.938542E-3,1.9892255E-2,1.1632389E-2,7.5708464E-4,-9.438376E-3,-2.1834444E-2,2.5104358E0,3.5137082E2,1.01081E6,9.738082E-3,9E0,-8.570806E-3,1.113E3,1.98E2,-1.4131071E-2,-3.8282538E-3,3.8759771E-3,-3.3783328E-3,1.6865E4,3.76355E5,-1.3736113E-3,2.3918368E-3,1.563434E-2,4.3005673E-3,1.8721506E-3,7.9735825E-3],"split_indices":[53,31,43,2,3,53,26,0,0,26,0,7,43,30,43,0,0,53,6,0,0,0,0,0,0,54,53,7,0,2,0,1,0,0,0,0,0,7,31,0,0,0,0,0,0],"split_type":[0,0,0,0,0,0,0,0,0,0,0,0,0,0,0,0,0,0,0,0,0,0,0,0,0,0,0,0,0,0,0,0,0,0,0,0,0,0,0,0,0,0,0,0,0],"sum_hessian":[8.6E1,2.1E1,6.5E1,9E0,1.2E1,5E1,1.5E1,7E0,2E0,8E0,4E0,3.8E1,1.2E1,5E0,1E1,2E0,6E0,2.9E1,9E0,3E0,9E0,3E0,2E0,5E0,5E0,1E1,1.9E1,7E0,2E0,8E0,2E0,1.5E1,4E0,4E0,3E0,6E0,2E0,8E0,7E0,2E0,2E0,6E0,2E0,3E0,4E0],"tree_param":{"num_deleted":"0","num_feature":"114","num_nodes":"45","size_leaf_vector":"1"}},{"base_weights":[-3.2863107E-2,-2.5679441E-2,2.5095012E-2,3.4717266E-2,-1.0259516E-2,2.9545257E-2,-2.2087693E-2,-7.826162E-2,1.4599553E-1,-2.9918633E-2,-2.4976513E-1,-7.7544555E-2,2.1775958E-1,-1.4658357E-1,4.533915E-2,-1.2310652E-2,-1.3945386E-3,6.2420224E-3,-2.228529E-1,3.643831E-1,6.6054896E-2,-6.9441E-2,-9.401657E-3,9.2314154E-2,-9.216926E-3,-3.3101777E-3,-1.0574473E-2,1.6663564E-2,5.7647796E-4,1.3306542E-1,-8.117713E-2,-5.394266E-3,-6.2526466E-4,1.8357079E-1,-9.1996E-3,8.63895E-3,7.284522E-4,2.2022326E-3,-7.486926E-3,-1.3771307E-3,1.3364254E-3,2.0600315E-3,8.336163E-3,-5.283119E-3,1.8021844E-3,2.4403732E-3,-2.3929505E-3],"categories":[],"categories_nodes":[],"categories_segments":[],"categories_sizes":[],"default_left":[0,0,0,0,0,0,0,0,0,0,0,0,0,0,0,0,0,0,0,0,0,0,0,0,0,0,0,0,0,0,0,0,0,0,0,0,0,0,0,0,0,0,0,0,0,0,0],"id":11,"left_children":[1,-1,3,-1,5,7,-1,9,11,13,15,17,19,21,23,-1,-1,-1,25,27,29,31,-1,33,-1,-1,-1,-1,-1,35,37,-1,39,41,43,-1,45,-1,-1,-1,-1,-1,-1,-1,-1,-1,-1],"loss_changes":[2.9847836E0,0E0,2.3298683E0,0E0,1.6521221E0,8.902157E-1,0E0,2.9929405E-1,5.623188E-1,2.7004433E-1,1.0075253E-1,3.460115E-1,5.542611E-1,7.040584E-2,2.7285454E-1,0E0,0E0,0E0,1.6723275E-2,2.7653027E-1,1.489272E-1,3.7712432E-2,0E0,1.5917341E-1,0E0,0E0,0E0,0E0,0E0,1.1643204E-1,8.6805776E-2,0E0,7.238934E-3,2.3887753E-2,6.902119E-2,0E0,2.2966769E-2,0E0,0E0,0E0,0E0,0E0,0E0,0E0,0E0,0E0,0E0],"parents":[2147483647,0,0,2,2,4,4,5,5,7,7,8,8,9,9,10,10,11,11,12,12,13,13,14,14,18,18,19,19,20,20,21,21,23,23,29,29,30,30,32,32,33,33,34,34,36,36],"right_children":[2,-1,4,-1,6,8,-1,10,12,14,16,18,20,22,24,-1,-1,-1,26,28,30,32,-1,34,-1,-1,-1,-1,-1,36,38,-1,40,42,44,-1,46,-1,-1,-1,-1,-1,-1,-1,-1,-1,-1],"split_conditions":[9.775465E1,-2.5679441E-2,3.0323303E4,3.4717266E-2,7.960309E7,3.1492105E2,-2.2087693E-2,2.1282E4,8E0,4.1034E4,1.5510434E0,1.5697E4,1.2E1,1.9830508E0,9.461664E-1,-1.2310652E-2,-1.3945386E-3,6.2420224E-3,5.14E2,2.844235E1,1.2047E4,2.53E2,-9.401657E-3,2.1023767E0,-9.216926E-3,-3.3101777E-3,-1.0574473E-2,1.6663564E-2,5.7647796E-4,1.7851065E1,6.87E2,-5.394266E-3,2.76E2,1.1E2,8.7722336E4,8.63895E-3,1.7E1,2.2022326E-3,-7.486926E-3,-1.3771307E-3,1.3364254E-3,2.0600315E-3,8.336163E-3,-5.283119E-3,1.8021844E-3,2.4403732E-3,-2.3929505E-3],"split_indices":[53,0,26,0,43,53,0,7,2,27,51,7,2,55,25,0,0,0,0,56,7,9,0,56,0,0,0,0,0,55,0,0,0,8,30,0,2,0,0,0,0,0,0,0,0,0,0],"split_type":[0,0,0,0,0,0,0,0,0,0,0,0,0,0,0,0,0,0,0,0,0,0,0,0,0,0,0,0,0,0,0,0,0,0,0,0,0,0,0,0,0,0,0,0,0,0,0],"sum_hessian":[8.1E1,6E0,7.5E1,2E0,7.3E1,6.9E1,4E0,3.6E1,3.3E1,2.9E1,7E0,8E0,2.5E1,1.1E1,1.8E1,5E0,2E0,3E0,5E0,1.2E1,1.3E1,7E0,4E0,1.6E1,2E0,2E0,3E0,1E1,2E0,9E0,4E0,3E0,4E0,8E0,8E0,5E0,4E0,2E0,2E0,2E0,2E0,2E0,6E0,2E0,6E0,2E0,2E0],"tree_param":{"num_deleted":"0","num_feature":"114","num_nodes":"47","size_leaf_vector":"1"}},{"base_weights":[-3.496685E-2,-5.559304E-1,1.5064996E-2,-3.0272432E-2,-1.052589E-2,-4.376089E-2,3.7166703E-1,2.4404993E-2,-3.6024997E-1,1.0922122E-1,2.123035E-2,-2.314513E-2,3.0171072E-1,3.4481077E-3,-5.036354E-1,7.569619E-3,7.2213256E-4,-1.1229803E-1,7.375588E-2,1.5364896E-2,3.4688176E-3,-2.8601151E-2,-1.1759673E-2,6.2426336E-2,-1.7351216E-1,1.2399921E-1,-9.123828E-3,-3.2437006E-3,1.663166E-1,-2.541523E-1,-1.0702938E-2,1.8733162E-1,-1.4146377E-1,2.5698808E-3,8.257457E-3,-2.7552627E-3,-2.9781622E-1,-7.4171945E-2,2.7853649E-3,3.1050497E-3,2.585327E-1,-8.347842E-3,-8.61558E-4,-1.3233877E-2,-2.9521114E-3,-4.3093725E-3,-5.192784E-4,2.056187E-3,1.1657102E-2],"categories":[],"categories_nodes":[],"categories_segments":[],"categories_sizes":[],"default_left":[0,0,0,0,0,0,0,0,0,0,0,0,0,0,0,0,0,0,0,0,0,0,0,0,0,0,0,0,0,0,0,0,0,0,0,0,0,0,0,0,0,0,0,0,0,0,0,0,0],"id":12,"left_children":[1,3,5,-1,-1,7,9,11,13,15,-1,17,19,-1,21,-1,-1,23,25,-1,-1,-1,-1,27,29,31,-1,-1,33,35,37,39,41,-1,-1,-1,43,45,-1,-1,47,-1,-1,-1,-1,-1,-1,-1,-1],"loss_changes":[2.3802688E0,2.9321146E-1,1.7783686E0,0E0,0E0,1.583676E0,4.8187733E-1,8.113243E-1,8.805164E-1,4.2457946E-2,0E0,4.6615E-1,1.4068335E-1,0E0,2.4261737E-1,0E0,0E0,3.1030855E-1,4.3044782E-1,0E0,0E0,0E0,0E0,1.3471429E-1,2.729879E-1,4.1318604E-1,0E0,0E0,8.752212E-3,9.12348E-2,4.6930894E-2,1.2533414E-1,3.8423017E-2,0E0,0E0,0E0,7.459563E-2,9.538097E-3,0E0,0E0,7.466632E-2,0E0,0E0,0E0,0E0,0E0,0E0,0E0,0E0],"parents":[2147483647,0,0,1,1,2,2,5,5,6,6,7,7,8,8,9,9,11,11,12,12,14,14,17,17,18,18,23,23,24,24,25,25,28,28,29,29,30,30,31,31,32,32,36,36,37,37,40,40],"right_children":[2,4,6,-1,-1,8,10,12,14,16,-1,18,20,-1,22,-1,-1,24,26,-1,-1,-1,-1,28,30,32,-1,-1,34,36,38,40,42,-1,-1,-1,44,46,-1,-1,48,-1,-1,-1,-1,-1,-1,-1,-1],"split_conditions":[5.721E3,1E2,3.625E3,-3.0272432E-2,-1.052589E-2,3.9712732E7,1.4774E4,4.2084744E2,6.8540044E5,1.097E4,2.123035E-2,7.58932E1,5.29E2,3.4481077E-3,3.84796E5,7.569619E-3,7.2213256E-4,2.9166096E-1,2.5766452E7,1.5364896E-2,3.4688176E-3,-2.8601151E-2,-1.1759673E-2,1.2432228E0,6.895858E-1,2.1282E4,-9.123828E-3,-3.2437006E-3,2.3733622E6,7.038094E5,1.6351E4,2.4981093E2,1.194E3,2.5698808E-3,8.257457E-3,-2.7552627E-3,2.172078E0,8E0,2.7853649E-3,3.1050497E-3,7.8247314E1,-8.347842E-3,-8.61558E-4,-1.3233877E-2,-2.9521114E-3,-4.3093725E-3,-5.192784E-4,2.056187E-3,1.1657102E-2],"split_indices":[27,0,1,0,0,43,7,53,26,7,0,50,0,0,27,0,0,25,43,0,0,0,0,51,25,7,0,0,43,43,7,53,1,0,0,0,52,2,0,0,50,0,0,0,0,0,0,0,0],"split_type":[0,0,0,0,0,0,0,0,0,0,0,0,0,0,0,0,0,0,0,0,0,0,0,0,0,0,0,0,0,0,0,0,0,0,0,0,0,0,0,0,0,0,0,0,0,0,0,0,0],"sum_hessian":[9E1,7E0,8.3E1,3E0,4E0,7.2E1,1.1E1,6E1,1.2E1,5E0,6E0,5.2E1,8E0,3E0,9E0,2E0,3E0,2.7E1,2.5E1,5E0,3E0,3E0,6E0,7E0,2E1,2.2E1,3E0,3E0,4E0,1.3E1,7E0,1.8E1,4E0,2E0,2E0,3E0,1E1,4E0,3E0,8E0,1E1,2E0,2E0,8E0,2E0,2E0,2E0,2E0,8E0],"tree_param":{"num_deleted":"0","num_feature":"114","num_nodes":"49","size_leaf_vector":"1"}},{"base_weights":[-5.1894262E-2,-5.852789E-1,1.6448786E-2,-2.9961592E-2,-6.4954627E-3,6.352842E-2,-1.969306E-2,-1.6981723E-2,2.4955083E-1,7.916366E-2,-1.9130674E-1,4.0333498E-1,8.7060645E-2,-1.3731827E-2,2.2739252E-1,-7.2008476E-2,-1.8093621E-2,3.4151806E-3,4.7138125E-1,-5.187685E-3,7.2697075E-3,8.850135E-3,-5.302013E-2,-1.0839121E-3,3.1552318E-1,6.4848396E-3,-7.7689206E-3,2.0721188E-2,7.6572774E-3,-1.0044412E-1,5.8568537E-2,4.291003E-3,1.5626054E-2,6.391948E-2,-3.1751595E-3,-1.3723831E-1,2.6541294E-3,3.2056407E-3,3.0124074E-4,-2.722044E-4,3.94924E-3,-6.3395635E-3,-6.3681294E-4],"categories":[],"categories_nodes":[],"categories_segments":[],"categories_sizes":[],"default_left":[0,0,0,0,0,0,0,0,0,0,0,0,0,0,0,0,0,0,0,0,0,0,0,0,0,0,0,0,0,0,0,0,0,0,0,0,0,0,0,0,0,0,0],"id":13,"left_children":[1,3,5,-1,-1,7,-1,9,11,13,15,17,19,21,23,25,-1,-1,27,-1,-1,-1,29,-1,31,33,-1,-1,-1,35,37,-1,-1,39,-1,41,-1,-1,-1,-1,-1,-1,-1],"loss_changes":[2.8894248E0,5.5790615E-1,1.772273E0,0E0,0E0,9.9269944E-1,0E0,8.028903E-1,4.6465373E-1,4.2998606E-1,5.181053E-1,1.7374504E-1,2.6428863E-1,2.0083822E-1,2.785858E-1,1.307662E-1,0E0,0E0,2.620709E-2,0E0,0E0,0E0,1.0113851E-1,0E0,1.12508595E-1,5.0566886E-2,0E0,0E0,0E0,8.98719E-2,6.537864E-3,0E0,0E0,1.6521035E-2,0E0,3.0694872E-2,0E0,0E0,0E0,0E0,0E0,0E0,0E0],"parents":[2147483647,0,0,1,1,2,2,5,5,7,7,8,8,9,9,10,10,11,11,12,12,13,13,14,14,15,15,18,18,22,22,24,24,25,25,29,29,30,30,33,33,35,35],"right_children":[2,4,6,-1,-1,8,-1,10,12,14,16,18,20,22,24,26,-1,-1,28,-1,-1,-1,30,-1,32,34,-1,-1,-1,36,38,-1,-1,40,-1,42,-1,-1,-1,-1,-1,-1,-1],"split_conditions":[7.73E3,1.2518518E0,7.822023E7,-2.9961592E-2,-6.4954627E-3,4.4943256E2,-1.969306E-2,1.113E3,2.844235E1,3.4975828E5,2.461165E0,2.4204762E-1,4.768087E-2,1.6839835E8,4.1E1,7.758795E-2,-1.8093621E-2,3.4151806E-3,1.65E9,-5.187685E-3,7.2697075E-3,8.850135E-3,1.431413E-1,-1.0839121E-3,8.6E2,2.877397E2,-7.7689206E-3,2.0721188E-2,7.6572774E-3,2E0,8.31E2,4.291003E-3,1.5626054E-2,2.76E2,-3.1751595E-3,3.555709E8,2.6541294E-3,3.2056407E-3,3.0124074E-4,-2.722044E-4,3.94924E-3,-6.3395635E-3,-6.3681294E-4],"split_indices":[27,55,43,0,0,53,0,1,56,30,54,25,36,5,50,36,0,0,3,0,0,0,36,0,1,53,0,0,0,6,1,0,0,0,0,5,0,0,0,0,0,0,0],"split_type":[0,0,0,0,0,0,0,0,0,0,0,0,0,0,0,0,0,0,0,0,0,0,0,0,0,0,0,0,0,0,0,0,0,0,0,0,0,0,0,0,0,0,0],"sum_hessian":[7.8E1,8E0,7E1,5E0,3E0,6.5E1,5E0,4.6E1,1.9E1,3E1,1.6E1,9E0,1E1,1.9E1,1.1E1,1.2E1,4E0,2E0,7E0,3E0,7E0,2E0,1.7E1,3E0,8E0,8E0,4E0,5E0,2E0,1.2E1,5E0,3E0,5E0,5E0,3E0,1E1,2E0,3E0,2E0,2E0,3E0,8E0,2E0],"tree_param":{"num_deleted":"0","num_feature":"114","num_nodes":"43","size_leaf_vector":"1"}},{"base_weights":[3.134341E-3,1.4289925E-1,-2.0660008E-1,8.332985E-2,3.3853088E-2,-5.7052267E-1,-6.416209E-2,1.556465E-1,-1.4003012E-1,-2.8552987E-2,-5.7444694E-3,5.7288382E-2,-3.134284E-1,2.3545735E-1,-3.6912262E-3,-4.0859044E-2,-1.13483155E-2,-1.1153111E-1,1.9020538E-1,-1.5439681E-2,-7.020549E-4,8.264712E-2,3.819101E-1,-1.8074252E-1,1.147531E-1,-4.996631E-3,9.371274E-4,2.9904813E-2,-1.1554171E-2,2.5709972E-1,3.4628608E-4,1.0304402E-2,-4.730876E-2,1.7698139E-2,6.929072E-3,-1.7633028E-3,-9.267352E-3,1.0691194E-2,-6.7153275E-2,-2.6847946E-3,3.7657397E-3,3.6798888E-3,2.956946E-1,-3.1965598E-3,6.370601E-4,-5.7045775E-3,1.3328479E-3,1.3570151E-2,5.006399E-3],"categories":[],"categories_nodes":[],"categories_segments":[],"categories_sizes":[],"default_left":[0,0,0,0,0,0,0,0,0,0,0,0,0,0,0,0,0,0,0,0,0,0,0,0,0,0,0,0,0,0,0,0,0,0,0,0,0,0,0,0,0,0,0,0,0,0,0,0,0],"id":14,"left_children":[1,3,5,7,-1,9,11,13,15,-1,-1,17,19,21,23,25,-1,27,29,-1,-1,31,33,35,37,-1,-1,39,-1,41,-1,-1,43,-1,-1,-1,-1,-1,45,-1,-1,-1,47,-1,-1,-1,-1,-1,-1],"loss_changes":[2.6384256E0,2.256013E0,1.8295046E0,8.455802E-1,0E0,5.720241E-1,8.353407E-1,4.968273E-1,1.8215978E-1,0E0,0E0,4.4755444E-1,2.1053714E-1,5.503025E-1,3.1433085E-1,5.3882994E-2,0E0,2.4340889E-1,1.3115749E-1,0E0,0E0,3.420784E-1,1.088866E-1,3.526926E-2,2.7861604E-1,0E0,0E0,4.5985423E-2,0E0,2.2436142E-2,0E0,0E0,2.1103924E-2,0E0,0E0,0E0,0E0,0E0,4.4932522E-2,0E0,0E0,0E0,7.4572563E-3,0E0,0E0,0E0,0E0,0E0,0E0],"parents":[2147483647,0,0,1,1,2,2,3,3,5,5,6,6,7,7,8,8,11,11,12,12,13,13,14,14,15,15,17,17,18,18,21,21,22,22,23,23,24,24,27,27,29,29,32,32,38,38,42,42],"right_children":[2,4,6,8,-1,10,12,14,16,-1,-1,18,20,22,24,26,-1,28,30,-1,-1,32,34,36,38,-1,-1,40,-1,42,-1,-1,44,-1,-1,-1,-1,-1,46,-1,-1,-1,48,-1,-1,-1,-1,-1,-1],"split_conditions":[8.091231E-1,9.232931E2,2.81E2,4.7727087E-1,3.3853088E-2,1.9107901E0,5.9847044E7,4.3243725E5,1E0,-2.8552987E-2,-5.7444694E-3,5.75E2,4.3759488E8,2.8490282E8,1.08770256E2,1.2937E4,-1.13483155E-2,3.1668437E-1,1.7476E4,-1.5439681E-2,-7.020549E-4,1.622E3,1E0,4.15E2,2.9906188E5,-4.996631E-3,9.371274E-4,4.1740056E7,-1.1554171E-2,8.31E2,3.4628608E-4,1.0304402E-2,3.4872524E-2,1.7698139E-2,6.929072E-3,-1.7633028E-3,-9.267352E-3,1.0691194E-2,8.73E2,-2.6847946E-3,3.7657397E-3,3.6798888E-3,9E0,-3.1965598E-3,6.370601E-4,-5.7045775E-3,1.3328479E-3,1.3570151E-2,5.006399E-3],"split_indices":[25,50,9,37,0,51,43,26,107,0,0,0,5,3,50,27,0,54,7,0,0,14,106,0,30,0,0,3,0,1,0,0,36,0,0,0,0,0,0,0,0,0,2,0,0,0,0,0,0],"split_type":[0,0,0,0,0,0,0,0,0,0,0,0,0,0,0,0,0,0,0,0,0,0,0,0,0,0,0,0,0,0,0,0,0,0,0,0,0,0,0,0,0,0,0,0,0,0,0,0,0],"sum_hessian":[8.8E1,5.3E1,3.5E1,5E1,3E0,9E0,2.6E1,3.8E1,1.2E1,6E0,3E0,1.8E1,8E0,2.5E1,1.3E1,8E0,4E0,8E0,1E1,6E0,2E0,1.3E1,1.2E1,5E0,8E0,3E0,5E0,5E0,3E0,7E0,3E0,5E0,8E0,8E0,4E0,2E0,3E0,4E0,4E0,2E0,3E0,2E0,5E0,5E0,3E0,2E0,2E0,3E0,2E0],"tree_param":{"num_deleted":"0","num_feature":"114","num_nodes":"49","size_leaf_vector":"1"}},{"base_weights":[-3.8051766E-3,-6.295564E-2,6.3993174E-1,-4.0421477E-1,2.457649E-3,3.831614E-2,9.340735E-3,-5.790101E-1,-7.465262E-2,8.850798E-2,-2.912704E-1,-2.6232224E-2,-6.640685E-3,1.3827191E-3,-5.4109883E-3,-1.8377086E-2,2.119085E-1,-4.3126664E-1,3.726715E-2,8.7550245E-2,-1.7992859E-1,2.8059608E-1,-2.4426835E-2,-5.384479E-1,-9.153588E-3,6.3043255E-3,-5.494423E-3,-9.523251E-2,1.5482666E-1,1.6026812E-3,-2.5031948E-1,2.9039308E-3,3.4040314E-1,-3.5155767E-3,1.8458607E-3,-2.649356E-2,-1.0312483E-2,-5.6139585E-3,4.5626217E-5,2.171282E-1,-1.3202059E-2,-1.2126892E-2,-3.2219258E-3,4.9178326E-3,3.8021833E-1,2.8654432E-1,2.988906E-3,1.7723239E-3,-2.6317881E-3,1.6381016E-2,4.2927857E-3,3.5766966E-3,1.3523557E-2],"categories":[],"categories_nodes":[],"categories_segments":[],"categories_sizes":[],"default_left":[0,0,0,0,0,0,0,0,0,0,0,0,0,0,0,0,0,0,0,0,0,0,0,0,0,0,0,0,0,0,0,0,0,0,0,0,0,0,0,0,0,0,0,0,0,0,0,0,0,0,0,0,0],"id":15,"left_children":[1,3,5,7,9,-1,-1,11,13,15,17,-1,-1,-1,-1,19,21,23,25,27,29,31,33,35,-1,-1,-1,37,39,-1,41,-1,43,-1,-1,-1,-1,-1,-1,45,47,-1,-1,-1,49,51,-1,-1,-1,-1,-1,-1,-1],"loss_changes":[3.619557E0,1.9430842E0,8.5883474E-1,7.63258E-1,1.896159E0,0E0,0E0,2.2657394E-1,4.708189E-2,7.688952E-1,7.979703E-1,0E0,0E0,0E0,0E0,5.633598E-1,4.4515336E-1,1.2709498E-1,1.5522528E-1,2.606839E-1,2.1246663E-1,2.3373413E-1,3.7158508E-2,8.9532614E-2,0E0,0E0,0E0,2.8216016E-2,1.5989327E-1,0E0,7.5335026E-2,0E0,8.877504E-2,0E0,0E0,0E0,0E0,0E0,0E0,8.543891E-2,1.8923987E-2,0E0,0E0,0E0,9.151471E-2,4.9745977E-2,0E0,0E0,0E0,0E0,0E0,0E0,0E0],"parents":[2147483647,0,0,1,1,2,2,3,3,4,4,7,7,8,8,9,9,10,10,15,15,16,16,17,17,18,18,19,19,20,20,21,21,22,22,23,23,27,27,28,28,30,30,32,32,39,39,40,40,44,44,45,45],"right_children":[2,4,6,8,10,-1,-1,12,14,16,18,-1,-1,-1,-1,20,22,24,26,28,30,32,34,36,-1,-1,-1,38,40,-1,42,-1,44,-1,-1,-1,-1,-1,-1,46,48,-1,-1,-1,50,52,-1,-1,-1,-1,-1,-1,-1],"split_conditions":[9.043662E2,1.0241392E2,1.3927366E9,1.2888563E0,2.6962412E7,3.831614E-2,9.340735E-3,1E0,7.86E2,7.6309525E1,3.494881E2,-2.6232224E-2,-6.640685E-3,1.3827191E-3,-5.4109883E-3,4.9462875E5,6.5260305E0,1.6868687E0,1.9185424E0,1.5195573E2,2.9166096E-1,2.4981093E2,9.32E2,9.280322E-1,-9.153588E-3,6.3043255E-3,-5.494423E-3,5.94E2,3.8190034E5,1.6026812E-3,2.035294E0,2.9039308E-3,3.0719555E8,-3.5155767E-3,1.8458607E-3,-2.649356E-2,-1.0312483E-2,-5.6139585E-3,4.5626217E-5,1.282E3,8.67E2,-1.2126892E-2,-3.2219258E-3,4.9178326E-3,1.5283889E0,2.533423E6,2.988906E-3,1.7723239E-3,-2.6317881E-3,1.6381016E-2,4.2927857E-3,3.5766966E-3,1.3523557E-2],"split_indices":[50,53,3,55,43,0,0,111,1,50,50,0,0,0,0,31,55,51,52,53,25,53,0,25,0,0,0,1,26,0,52,0,3,0,0,0,0,0,0,8,1,0,0,0,39,43,0,0,0,0,0,0,0],"split_type":[0,0,0,0,0,0,0,0,0,0,0,0,0,0,0,0,0,0,0,0,0,0,0,0,0,0,0,0,0,0,0,0,0,0,0,0,0,0,0,0,0,0,0,0,0,0,0,0,0,0,0,0,0],"sum_hessian":[9.3E1,8.6E1,7E0,1.3E1,7.3E1,3E0,4E0,8E0,5E0,5.7E1,1.6E1,6E0,2E0,2E0,3E0,3.1E1,2.6E1,1.1E1,5E0,1.9E1,1.2E1,2E1,6E0,6E0,5E0,3E0,2E0,5E0,1.4E1,3E0,9E0,5E0,1.5E1,3E0,3E0,3E0,3E0,3E0,2E0,1E1,4E0,6E0,3E0,3E0,1.2E1,6E0,4E0,2E0,2E0,1E1,2E0,2E0,4E0],"tree_param":{"num_deleted":"0","num_feature":"114","num_nodes":"53","size_leaf_vector":"1"}},{"base_weights":[-8.578049E-3,3.452374E-2,-4.0731274E-2,-1.8440743E-1,5.30343E-2,-2.6161975E-1,2.0665126E-1,2.562475E-1,3.3874859E-3,-1.4586887E-1,-5.880339E-1,2.0863907E-3,1.3361932E-2,-1.3199094E-3,1.3006398E-2,4.0106785E-2,-1.38849225E-2,-8.52449E-2,-3.349414E-1,-2.897682E-2,-1.1218714E-2,-8.2446605E-2,1.2894595E-1,-1.8917087E-1,3.970004E-2,-1.5977815E-2,-5.8271275E-3,-1.5646969E-1,1.783246E-3,2.6221043E-1,-4.027079E-2,-3.9721787E-4,-2.3265009E-1,1.1876966E-1,-1.8479344E-3,-8.972724E-3,-2.2634124E-2,3.2279572E-1,3.933968E-3,9.5106676E-2,-8.661466E-3,-1.0844945E-2,-2.54323E-3,1.81655E-3,5.915446E-3,-2.5822567E-3,1.1087577E-3,3.5838604E-3,1.4675053E-2,7.257305E-3,-7.5621135E-4],"categories":[],"categories_nodes":[],"categories_segments":[],"categories_sizes":[],"default_left":[0,0,0,0,0,0,0,0,0,0,0,0,0,0,0,0,0,0,0,0,0,0,0,0,0,0,0,0,0,0,0,0,0,0,0,0,0,0,0,0,0,0,0,0,0,0,0,0,0,0,0],"id":16,"left_children":[1,-1,3,5,7,9,11,13,15,17,19,-1,-1,-1,-1,21,-1,23,25,-1,-1,27,29,31,33,-1,-1,35,-1,37,39,-1,41,43,-1,-1,45,47,-1,49,-1,-1,-1,-1,-1,-1,-1,-1,-1,-1,-1],"loss_changes":[2.4750385E0,0E0,1.1279458E0,1.0504838E0,5.1366526E-1,9.7214043E-1,1.0624695E-1,2.3380941E-1,5.6769466E-1,2.236192E-1,1.1081815E-1,0E0,0E0,0E0,0E0,4.3524525E-1,0E0,2.412405E-1,7.8113675E-3,0E0,0E0,1.6834356E-1,5.292227E-1,7.546258E-2,6.753731E-2,0E0,0E0,1.0262984E-1,0E0,9.468496E-2,2.9133227E-1,0E0,4.223019E-2,4.762538E-3,0E0,0E0,1.2967009E-2,7.553983E-2,0E0,7.626394E-2,0E0,0E0,0E0,0E0,0E0,0E0,0E0,0E0,0E0,0E0,0E0],"parents":[2147483647,0,0,2,2,3,3,4,4,5,5,6,6,7,7,8,8,9,9,10,10,15,15,17,17,18,18,21,21,22,22,23,23,24,24,27,27,29,29,30,30,32,32,33,33,36,36,37,37,39,39],"right_children":[2,-1,4,6,8,10,12,14,16,18,20,-1,-1,-1,-1,22,-1,24,26,-1,-1,28,30,32,34,-1,-1,36,-1,38,40,-1,42,44,-1,-1,46,48,-1,50,-1,-1,-1,-1,-1,-1,-1,-1,-1,-1,-1],"split_conditions":[1.9411758E-2,3.452374E-2,8E0,3.9E1,2.0080225E5,1.436E3,1.9836358E5,2.3316135E6,7.960309E7,3.8169153E5,3.3675788E5,2.0863907E-3,1.3361932E-2,-1.3199094E-3,1.3006398E-2,3.0355103E2,-1.38849225E-2,2.6563678E5,4.72E2,-2.897682E-2,-1.1218714E-2,1.8939584E8,3.1821228E7,2.77E2,4.7572872E5,-1.5977815E-2,-5.8271275E-3,6.895858E-1,1.783246E-3,1.284078E6,1.2047E4,-3.9721787E-4,9.77E2,1E0,-1.8479344E-3,-8.972724E-3,2.76E2,8.6E2,3.933968E-3,2.1952858E5,-8.661466E-3,-1.0844945E-2,-2.54323E-3,1.81655E-3,5.915446E-3,-2.5822567E-3,1.1087577E-3,3.5838604E-3,1.4675053E-2,7.257305E-3,-7.5621135E-4],"split_indices":[25,0,2,6,26,1,30,43,43,45,31,0,0,0,0,53,0,31,0,0,0,10,43,0,31,0,0,25,0,45,7,0,1,13,0,0,0,1,0,31,0,0,0,0,0,0,0,0,0,0,0],"split_type":[0,0,0,0,0,0,0,0,0,0,0,0,0,0,0,0,0,0,0,0,0,0,0,0,0,0,0,0,0,0,0,0,0,0,0,0,0,0,0,0,0,0,0,0,0,0,0,0,0,0,0],"sum_hessian":[8.4E1,2E0,8.2E1,3.2E1,5E1,2.7E1,5E0,9E0,4.1E1,2.1E1,6E0,3E0,2E0,2E0,7E0,3.8E1,3E0,1.7E1,4E0,3E0,3E0,1.6E1,2.2E1,9E0,8E0,2E0,2E0,1E1,6E0,1.2E1,1E1,2E0,7E0,4E0,4E0,6E0,4E0,8E0,4E0,6E0,4E0,5E0,2E0,2E0,2E0,2E0,2E0,2E0,6E0,3E0,3E0],"tree_param":{"num_deleted":"0","num_feature":"114","num_nodes":"51","size_leaf_vector":"1"}},{"base_weights":[2.3676734E-2,-3.4450818E-2,6.929132E-1,-3.8593552E-1,2.6295856E-2,3.6822777E-2,1.0541863E-2,-5.8858424E-1,-8.518944E-2,6.371132E-2,-1.8469641E-2,-2.6597992E-2,-9.314216E-3,4.8028285E-4,-5.3515206E-3,-3.161768E-1,9.331986E-2,-3.352571E-3,-1.7230783E-2,1.4543726E-1,-3.2284614E-2,1.9685912E-1,-7.640991E-2,-1.4486875E-1,6.2764645E-2,2.2596614E-1,-3.6126482E-3,7.6977867E-3,-1.8270144E-1,-8.662515E-4,-2.3858656E-1,1.0361684E-1,-1.3526994E-3,4.5090765E-2,2.5665492E-1,-9.000333E-3,-1.6510517E-3,-4.0179016E-3,-1.1514267E-2,1.9523693E-3,5.654182E-3,3.551237E-3,-1.2124504E-3,8.070428E-4,1.0703098E-2],"categories":[],"categories_nodes":[],"categories_segments":[],"categories_sizes":[],"default_left":[0,0,0,0,0,0,0,0,0,0,0,0,0,0,0,0,0,0,0,0,0,0,0,0,0,0,0,0,0,0,0,0,0,0,0,0,0,0,0,0,0,0,0,0,0],"id":17,"left_children":[1,3,5,7,9,-1,-1,11,13,15,-1,-1,-1,-1,-1,17,19,-1,-1,21,23,25,27,29,31,33,-1,-1,35,-1,37,39,-1,41,43,-1,-1,-1,-1,-1,-1,-1,-1,-1,-1],"loss_changes":[3.408265E0,1.7396222E0,4.8527837E-1,6.812085E-1,1.3374236E0,0E0,0E0,6.3988924E-2,3.1992782E-2,7.71869E-1,0E0,0E0,0E0,0E0,0E0,1.06051445E-1,4.105584E-1,0E0,0E0,5.16985E-1,2.1241239E-1,3.240931E-1,2.976265E-1,9.819426E-2,4.7355387E-2,1.7160511E-1,0E0,0E0,3.716944E-2,0E0,7.811904E-3,1.0415621E-2,0E0,2.3754619E-2,1.0904157E-1,0E0,0E0,0E0,0E0,0E0,0E0,0E0,0E0,0E0,0E0],"parents":[2147483647,0,0,1,1,2,2,3,3,4,4,7,7,8,8,9,9,15,15,16,16,19,19,20,20,21,21,22,22,23,23,24,24,25,25,28,28,30,30,31,31,33,33,34,34],"right_children":[2,4,6,8,10,-1,-1,12,14,16,-1,-1,-1,-1,-1,18,20,-1,-1,22,24,26,28,30,32,34,-1,-1,36,-1,38,40,-1,42,44,-1,-1,-1,-1,-1,-1,-1,-1,-1,-1],"split_conditions":[9.232931E2,1.0241392E2,1.3927366E9,7.73E3,7.960309E7,3.6822777E-2,1.0541863E-2,4.1121494E-2,8.66E3,3.2258064E-2,-1.8469641E-2,-2.6597992E-2,-9.314216E-3,4.8028285E-4,-5.3515206E-3,3.7E1,7.5167036E0,-3.352571E-3,-1.7230783E-2,2.5927516E11,2.9044975E5,6.1119344E5,4.473049E-1,4.9462875E5,2.1159E4,4.1E1,-3.6126482E-3,7.6977867E-3,1.9935484E0,-8.662515E-4,1.104E3,1.117E3,-1.3526994E-3,2.0519513E-1,2.3316135E6,-9.000333E-3,-1.6510517E-3,-4.0179016E-3,-1.1514267E-2,1.9523693E-3,5.654182E-3,3.551237E-3,-1.2124504E-3,8.070428E-4,1.0703098E-2],"split_indices":[50,53,3,27,43,0,0,54,27,56,0,0,0,0,0,8,55,0,0,29,26,31,25,31,7,50,0,0,51,0,1,1,0,25,43,0,0,0,0,0,0,0,0,0,0],"split_type":[0,0,0,0,0,0,0,0,0,0,0,0,0,0,0,0,0,0,0,0,0,0,0,0,0,0,0,0,0,0,0,0,0,0,0,0,0,0,0,0,0,0,0,0,0],"sum_hessian":[8.6E1,8E1,6E0,1.1E1,6.9E1,3E0,3E0,6E0,5E0,6.5E1,4E0,4E0,2E0,2E0,3E0,4E0,6.1E1,2E0,2E0,4.3E1,1.8E1,3.5E1,8E0,8E0,1E1,3.2E1,3E0,2E0,6E0,4E0,4E0,7E0,3E0,5E0,2.7E1,4E0,2E0,2E0,2E0,4E0,3E0,3E0,2E0,2E0,2.5E1],"tree_param":{"num_deleted":"0","num_feature":"114","num_nodes":"45","size_leaf_vector":"1"}},{"base_weights":[4.701783E-3,-5.634326E-2,5.46802E-1,-3.9715615E-1,-7.5478815E-3,5.6637307E-3,3.2781277E-2,-2.003016E-1,-2.509098E-2,5.95031E-2,-2.2403353E-1,-9.681497E-3,-2.119876E-3,1.1510467E-1,-1.2898694E-1,4.7930352E-2,-3.7673476E-1,-6.584311E-3,1.4059423E-1,4.331414E-3,-2.1203902E-1,6.415681E-3,-3.1393631E-3,-1.0146831E-2,-2.3516102E-2,4.1243747E-2,2.2851878E-1,-1.0266543E-2,-2.3035682E-4,-5.8986682E-2,1.2861289E-1,3.1149393E-1,1.0609673E-1,1.4334808E-2,-1.3517514E-1,1.0935707E-2,6.387063E-2,2.0401746E-1,1.6450606E-2,3.1679183E-2,6.80349E-3,-1.3834524E-3,1.8774758E-3,-7.449717E-3,-1.3502884E-3,2.965658E-3,5.645802E-4,9.384474E-3,2.4817623E-3,2.3583258E-3,-6.696271E-4],"categories":[],"categories_nodes":[],"categories_segments":[],"categories_sizes":[],"default_left":[0,0,0,0,0,0,0,0,0,0,0,0,0,0,0,0,0,0,0,0,0,0,0,0,0,0,0,0,0,0,0,0,0,0,0,0,0,0,0,0,0,0,0,0,0,0,0,0,0,0,0],"id":18,"left_children":[1,3,5,7,9,-1,-1,11,-1,13,15,-1,-1,17,19,21,23,-1,25,-1,27,-1,-1,-1,-1,29,31,-1,-1,33,35,37,39,41,43,-1,45,47,-1,49,-1,-1,-1,-1,-1,-1,-1,-1,-1,-1,-1],"loss_changes":[2.9429514E0,1.3274097E0,9.358487E-1,3.5403383E-1,1.0439366E0,0E0,0E0,3.516215E-2,0E0,5.912658E-1,7.2405386E-1,0E0,0E0,3.346185E-1,2.825026E-1,1.1766958E-1,1.3348484E-1,0E0,3.3998883E-1,0E0,1.0316616E-1,0E0,0E0,0E0,0E0,1.8272737E-1,1.8026924E-1,0E0,0E0,5.780022E-2,8.9908525E-2,5.5511594E-2,4.5146897E-2,1.1771751E-2,2.1348946E-2,0E0,4.2636767E-3,2.546063E-2,0E0,9.441443E-3,0E0,0E0,0E0,0E0,0E0,0E0,0E0,0E0,0E0,0E0,0E0],"parents":[2147483647,0,0,1,1,2,2,3,3,4,4,7,7,9,9,10,10,13,13,14,14,15,15,16,16,18,18,20,20,25,25,26,26,29,29,30,30,31,31,32,32,33,33,34,34,36,36,37,37,39,39],"right_children":[2,4,6,8,10,-1,-1,12,-1,14,16,-1,-1,18,20,22,24,-1,26,-1,28,-1,-1,-1,-1,30,32,-1,-1,34,36,38,40,42,44,-1,46,48,-1,50,-1,-1,-1,-1,-1,-1,-1,-1,-1,-1,-1],"split_conditions":[9.232931E2,1.0241392E2,1.4041E4,1.1989736E6,3.1821228E7,5.6637307E-3,3.2781277E-2,1.7810288E5,-2.509098E-2,4.9462875E5,7.1080825E5,-9.681497E-3,-2.119876E-3,8.367441E-4,2.7784336E-1,2E0,8E0,-6.584311E-3,2.351293E2,4.331414E-3,6.237989E5,6.415681E-3,-3.1393631E-3,-1.0146831E-2,-2.3516102E-2,4.1061E4,2.538878E8,-1.0266543E-2,-2.3035682E-4,7.113821E-1,1.282E3,1.87E3,9.32E2,1.2266102E2,8.294758E-1,1.0935707E-2,9E0,3.08E2,1.6450606E-2,1.246E3,6.80349E-3,-1.3834524E-3,1.8774758E-3,-7.449717E-3,-1.3502884E-3,2.965658E-3,5.645802E-4,9.384474E-3,2.4817623E-3,2.3583258E-3,-6.696271E-4],"split_indices":[50,53,7,30,43,0,0,45,0,31,26,0,0,40,25,6,6,0,53,0,31,0,0,0,0,27,5,0,0,54,8,14,0,53,25,0,2,0,0,1,0,0,0,0,0,0,0,0,0,0,0],"split_type":[0,0,0,0,0,0,0,0,0,0,0,0,0,0,0,0,0,0,0,0,0,0,0,0,0,0,0,0,0,0,0,0,0,0,0,0,0,0,0,0,0,0,0,0,0,0,0,0,0,0,0],"sum_hessian":[8.7E1,7.9E1,8E0,9E0,7E1,4E0,4E0,6E0,3E0,5.4E1,1.6E1,4E0,2E0,4.2E1,1.2E1,6E0,1E1,3E0,3.9E1,3E0,9E0,3E0,3E0,8E0,2E0,1.9E1,2E1,7E0,2E0,9E0,1E1,1.1E1,9E0,5E0,4E0,2E0,8E0,7E0,4E0,5E0,4E0,2E0,3E0,2E0,2E0,6E0,2E0,5E0,2E0,3E0,2E0],"tree_param":{"num_deleted":"0","num_feature":"114","num_nodes":"51","size_leaf_vector":"1"}},{"base_weights":[2.9760268E-2,-4.7053993E-1,8.651229E-2,-2.5223559E-2,-5.2295667E-3,5.1911682E-2,3.288716E-2,7.486831E-2,-1.3050548E-2,-4.0857486E-2,1.4821836E-1,6.6419994E-3,-1.1865207E-2,2.4028909E-1,2.2338085E-2,4.370334E-2,-7.043586E-3,3.2515982E-1,-5.437131E-2,8.8547595E-2,-1.2483887E-1,7.3421206E-3,7.18791E-3,1.2683944E-1,4.1375008E-1,-6.883102E-3,1.976674E-3,4.023029E-2,6.1641014E-3,-8.0118505E-3,-1.3055076E-3,-3.8927484E-2,9.822071E-2,6.104174E-3,1.3866607E-3,6.75542E-3,1.7366897E-2,2.8248227E-3,-1.8770123E-3,-3.0598375E-3,1.2464785E-3,1.1130834E-3,4.920007E-3],"categories":[],"categories_nodes":[],"categories_segments":[],"categories_sizes":[],"default_left":[0,0,0,0,0,0,0,0,0,0,0,0,0,0,0,0,0,0,0,0,0,0,0,0,0,0,0,0,0,0,0,0,0,0,0,0,0,0,0,0,0,0,0],"id":19,"left_children":[1,3,5,-1,-1,7,-1,9,-1,11,13,15,-1,17,19,21,-1,23,25,27,29,-1,31,33,35,-1,-1,37,-1,-1,-1,39,41,-1,-1,-1,-1,-1,-1,-1,-1,-1,-1],"loss_changes":[2.226972E0,3.8544607E-1,1.7860079E0,0E0,0E0,6.2761605E-1,0E0,5.5780786E-1,0E0,3.2670504E-1,4.58228E-1,1.6725369E-1,0E0,5.928644E-1,1.8645543E-1,1.04006685E-1,0E0,2.6376677E-1,8.56631E-2,3.7156254E-2,3.717523E-2,0E0,7.5189725E-2,1.3272509E-2,1.2295008E-2,0E0,0E0,2.8971788E-2,0E0,0E0,0E0,3.599967E-2,8.0147125E-3,0E0,0E0,0E0,0E0,0E0,0E0,0E0,0E0,0E0,0E0],"parents":[2147483647,0,0,1,1,2,2,5,5,7,7,9,9,10,10,11,11,13,13,14,14,15,15,17,17,18,18,19,19,20,20,22,22,23,23,24,24,27,27,31,31,32,32],"right_children":[2,4,6,-1,-1,8,-1,10,-1,12,14,16,-1,18,20,22,-1,24,26,28,30,-1,32,34,36,-1,-1,38,-1,-1,-1,40,42,-1,-1,-1,-1,-1,-1,-1,-1,-1,-1],"split_conditions":[7.73E3,2.6858338E5,1.4056875E3,-2.5223559E-2,-5.2295667E-3,7.960309E7,3.288716E-2,7.58932E1,-1.3050548E-2,5.001725E5,8.728938E0,5.354247E5,-1.1865207E-2,9.235021E-1,2.1159E4,2.32E2,-7.043586E-3,3.9553946E-1,1.6236E4,2.1E1,7E0,7.3421206E-3,7.2591E4,5.4114547E-2,1.4285715E-1,-6.883102E-3,1.976674E-3,2.5104358E0,6.1641014E-3,-8.0118505E-3,-1.3055076E-3,2.993352E5,4.15E2,6.104174E-3,1.3866607E-3,6.75542E-3,1.7366897E-2,2.8248227E-3,-1.8770123E-3,-3.0598375E-3,1.2464785E-3,1.1130834E-3,4.920007E-3],"split_indices":[27,31,50,0,0,43,0,50,0,45,55,31,0,25,7,9,0,25,7,6,2,0,27,36,56,0,0,54,0,0,0,45,0,0,0,0,0,0,0,0,0,0,0],"split_type":[0,0,0,0,0,0,0,0,0,0,0,0,0,0,0,0,0,0,0,0,0,0,0,0,0,0,0,0,0,0,0,0,0,0,0,0,0,0,0,0,0,0,0],"sum_hessian":[7.6E1,7E0,6.9E1,4E0,3E0,6.7E1,2E0,6.4E1,3E0,2.5E1,3.9E1,2.2E1,3E0,2.2E1,1.7E1,1.9E1,3E0,1.7E1,5E0,1.2E1,5E0,3E0,1.6E1,6E0,1.1E1,2E0,3E0,8E0,4E0,2E0,3E0,1.1E1,5E0,4E0,2E0,2E0,9E0,6E0,2E0,7E0,4E0,2E0,3E0],"tree_param":{"num_deleted":"0","num_feature":"114","num_nodes":"43","size_leaf_vector":"1"}},{"base_weights":[2.0643467E-2,-9.087263E-3,3.5376444E-2,-4.2584613E-1,2.043792E-2,-2.562006E-2,-5.7355757E-3,-2.8045532E-1,4.6840638E-2,-2.356682E-3,-1.3922592E-2,8.341111E-2,-1.868142E-1,1.8808936E-1,1.1639637E-2,-2.8224447E-1,-1.5848994E-2,2.5444767E-1,-1.6804847E-1,4.4720486E-2,-1.2257507E-2,-3.7420467E-3,-1.3189211E-2,-2.8972833E-3,1.8655017E-3,5.2952826E-2,3.0468565E-1,-9.355285E-3,-1.5848002E-3,-9.9592805E-2,9.133423E-2,3.8925856E-3,-1.0533904E-3,1.6112529E-1,3.9444545E-1,-7.2641764E-3,-1.1010826E-2,1.3297917E-1,-9.740868E-2,8.09158E-3,5.300501E-7,1.793347E-2,6.502918E-3,-4.4703167E-3,2.7076057E-3,7.2326744E-3,-4.1556064E-5,-5.286741E-3,-5.6066806E-4],"categories":[],"categories_nodes":[],"categories_segments":[],"categories_sizes":[],"default_left":[0,0,0,0,0,0,0,0,0,0,0,0,0,0,0,0,0,0,0,0,0,0,0,0,0,0,0,0,0,0,0,0,0,0,0,0,0,0,0,0,0,0,0,0,0,0,0,0,0],"id":20,"left_children":[1,3,-1,5,7,-1,-1,9,11,-1,-1,13,15,17,19,21,23,25,27,29,-1,-1,-1,-1,-1,31,33,-1,-1,35,37,-1,-1,39,41,-1,43,45,47,-1,-1,-1,-1,-1,-1,-1,-1,-1,-1],"loss_changes":[2.4290178E0,1.1161426E0,0E0,2.8882146E-1,6.884107E-1,0E0,0E0,9.557074E-2,6.90627E-1,0E0,0E0,5.162016E-1,1.7499444E-1,7.044755E-1,4.6621E-1,3.99763E-2,2.20924E-2,2.2681057E-1,3.5828993E-2,2.7144855E-1,0E0,0E0,0E0,0E0,0E0,2.5082625E-2,1.8127799E-1,0E0,0E0,7.446924E-2,2.4875891E-1,0E0,0E0,6.6740885E-2,8.574283E-2,0E0,5.778641E-2,1.7507946E-1,1.6963325E-2,0E0,0E0,0E0,0E0,0E0,0E0,0E0,0E0,0E0,0E0],"parents":[2147483647,0,0,1,1,3,3,4,4,7,7,8,8,11,11,12,12,13,13,14,14,15,15,16,16,17,17,18,18,19,19,25,25,26,26,29,29,30,30,33,33,34,34,36,36,37,37,38,38],"right_children":[2,4,-1,6,8,-1,-1,10,12,-1,-1,14,16,18,20,22,24,26,28,30,-1,-1,-1,-1,-1,32,34,-1,-1,36,38,-1,-1,40,42,-1,44,46,48,-1,-1,-1,-1,-1,-1,-1,-1,-1,-1],"split_conditions":[3.8526728E0,3.2258064E-2,3.5376444E-2,1.4753E4,7E0,-2.562006E-2,-5.7355757E-3,2.7626112E8,5.354247E5,-2.356682E-3,-1.3922592E-2,4.3243725E5,9.849368E5,6.284785E-1,7.822023E7,1.9024893E8,2.2903395E8,1.4774E4,4.72E2,7.58932E1,-1.2257507E-2,-3.7420467E-3,-1.3189211E-2,-2.8972833E-3,1.8655017E-3,8.728938E0,2.319E3,-9.355285E-3,-1.5848002E-3,5.752585E5,2.136E4,3.8925856E-3,-1.0533904E-3,2.0833333E0,1.88556E5,-7.2641764E-3,2.81E2,7.4999895E9,9.25E2,8.09158E-3,5.300501E-7,1.793347E-2,6.502918E-3,-4.4703167E-3,2.7076057E-3,7.2326744E-3,-4.1556064E-5,-5.286741E-3,-5.6066806E-4],"split_indices":[37,56,0,7,2,0,0,5,31,0,0,26,49,37,43,5,5,7,0,50,0,0,0,0,0,55,14,0,0,26,7,0,0,52,27,0,0,3,0,0,0,0,0,0,0,0,0,0,0],"split_type":[0,0,0,0,0,0,0,0,0,0,0,0,0,0,0,0,0,0,0,0,0,0,0,0,0,0,0,0,0,0,0,0,0,0,0,0,0,0,0,0,0,0,0,0,0,0,0,0,0],"sum_hessian":[9.1E1,8.9E1,2E0,5E0,8.4E1,2E0,3E0,6E0,7.8E1,2E0,4E0,6.8E1,1E1,2.7E1,4.1E1,6E0,4E0,2.3E1,4E0,3.8E1,3E0,2E0,4E0,2E0,2E0,5E0,1.8E1,2E0,2E0,9E0,2.9E1,3E0,2E0,8E0,1E1,4E0,5E0,2.4E1,5E0,6E0,2E0,7E0,3E0,2E0,3E0,1.7E1,7E0,3E0,2E0],"tree_param":{"num_deleted":"0","num_feature":"114","num_nodes":"49","size_leaf_vector":"1"}},{"base_weights":[-1.814819E-2,-5.470401E-2,2.5884258E-2,-5.207985E-1,-1.338124E-2,-2.5909232E-2,-6.1396193E-3,1.2245919E-2,-1.3431255E-2,-1.3907521E-2,3.5809502E-2,7.716482E-2,-1.2600401E-1,1.18526496E-1,-3.7659936E-2,3.0735403E-2,-2.2780806E-1,1.47299385E-2,2.5383887E-1,-1.2607639E-1,5.7303635E-3,-6.9285213E-4,3.324881E-3,-4.1873907E-3,-1.0887348E-2,1.0091418E-1,-5.2698705E-2,1.2743514E-2,1.1413027E-1,1.5665745E-2,-8.717596E-3,6.609763E-3,-4.8206934E-5,-4.8329914E-3,1.9840442E-3,1.2192193E-3,6.582248E-3,2.2079272E-3,-1.1880752E-3],"categories":[],"categories_nodes":[],"categories_segments":[],"categories_sizes":[],"default_left":[0,0,0,0,0,0,0,0,0,0,0,0,0,0,0,0,0,0,0,0,0,0,0,0,0,0,0,0,0,0,0,0,0,0,0,0,0,0,0],"id":21,"left_children":[1,3,-1,5,7,-1,-1,9,-1,-1,11,13,15,17,19,21,23,25,27,29,-1,-1,-1,-1,-1,31,33,-1,35,37,-1,-1,-1,-1,-1,-1,-1,-1,-1],"loss_changes":[1.9526209E0,1.4182944E0,0E0,2.06658E-1,5.885844E-1,0E0,0E0,5.7684594E-1,0E0,0E0,4.246178E-1,2.4193087E-1,2.1443897E-1,5.159244E-1,2.4670853E-1,1.7327504E-2,1.9251555E-2,1.3316636E-1,1.2463045E-1,1.4113602E-1,0E0,0E0,0E0,0E0,0E0,6.998085E-2,1.0185225E-1,0E0,2.630546E-2,1.1133905E-2,0E0,0E0,0E0,0E0,0E0,0E0,0E0,0E0,0E0],"parents":[2147483647,0,0,1,1,3,3,4,4,7,7,10,10,11,11,12,12,13,13,14,14,15,15,16,16,17,17,18,18,19,19,25,25,26,26,28,28,29,29],"right_children":[2,4,-1,6,8,-1,-1,10,-1,-1,12,14,16,18,20,22,24,26,28,30,-1,-1,-1,-1,-1,32,34,-1,36,38,-1,-1,-1,-1,-1,-1,-1,-1,-1],"split_conditions":[1.4056875E3,2.7362996E7,2.5884258E-2,8E0,7.822023E7,-2.5909232E-2,-6.1396193E-3,4.26E2,-1.3431255E-2,-1.3907521E-2,2.136E4,9.235021E-1,2.461165E0,9.736449E1,2.23226E-1,3.8972758E8,2.8152779E-2,2.1023767E0,2.7262976E8,1.1003512E9,5.7303635E-3,-6.9285213E-4,3.324881E-3,-4.1873907E-3,-1.0887348E-2,3.0817383E2,1.2555331E6,1.2743514E-2,4.2856897E5,2.39806E5,-8.717596E-3,6.609763E-3,-4.8206934E-5,-4.8329914E-3,1.9840442E-3,1.2192193E-3,6.582248E-3,2.2079272E-3,-1.1880752E-3],"split_indices":[50,3,0,2,43,0,0,1,0,0,7,25,54,50,37,5,36,56,5,3,0,0,0,0,0,53,46,0,31,10,0,0,0,0,0,0,0,0,0],"split_type":[0,0,0,0,0,0,0,0,0,0,0,0,0,0,0,0,0,0,0,0,0,0,0,0,0,0,0,0,0,0,0,0,0,0,0,0,0,0,0],"sum_hessian":[7.6E1,7.3E1,3E0,5E0,6.8E1,3E0,2E0,6.4E1,4E0,3E0,6.1E1,4.9E1,1.2E1,3.6E1,1.3E1,5E0,7E0,2.1E1,1.5E1,9E0,4E0,3E0,2E0,3E0,4E0,9E0,1.2E1,9E0,6E0,4E0,5E0,5E0,4E0,7E0,5E0,3E0,3E0,2E0,2E0],"tree_param":{"num_deleted":"0","num_feature":"114","num_nodes":"39","size_leaf_vector":"1"}},{"base_weights":[4.2193763E-2,-4.1041677E-3,5.7530403E-1,-6.843903E-2,1.1443615E-1,3.478136E-2,7.6214406E-3,3.3905447E-2,-1.4171498E-1,5.743852E-2,1.2926629E-2,-1.4276911E-1,1.1982091E-1,-1.5181716E-2,-9.465065E-2,2.4700128E-1,-3.485333E-2,-1.0429431E-3,-7.181513E-3,1.921828E-1,-8.185782E-3,8.530025E-2,-1.3490584E-1,1.3473317E-2,3.4106541E-3,4.5446362E-3,-8.234958E-2,8.54777E-2,1.1118233E-2,5.234733E-3,3.183793E-4,-1.8410474E-1,1.0575722E-2,-6.070479E-3,-2.6391648E-2,1.1959508E-3,4.6469467E-3,-2.77004E-2,-9.314391E-3,1.6954629E-3,-1.434432E-3,-2.5056002E-3,1.0702602E-3,-3.4105177E-3,1.6072004E-3],"categories":[],"categories_nodes":[],"categories_segments":[],"categories_sizes":[],"default_left":[0,0,0,0,0,0,0,0,0,0,0,0,0,0,0,0,0,0,0,0,0,0,0,0,0,0,0,0,0,0,0,0,0,0,0,0,0,0,0,0,0,0,0,0,0],"id":22,"left_children":[1,3,5,7,9,-1,-1,11,13,15,-1,17,19,-1,21,23,25,-1,-1,27,-1,29,31,-1,-1,-1,33,35,-1,-1,-1,37,39,-1,41,-1,-1,43,-1,-1,-1,-1,-1,-1,-1],"loss_changes":[1.8535038E0,5.4167116E-1,5.451373E-1,3.4977674E-1,2.8949502E-1,0E0,0E0,3.2068825E-1,2.7702957E-1,3.7600583E-1,0E0,2.8473392E-2,3.7396696E-1,0E0,1.853625E-1,7.935026E-2,1.17304265E-1,0E0,0E0,9.405941E-2,0E0,1.7699637E-2,1.4509776E-1,0E0,0E0,0E0,4.4959724E-2,9.218346E-3,0E0,0E0,0E0,1.2091744E-1,1.0911106E-2,0E0,1.800491E-2,0E0,0E0,2.4113642E-2,0E0,0E0,0E0,0E0,0E0,0E0,0E0],"parents":[2147483647,0,0,1,1,2,2,3,3,4,4,7,7,8,8,9,9,11,11,12,12,14,14,15,15,16,16,19,19,21,21,22,22,26,26,27,27,31,31,32,32,34,34,37,37],"right_children":[2,4,6,8,10,-1,-1,12,14,16,-1,18,20,-1,22,24,26,-1,-1,28,-1,30,32,-1,-1,-1,34,36,-1,-1,-1,38,40,-1,42,-1,-1,44,-1,-1,-1,-1,-1,-1,-1],"split_conditions":[9.043662E2,2.1785064E0,1.1E1,2.1289685E8,5.5E1,3.478136E-2,7.6214406E-3,2.0545537E3,6.5E1,4.17031E5,1.2926629E-2,3.7E1,1.8738E4,-1.5181716E-2,1.2019E4,5.549974E8,8.655775E-2,-1.0429431E-3,-7.181513E-3,9.43E2,-8.185782E-3,1.4287E4,1.3728195E0,1.3473317E-2,3.4106541E-3,4.5446362E-3,8.048164E-3,7.14359E1,1.1118233E-2,5.234733E-3,3.183793E-4,1.4798995E0,4.1446656E-1,-6.070479E-3,1.308E3,1.1959508E-3,4.6469467E-3,4.091156E8,-9.314391E-3,1.6954629E-3,-1.434432E-3,-2.5056002E-3,1.0702602E-3,-3.4105177E-3,1.6072004E-3],"split_indices":[50,52,2,5,6,0,0,45,8,10,0,8,7,0,7,3,25,0,0,1,0,8,39,0,0,0,36,50,0,0,0,52,36,0,1,0,0,5,0,0,0,0,0,0,0],"split_type":[0,0,0,0,0,0,0,0,0,0,0,0,0,0,0,0,0,0,0,0,0,0,0,0,0,0,0,0,0,0,0,0,0,0,0,0,0,0,0,0,0,0,0,0,0],"sum_hessian":[7.4E1,6.9E1,5E0,4.5E1,2.4E1,2E0,3E0,1.9E1,2.6E1,2E1,4E0,6E0,1.3E1,3E0,2.3E1,6E0,1.4E1,2E0,4E0,1.1E1,2E0,4E0,1.9E1,3E0,3E0,3E0,1.1E1,6E0,5E0,2E0,2E0,1.4E1,5E0,4E0,7E0,3E0,3E0,4E0,1E1,3E0,2E0,4E0,3E0,2E0,2E0],"tree_param":{"num_deleted":"0","num_feature":"114","num_nodes":"45","size_leaf_vector":"1"}},{"base_weights":[-8.744376E-3,-6.014288E-2,2.832425E-1,-2.6155021E-2,-1.8872408E-2,4.706625E-2,1.54463565E-2,2.9824597E-3,-1.0305847E-2,-8.188304E-5,3.145932E-3,-4.3410107E-2,2.0515163E-1,-1.7840758E-2,-1.644459E-2,1.0554241E-2,9.281414E-4,-5.663979E-2,1.4795968E-1,-8.621283E-2,1.5578483E-1,-6.6049094E-4,2.3321249E-1,-1.1491462E-2,-1.5199341E-1,8.592877E-3,1.548836E-3,2.8930064E-3,1.1494326E-2,4.1102106E-3,-3.309284E-3,-9.807813E-3,-1.8594471E-3],"categories":[],"categories_nodes":[],"categories_segments":[],"categories_sizes":[],"default_left":[0,0,0,0,0,0,0,0,0,0,0,0,0,0,0,0,0,0,0,0,0,0,0,0,0,0,0,0,0,0,0,0,0],"id":23,"left_children":[1,3,5,7,-1,9,-1,11,-1,-1,-1,13,15,17,-1,-1,-1,19,21,23,25,-1,27,29,31,-1,-1,-1,-1,-1,-1,-1,-1],"loss_changes":[1.2026423E0,9.650265E-1,2.9938918E-1,4.4402796E-1,0E0,8.39713E-3,0E0,5.528962E-1,0E0,0E0,0E0,4.559202E-1,1.2337518E-1,3.0429363E-1,0E0,0E0,0E0,2.521482E-1,1.304435E-1,1.653707E-1,2.8557971E-2,0E0,3.6507994E-2,1.542201E-1,1.7425561E-1,0E0,0E0,0E0,0E0,0E0,0E0,0E0,0E0],"parents":[2147483647,0,0,1,1,2,2,3,3,5,5,7,7,11,11,12,12,13,13,17,17,18,18,19,19,20,20,22,22,23,23,24,24],"right_children":[2,4,6,8,-1,10,-1,12,-1,-1,-1,14,16,18,-1,-1,-1,20,22,24,26,-1,28,30,32,-1,-1,-1,-1,-1,-1,-1,-1],"split_conditions":[2.702E3,2.7349632E6,1.4774E4,6.6774924E7,-1.8872408E-2,1.203E3,1.54463565E-2,4.2084744E2,-1.0305847E-2,-8.188304E-5,3.145932E-3,1.844279E0,1.462926E1,2.9E1,-1.644459E-2,1.0554241E-2,9.281414E-4,4.657871E6,4.1061E4,3.98E2,2.579497E8,-6.6049094E-4,3.908917E8,3.5714287E-2,2.4839931E8,8.592877E-3,1.548836E-3,2.8930064E-3,1.1494326E-2,4.1102106E-3,-3.309284E-3,-9.807813E-3,-1.8594471E-3],"split_indices":[1,26,7,43,0,0,0,53,0,0,0,37,56,6,0,0,0,49,27,0,5,0,3,55,5,0,0,0,0,0,0,0,0],"split_type":[0,0,0,0,0,0,0,0,0,0,0,0,0,0,0,0,0,0,0,0,0,0,0,0,0,0,0,0,0,0,0,0,0],"sum_hessian":[7.8E1,6.7E1,1.1E1,6.3E1,4E0,4E0,7E0,5.7E1,6E0,2E0,2E0,4.7E1,1E1,4.5E1,2E0,7E0,3E0,3.7E1,8E0,3.3E1,4E0,3E0,5E0,1.6E1,1.7E1,2E0,2E0,2E0,3E0,6E0,1E1,8E0,9E0],"tree_param":{"num_deleted":"0","num_feature":"114","num_nodes":"33","size_leaf_vector":"1"}},{"base_weights":[1.1713996E-2,-2.3869192E-2,2.8488554E-2,-4.8991308E-1,1.3237816E-2,-2.344398E-2,-7.013823E-3,6.526364E-2,-1.4627457E-1,1.2093832E-1,-1.1835242E-1,-5.34151E-3,-2.4828574E-1,-1.305741E-1,1.4866085E-1,3.6100897E-3,-1.6118361E-1,-4.934211E-3,2.9765111E-3,-9.4318966E-4,-1.1538905E-2,7.87237E-6,-8.508347E-3,1.978654E-1,3.963315E-2,-8.975602E-3,-2.1202764E-3,4.4608854E-2,2.8052965E-1,-7.2628625E-2,1.3290806E-1,-1.4794748E-3,3.1355957E-3,1.3052276E-3,3.2772475E-1,1.1978939E-3,-4.6904073E-3,6.7135273E-3,4.1681263E-4,1.4276252E-2,2.1416422E-3],"categories":[],"categories_nodes":[],"categories_segments":[],"categories_sizes":[],"default_left":[0,0,0,0,0,0,0,0,0,0,0,0,0,0,0,0,0,0,0,0,0,0,0,0,0,0,0,0,0,0,0,0,0,0,0,0,0,0,0,0,0],"id":24,"left_children":[1,3,-1,5,7,-1,-1,9,11,13,15,17,19,21,23,-1,25,-1,-1,-1,-1,-1,-1,27,29,-1,-1,31,33,35,37,-1,-1,-1,39,-1,-1,-1,-1,-1,-1],"loss_changes":[2.162399E0,1.4072585E0,0E0,9.758651E-2,6.402523E-1,0E0,0E0,6.072339E-1,2.7183193E-1,3.331765E-1,1.412858E-1,9.841367E-2,1.09056294E-1,5.70954E-2,2.1210897E-1,0E0,7.553306E-2,0E0,0E0,0E0,0E0,0E0,0E0,3.4221327E-1,1.5624984E-1,0E0,0E0,3.5402246E-2,1.9897532E-1,3.7993953E-2,3.6271825E-2,0E0,0E0,0E0,1.3455486E-1,0E0,0E0,0E0,0E0,0E0,0E0],"parents":[2147483647,0,0,1,1,3,3,4,4,7,7,8,8,9,9,10,10,11,11,12,12,13,13,14,14,16,16,23,23,24,24,27,27,28,28,29,29,30,30,34,34],"right_children":[2,4,-1,6,8,-1,-1,10,12,14,16,18,20,22,24,-1,26,-1,-1,-1,-1,-1,-1,28,30,-1,-1,32,34,36,38,-1,-1,-1,40,-1,-1,-1,-1,-1,-1],"split_conditions":[5.6771225E-1,4.32E2,2.8488554E-2,1E2,9.235021E-1,-2.344398E-2,-7.013823E-3,5.099062E5,1.6706392E7,1.2886506E0,2.9166096E-1,5.504912E8,1.0226E4,1.058E3,9.022724E10,3.6100897E-3,1.4837399E0,-4.934211E-3,2.9765111E-3,-9.4318966E-4,-1.1538905E-2,7.87237E-6,-8.508347E-3,8.67E2,2.297E3,-8.975602E-3,-2.1202764E-3,6.97E2,2.3733622E6,1.5240682E9,4E0,-1.4794748E-3,3.1355957E-3,1.3052276E-3,8.389881E0,1.1978939E-3,-4.6904073E-3,6.7135273E-3,4.1681263E-4,1.4276252E-2,2.1416422E-3],"split_indices":[36,1,0,0,25,0,0,31,43,51,25,3,7,1,29,0,51,0,0,0,0,0,0,1,1,0,0,1,43,3,6,0,0,0,55,0,0,0,0,0,0],"split_type":[0,0,0,0,0,0,0,0,0,0,0,0,0,0,0,0,0,0,0,0,0,0,0,0,0,0,0,0,0,0,0,0,0,0,0,0,0,0,0,0,0],"sum_hessian":[8.3E1,8E1,3E0,5E0,7.5E1,3E0,2E0,5.7E1,1.8E1,4.4E1,1.3E1,8E0,1E1,4E0,4E1,2E0,1.1E1,3E0,5E0,2E0,8E0,2E0,2E0,2.7E1,1.3E1,6E0,5E0,1E1,1.7E1,6E0,7E0,3E0,7E0,3E0,1.4E1,2E0,4E0,5E0,2E0,1.2E1,2E0],"tree_param":{"num_deleted":"0","num_feature":"114","num_nodes":"41","size_leaf_vector":"1"}},{"base_weights":[-4.2145137E-2,2.9357038E-2,-7.03262E-2,-4.0681028E-1,-2.9010428E-2,-2.305813E-2,-1.1657514E-3,-3.879995E-3,-3.800605E-1,-2.776555E-1,1.6608924E-2,-1.8340707E-2,-6.4015235E-3,-2.654047E-3,-1.542154E-2,-7.555146E-3,1.7317238E-1,1.2789173E-1,-3.78074E-2,1.1833186E-2,5.779499E-2,1.7621967E-1,-2.3327947E-3,-9.116955E-2,5.9159048E-2,4.1082213E-3,3.0508245E-4,3.510535E-3,8.879264E-3,-1.17545895E-1,4.798632E-3,1.416175E-1,-6.1616205E-2,-7.5608455E-3,-2.3566873E-3,1.1183728E-2,2.0141474E-3,-5.1232195E-3,1.5905094E-3],"categories":[],"categories_nodes":[],"categories_segments":[],"categories_sizes":[],"default_left":[0,0,0,0,0,0,0,0,0,0,0,0,0,0,0,0,0,0,0,0,0,0,0,0,0,0,0,0,0,0,0,0,0,0,0,0,0,0,0],"id":25,"left_children":[1,-1,3,5,7,-1,-1,9,11,13,15,-1,-1,-1,-1,17,19,21,23,-1,25,27,-1,29,31,-1,-1,-1,-1,33,-1,35,37,-1,-1,-1,-1,-1,-1],"loss_changes":[1.9541359E0,0E0,1.1420726E0,6.049701E-1,6.601783E-1,0E0,0E0,4.0287644E-1,1.976955E-2,9.601712E-2,2.547834E-1,0E0,0E0,0E0,0E0,2.4659209E-1,1.17247134E-1,1.1026147E-1,2.5893605E-1,0E0,1.3388393E-2,1.928091E-2,0E0,1.9508362E-1,1.8798685E-1,0E0,0E0,0E0,0E0,1.1445171E-1,0E0,1.2857372E-1,6.2276125E-2,0E0,0E0,0E0,0E0,0E0,0E0],"parents":[2147483647,0,0,2,2,3,3,4,4,7,7,8,8,9,9,10,10,15,15,16,16,17,17,18,18,20,20,21,21,23,23,24,24,29,29,31,31,32,32],"right_children":[2,-1,4,6,8,-1,-1,10,12,14,16,-1,-1,-1,-1,18,20,22,24,-1,26,28,-1,30,32,-1,-1,-1,-1,34,-1,36,38,-1,-1,-1,-1,-1,-1],"split_conditions":[1.9411758E-2,2.9357038E-2,7.73E3,8E0,7.960309E7,-2.305813E-2,-1.1657514E-3,3.2258064E-2,9.950163E7,3.7E1,3.625E3,-1.8340707E-2,-6.4015235E-3,-2.654047E-3,-1.542154E-2,1.8242699E8,1.1E1,1.9743589E0,1.3E1,1.1833186E-2,1.097E4,8.04E2,-2.3327947E-3,1.0264802E3,1E0,4.1082213E-3,3.0508245E-4,3.510535E-3,8.879264E-3,2.2903395E8,4.798632E-3,5.5064187E0,1.1817E4,-7.5608455E-3,-2.3566873E-3,1.1183728E-2,2.0141474E-3,-5.1232195E-3,1.5905094E-3],"split_indices":[25,0,27,2,43,0,0,56,10,8,1,0,0,0,0,5,2,51,6,0,7,1,0,53,107,0,0,0,0,5,0,55,8,0,0,0,0,0,0],"split_type":[0,0,0,0,0,0,0,0,0,0,0,0,0,0,0,0,0,0,0,0,0,0,0,0,0,0,0,0,0,0,0,0,0,0,0,0,0,0,0],"sum_hessian":[8.4E1,2E0,8.2E1,8E0,7.4E1,5E0,3E0,7E1,4E0,4E0,6.6E1,2E0,2E0,2E0,2E0,5.8E1,8E0,1E1,4.8E1,3E0,5E0,8E0,2E0,3.1E1,1.7E1,2E0,3E0,4E0,4E0,2.8E1,3E0,1E1,7E0,1.1E1,1.7E1,3E0,7E0,4E0,3E0],"tree_param":{"num_deleted":"0","num_feature":"114","num_nodes":"39","size_leaf_vector":"1"}},{"base_weights":[4.5105047E-3,-2.2613216E-2,3.1195097E-2,-4.7881007E-1,1.0637318E-2,-2.4028227E-2,-5.3674504E-3,-2.9659143E-1,3.4133922E-2,-3.4239313E-3,-1.8604755E-2,1.3272877E-1,-1.2143948E-2,2.1384869E-2,2.5156924E-1,-9.190766E-2,3.3782285E-2,1.3632052E-1,-8.1856936E-2,3.676964E-3,1.2441514E-2,-1.2897703E-2,-1.6962785E-1,-1.16341054E-1,9.022272E-2,6.383104E-3,1.7858932E-3,-7.1994634E-3,-1.6984642E-2,-4.021812E-3,5.3277723E-2,3.3960925E-4,-8.409531E-3,-1.6843376E-1,1.5258692E-4,2.4667497E-1,1.9599516E-2,-1.877304E-3,4.128361E-4,-2.3830215E-4,3.0564547E-3,-7.677093E-3,-2.5560786E-3,1.4212905E-2,4.0460564E-3,-1.2602703E-1,6.683507E-2,-6.2378948E-3,-1.966562E-3,4.130045E-3,-2.6003532E-3],"categories":[],"categories_nodes":[],"categories_segments":[],"categories_sizes":[],"default_left":[0,0,0,0,0,0,0,0,0,0,0,0,0,0,0,0,0,0,0,0,0,0,0,0,0,0,0,0,0,0,0,0,0,0,0,0,0,0,0,0,0,0,0,0,0,0,0,0,0,0,0],"id":26,"left_children":[1,3,-1,5,7,-1,-1,9,11,-1,-1,13,15,17,19,21,23,25,27,-1,-1,29,31,33,35,-1,-1,-1,37,-1,39,-1,-1,41,-1,43,45,-1,-1,-1,-1,-1,-1,-1,-1,47,49,-1,-1,-1,-1],"loss_changes":[1.9566276E0,1.3399467E0,0E0,1.9475436E-1,6.0928696E-1,0E0,0E0,1.8354017E-1,3.575071E-1,0E0,0E0,3.2542434E-1,2.0092018E-1,1.7728509E-1,9.649885E-2,1.2062557E-1,3.0705252E-1,9.712219E-3,5.004343E-2,0E0,0E0,7.104743E-2,8.330697E-2,6.329812E-2,2.824434E-1,0E0,0E0,0E0,5.6456802E-3,0E0,1.0856835E-2,0E0,0E0,7.4047E-3,0E0,9.646407E-2,1.3911928E-1,0E0,0E0,0E0,0E0,0E0,0E0,0E0,0E0,4.7010556E-3,8.488156E-2,0E0,0E0,0E0,0E0],"parents":[2147483647,0,0,1,1,3,3,4,4,7,7,8,8,11,11,12,12,13,13,14,14,15,15,16,16,17,17,18,18,21,21,22,22,23,23,24,24,28,28,30,30,33,33,35,35,36,36,45,45,46,46],"right_children":[2,4,-1,6,8,-1,-1,10,12,-1,-1,14,16,18,20,22,24,26,28,-1,-1,30,32,34,36,-1,-1,-1,38,-1,40,-1,-1,42,-1,44,46,-1,-1,-1,-1,-1,-1,-1,-1,48,50,-1,-1,-1,-1],"split_conditions":[5.9427342E0,2.7362996E7,3.1195097E-2,8E0,1.2904155E3,-2.4028227E-2,-5.3674504E-3,1.112E3,2.478512E5,-3.4239313E-3,-1.8604755E-2,1.222E3,5.8838483E-2,8.2363125E4,1.4774E4,1.6706392E7,3.4948154E8,1.9413766E8,8E0,3.676964E-3,1.2441514E-2,1.7090464E8,4.90852E5,5.618732E5,8.24E2,6.383104E-3,1.7858932E-3,-7.1994634E-3,3.5853723E-1,-4.021812E-3,1.7392546E8,3.3960925E-4,-8.409531E-3,5.01E2,1.5258692E-4,1.081E3,2.23226E-1,-1.877304E-3,4.128361E-4,-2.3830215E-4,3.0564547E-3,-7.677093E-3,-2.5560786E-3,1.4212905E-2,4.0460564E-3,2.0545134E-1,2.1159E4,-6.2378948E-3,-1.966562E-3,4.130045E-3,-2.6003532E-3],"split_indices":[37,3,0,2,46,0,0,1,26,0,0,1,37,45,7,43,3,5,2,0,0,5,10,31,0,0,0,0,25,0,5,0,0,0,0,1,37,0,0,0,0,0,0,0,0,37,7,0,0,0,0],"split_type":[0,0,0,0,0,0,0,0,0,0,0,0,0,0,0,0,0,0,0,0,0,0,0,0,0,0,0,0,0,0,0,0,0,0,0,0,0,0,0,0,0,0,0,0,0,0,0,0,0,0,0],"sum_hessian":[8.9E1,8.7E1,2E0,5E0,8.2E1,3E0,2E0,5E0,7.7E1,3E0,2E0,2.4E1,5.3E1,1.3E1,1.1E1,1.9E1,3.4E1,6E0,7E0,4E0,7E0,1E1,9E0,9E0,2.5E1,4E0,2E0,2E0,5E0,4E0,6E0,2E0,7E0,6E0,3E0,7E0,1.8E1,2E0,3E0,2E0,4E0,4E0,2E0,3E0,4E0,4E0,1.4E1,2E0,2E0,1.1E1,3E0],"tree_param":{"num_deleted":"0","num_feature":"114","num_nodes":"51","size_leaf_vector":"1"}},{"base_weights":[-8.887066E-3,-5.7456814E-2,5.266497E-1,-4.078E-1,-1.0927168E-2,2.9172596E-2,6.8269717E-3,-1.9960968E-2,-1.2109743E-3,4.6589393E-2,-2.0436262E-1,-1.0588517E-2,1.9595787E-1,-3.4371635E-1,2.390882E-2,2.3497181E-2,-2.0765701E-1,2.3789448E-1,8.2646316E-4,-1.8992702E-2,-6.5489486E-3,4.899087E-3,-3.26478E-3,-2.955921E-3,8.954521E-3,-1.0847897E-2,-1.7584944E-3,1.0700288E-2,1.5014458E-3,5.7837195E-3,-2.3685284E-2,-7.351245E-2,4.3295264E-2,-4.005317E-3,1.8150309E-3,-2.1339562E-3,3.0520556E-3],"categories":[],"categories_nodes":[],"categories_segments":[],"categories_sizes":[],"default_left":[0,0,0,0,0,0,0,0,0,0,0,0,0,0,0,0,0,0,0,0,0,0,0,0,0,0,0,0,0,0,0,0,0,0,0,0,0],"id":27,"left_children":[1,3,5,7,9,-1,-1,-1,-1,11,13,15,17,19,21,23,25,27,-1,-1,-1,-1,-1,29,-1,-1,-1,-1,-1,-1,31,33,35,-1,-1,-1,-1],"loss_changes":[2.1891632E0,1.2507474E0,4.1185606E-1,3.3421946E-1,7.7719736E-1,0E0,0E0,0E0,0E0,4.6326607E-1,5.1718545E-1,2.7356803E-1,1.04923844E-1,1.6939306E-1,8.6866744E-2,1.9117354E-1,5.5866838E-2,7.574767E-2,0E0,0E0,0E0,0E0,0E0,1.03689216E-1,0E0,0E0,0E0,0E0,0E0,0E0,9.996882E-2,6.397398E-2,4.862387E-2,0E0,0E0,0E0,0E0],"parents":[2147483647,0,0,1,1,2,2,3,3,4,4,9,9,10,10,11,11,12,12,13,13,14,14,15,15,16,16,17,17,23,23,30,30,31,31,32,32],"right_children":[2,4,6,8,10,-1,-1,-1,-1,12,14,16,18,20,22,24,26,28,-1,-1,-1,-1,-1,30,-1,-1,-1,-1,-1,-1,32,34,36,-1,-1,-1,-1],"split_conditions":[9.232931E2,9.775465E1,1.3927366E9,3.28E2,3.1821228E7,2.9172596E-2,6.8269717E-3,-1.9960968E-2,-1.2109743E-3,1.1392014E2,3.494881E2,5.001725E5,1.6443022E0,1.6868687E0,1.9185424E0,6.5107527E0,8E0,2.844235E1,8.2646316E-4,-1.8992702E-2,-6.5489486E-3,4.899087E-3,-3.26478E-3,2.32E2,8.954521E-3,-1.0847897E-2,-1.7584944E-3,1.0700288E-2,1.5014458E-3,5.7837195E-3,7.067839E1,7.43E2,1.573075E5,-4.005317E-3,1.8150309E-3,-2.1339562E-3,3.0520556E-3],"split_indices":[50,53,3,8,43,0,0,0,0,50,50,45,39,51,52,52,2,56,0,0,0,0,0,9,0,0,0,0,0,0,50,0,31,0,0,0,0],"split_type":[0,0,0,0,0,0,0,0,0,0,0,0,0,0,0,0,0,0,0,0,0,0,0,0,0,0,0,0,0,0,0,0,0,0,0,0,0],"sum_hessian":[8.2E1,7.6E1,6E0,8E0,6.8E1,3E0,3E0,6E0,2E0,5.3E1,1.5E1,3.9E1,1.4E1,9E0,6E0,3.4E1,5E0,1.1E1,3E0,4E0,5E0,3E0,3E0,3.1E1,3E0,3E0,2E0,9E0,2E0,3E0,2.8E1,1.6E1,1.2E1,1.3E1,3E0,3E0,9E0],"tree_param":{"num_deleted":"0","num_feature":"114","num_nodes":"37","size_leaf_vector":"1"}},{"base_weights":[3.091248E-2,1.5503168E-3,2.6137382E-2,-2.0599662E-1,5.7862338E-2,-1.2976205E-1,-2.2238173E-2,9.7954415E-2,-5.490873E-2,-1.3169282E-2,-4.0015306E-2,2.4574928E-2,1.9690031E-1,-7.6734903E-3,6.589078E-2,-5.9276926E-3,8.682841E-3,7.692822E-2,-2.0638518E-1,2.9311812E-1,9.229228E-2,5.670954E-3,-2.438423E-2,-3.920245E-2,2.5158306E-3,-1.0770898E-2,1.5286826E-1,-1.0376857E-2,-2.2871918E-3,1.3189255E-1,1.4311958E-2,1.366064E-3,8.566575E-3,-4.107291E-3,1.6517792E-3,-2.3761562E-3,1.05676314E-4,7.575427E-2,-6.420057E-3,1.0309621E-1,1.1757212E-2,6.5219873E-3,2.0643193E-3,-1.2510245E-3,1.6704989E-3,4.0813354E-3,-6.461249E-4,7.4200165E-3,6.672675E-2,3.4157594E-4,4.059316E-3],"categories":[],"categories_nodes":[],"categories_segments":[],"categories_sizes":[],"default_left":[0,0,0,0,0,0,0,0,0,0,0,0,0,0,0,0,0,0,0,0,0,0,0,0,0,0,0,0,0,0,0,0,0,0,0,0,0,0,0,0,0,0,0,0,0,0,0,0,0,0,0],"id":28,"left_children":[1,3,-1,5,7,9,-1,11,13,-1,15,17,19,-1,21,-1,23,25,27,29,31,-1,33,35,-1,37,39,-1,-1,41,-1,43,-1,-1,-1,-1,-1,45,-1,47,-1,-1,-1,-1,-1,-1,-1,-1,49,-1,-1],"loss_changes":[1.7043107E0,1.0404096E0,0E0,4.5239115E-1,3.2186437E-1,3.0292132E-1,0E0,3.7271234E-1,3.3781224E-1,0E0,7.2058566E-2,3.9071408E-1,1.9438094E-1,0E0,8.228037E-2,0E0,2.920943E-2,1.7480321E-1,3.702098E-2,8.164722E-2,1.3829759E-1,0E0,3.6756385E-2,5.603469E-3,0E0,1.8521461E-1,7.218775E-2,0E0,0E0,5.039461E-3,0E0,1.243007E-2,0E0,0E0,0E0,0E0,0E0,2.5596146E-2,0E0,2.5235713E-2,0E0,0E0,0E0,0E0,0E0,0E0,0E0,0E0,2.0658847E-2,0E0,0E0],"parents":[2147483647,0,0,1,1,3,3,4,4,5,5,7,7,8,8,10,10,11,11,12,12,14,14,16,16,17,17,18,18,19,19,20,20,22,22,23,23,25,25,26,26,29,29,31,31,37,37,39,39,48,48],"right_children":[2,4,-1,6,8,10,-1,12,14,-1,16,18,20,-1,22,-1,24,26,28,30,32,-1,34,36,-1,38,40,-1,-1,42,-1,44,-1,-1,-1,-1,-1,46,-1,48,-1,-1,-1,-1,-1,-1,-1,-1,50,-1,-1],"split_conditions":[1.4056875E3,1.5195573E2,2.6137382E-2,1.224E3,2.6962412E7,4.32E2,-2.2238173E-2,1.1392014E2,3.1421915E2,-1.3169282E-2,9.3699955E8,3.569503E5,3E0,-7.6734903E-3,7.327557E9,-5.9276926E-3,1E0,1.062E3,2.2507046E8,8.27E2,4.2856897E5,5.670954E-3,2.596E3,2.6538E4,2.5158306E-3,7.4314E4,2.5737E4,-1.0376857E-2,-2.2871918E-3,1.5316E4,1.4311958E-2,1.0261189E7,8.566575E-3,-4.107291E-3,1.6517792E-3,-2.3761562E-3,1.05676314E-4,4.566575E5,-6.420057E-3,7.4E1,1.1757212E-2,6.5219873E-3,2.0643193E-3,-1.2510245E-3,1.6704989E-3,4.0813354E-3,-6.461249E-4,7.4200165E-3,4.9E2,3.4157594E-4,4.059316E-3],"split_indices":[50,53,0,1,43,1,0,50,50,0,29,45,6,0,3,0,13,1,5,1,31,0,1,27,0,27,7,0,0,7,0,49,0,0,0,0,0,31,0,0,0,0,0,0,0,0,0,0,0,0,0],"split_type":[0,0,0,0,0,0,0,0,0,0,0,0,0,0,0,0,0,0,0,0,0,0,0,0,0,0,0,0,0,0,0,0,0,0,0,0,0,0,0,0,0,0,0,0,0,0,0,0,0,0,0],"sum_hessian":[9E1,8.7E1,3E0,1.8E1,6.9E1,1.6E1,2E0,5.1E1,1.8E1,4E0,1.2E1,3E1,2.1E1,8E0,1E1,3E0,9E0,2.5E1,5E0,1E1,1.1E1,5E0,5E0,5E0,4E0,1.2E1,1.3E1,3E0,2E0,4E0,6E0,7E0,4E0,2E0,3E0,3E0,2E0,8E0,4E0,1.1E1,2E0,2E0,2E0,4E0,3E0,6E0,2E0,2E0,9E0,4E0,5E0],"tree_param":{"num_deleted":"0","num_feature":"114","num_nodes":"51","size_leaf_vector":"1"}},{"base_weights":[-2.0260027E-2,-2.2987401E-1,1.8957714E-2,-8.9404956E-2,-2.0451205E-2,5.101227E-2,-3.314596E-1,-5.529448E-3,9.460364E-4,8.598167E-2,-9.547929E-2,-1.7112147E-2,-6.586339E-3,1.8187854E-2,1.3735066E-1,3.7235012E-3,-1.6225371E-1,5.750495E-2,-7.5298357E-3,1.9627559E-1,-4.9227327E-2,-2.5164E-3,-8.465841E-3,-3.317323E-2,1.4295541E-1,2.7412605E-1,8.6427264E-2,-6.4855036E-3,5.4066323E-2,4.4642966E-2,-1.3548127E-1,2.2689227E-3,1.0817891E-2,3.2336855E-1,3.2220318E-3,1.2672761E-1,-2.4718586E-3,3.3186842E-3,2.0107524E-4,2.490411E-3,-8.187684E-5,-7.041165E-3,-1.778769E-3,6.579053E-3,1.4284719E-2,1.5533045E-3,7.3567666E-3],"categories":[],"categories_nodes":[],"categories_segments":[],"categories_sizes":[],"default_left":[0,0,0,0,0,0,0,0,0,0,0,0,0,0,0,0,0,0,0,0,0,0,0,0,0,0,0,0,0,0,0,0,0,0,0,0,0,0,0,0,0,0,0,0,0,0,0],"id":29,"left_children":[1,3,5,7,-1,9,11,-1,-1,13,15,-1,-1,17,19,-1,21,23,-1,25,27,-1,-1,29,31,33,35,-1,37,39,41,-1,-1,43,-1,45,-1,-1,-1,-1,-1,-1,-1,-1,-1,-1,-1],"loss_changes":[6.78446E-1,4.8952192E-1,8.031816E-1,6.269105E-2,0E0,3.4118634E-1,3.031528E-2,0E0,0E0,1.8207437E-1,1.810995E-1,0E0,0E0,2.1015106E-1,3.3948493E-1,0E0,3.933823E-2,1.6746062E-1,0E0,1.7299819E-1,1.0550308E-1,0E0,0E0,9.362173E-2,1.0900514E-1,9.6003294E-2,7.4386775E-2,0E0,7.1196677E-3,6.3875364E-3,1.1930004E-2,0E0,0E0,4.0017366E-3,0E0,4.0733457E-2,0E0,0E0,0E0,0E0,0E0,0E0,0E0,0E0,0E0,0E0,0E0],"parents":[2147483647,0,0,1,1,2,2,3,3,5,5,6,6,9,9,10,10,13,13,14,14,16,16,17,17,19,19,20,20,23,23,24,24,25,25,26,26,28,28,29,29,30,30,33,33,35,35],"right_children":[2,4,6,8,-1,10,12,-1,-1,14,16,-1,-1,18,20,-1,22,24,-1,26,28,-1,-1,30,32,34,36,-1,38,40,42,-1,-1,44,-1,46,-1,-1,-1,-1,-1,-1,-1,-1,-1,-1,-1],"split_conditions":[1.0241392E2,1.1989736E6,7.960309E7,1.7810288E5,-2.0451205E-2,5.099062E5,9.950163E7,-5.529448E-3,9.460364E-4,2.9318E2,2.9166096E-1,-1.7112147E-2,-6.586339E-3,2.5104358E0,6.1061732E7,3.7235012E-3,3.318829E-2,3.76355E5,-7.5298357E-3,2.2725725E0,3.625E3,-2.5164E-3,-8.465841E-3,7.113821E-1,3.2875034E5,1.6338769E9,7.725559E-1,-6.4855036E-3,8.24E2,9E0,8E0,2.2689227E-3,1.0817891E-2,2.53E2,3.2220318E-3,1.05578E5,-2.4718586E-3,3.3186842E-3,2.0107524E-4,2.490411E-3,-8.187684E-5,-7.041165E-3,-1.778769E-3,6.579053E-3,1.4284719E-2,1.5533045E-3,7.3567666E-3],"split_indices":[53,30,43,45,0,31,10,0,0,53,25,0,0,54,43,0,36,31,0,54,1,0,0,54,30,10,25,0,0,2,2,0,0,8,0,27,0,0,0,0,0,0,0,0,0,0,0],"split_type":[0,0,0,0,0,0,0,0,0,0,0,0,0,0,0,0,0,0,0,0,0,0,0,0,0,0,0,0,0,0,0,0,0,0,0,0,0,0,0,0,0,0,0,0,0,0,0],"sum_hessian":[8.1E1,1.2E1,6.9E1,9E0,3E0,6.4E1,5E0,6E0,3E0,5.2E1,1.2E1,2E0,3E0,2.3E1,2.9E1,3E0,9E0,2E1,3E0,2.2E1,7E0,4E0,5E0,1E1,1E1,1.2E1,1E1,3E0,4E0,6E0,4E0,7E0,3E0,9E0,3E0,8E0,2E0,2E0,2E0,4E0,2E0,2E0,2E0,3E0,6E0,4E0,4E0],"tree_param":{"num_deleted":"0","num_feature":"114","num_nodes":"47","size_leaf_vector":"1"}},{"base_weights":[2.1092356E-3,-1.820296E-2,3.3289734E-2,7.365944E-2,-9.863986E-2,-2.8939195E-2,1.7038281E-1,-2.723581E-1,6.757054E-2,9.815065E-2,-7.3838264E-2,1.30326385E-2,2.2700867E-1,-6.5351822E-3,-1.666654E-2,1.3121182E-1,-2.370749E-3,5.4736594E-3,-7.238265E-4,-3.8902216E-2,-1.4314377E-1,1.0126053E-1,-3.0389735E-3,3.037979E-1,1.3770112E-1,1.5034586E-3,7.4656312E-3,-7.213389E-2,1.1134665E-3,-6.9600795E-3,-1.4461458E-3,5.2831746E-3,1.3089638E-3,2.0316178E-3,3.5397118E-1,6.046208E-4,1.9687726E-1,-1.1083607E-3,-4.646978E-3,4.9848617E-3,1.5640274E-2,3.4917323E-3,9.510801E-3],"categories":[],"categories_nodes":[],"categories_segments":[],"categories_sizes":[],"default_left":[0,0,0,0,0,0,0,0,0,0,0,0,0,0,0,0,0,0,0,0,0,0,0,0,0,0,0,0,0,0,0,0,0,0,0,0,0,0,0,0,0,0,0],"id":30,"left_children":[1,-1,3,5,7,9,11,13,15,17,19,21,23,-1,-1,25,-1,-1,-1,27,29,31,-1,33,35,-1,-1,37,-1,-1,-1,-1,-1,-1,39,-1,41,-1,-1,-1,-1,-1,-1],"loss_changes":[1.1686378E0,0E0,4.0671268E-1,5.805045E-1,5.3813136E-1,1.7272753E-1,2.6434416E-1,7.45188E-2,8.9593224E-2,4.1785322E-2,4.7699124E-2,8.00054E-2,1.09039545E-1,0E0,0E0,3.1533204E-2,0E0,0E0,0E0,3.78978E-2,1.9434795E-2,6.983351E-3,0E0,1.2055123E-1,8.3744034E-2,0E0,0E0,1.9167822E-2,0E0,0E0,0E0,0E0,0E0,0E0,4.3507457E-2,0E0,1.8314183E-2,0E0,0E0,0E0,0E0,0E0,0E0],"parents":[2147483647,0,0,2,2,3,3,4,4,5,5,6,6,7,7,8,8,9,9,10,10,11,11,12,12,15,15,19,19,20,20,21,21,23,23,24,24,27,27,34,34,36,36],"right_children":[2,-1,4,6,8,10,12,14,16,18,20,22,24,-1,-1,26,-1,-1,-1,28,30,32,-1,34,36,-1,-1,38,-1,-1,-1,-1,-1,-1,40,-1,42,-1,-1,-1,-1,-1,-1],"split_conditions":[4.32E2,-1.820296E-2,2.6962412E7,3.4948154E8,3.494881E2,8.193969E4,1.94278E5,2.4326982E8,5.1261795E-1,2.0833333E0,1.7501E4,2.39806E5,5.0452443E10,-6.5351822E-3,-1.666654E-2,9.65E2,-2.370749E-3,5.4736594E-3,-7.238265E-4,1.2086619E6,1.3E1,2.77E2,-3.0389735E-3,2.2952059E-1,1.79128E5,1.5034586E-3,7.4656312E-3,2.2637264E5,1.1134665E-3,-6.9600795E-3,-1.4461458E-3,5.2831746E-3,1.3089638E-3,2.0316178E-3,4.3161097E5,6.046208E-4,2.7784336E-1,-1.1083607E-3,-4.646978E-3,4.9848617E-3,1.5640274E-2,3.4917323E-3,9.510801E-3],"split_indices":[1,0,43,3,50,45,31,5,40,52,7,10,29,0,0,0,0,0,0,46,6,0,0,25,27,0,0,26,0,0,0,0,0,0,30,0,25,0,0,0,0,0,0],"split_type":[0,0,0,0,0,0,0,0,0,0,0,0,0,0,0,0,0,0,0,0,0,0,0,0,0,0,0,0,0,0,0,0,0,0,0,0,0,0,0,0,0,0,0],"sum_hessian":[7.8E1,4E0,7.4E1,5.7E1,1.7E1,2.8E1,2.9E1,8E0,9E0,7E0,2.1E1,8E0,2.1E1,6E0,2E0,6E0,3E0,5E0,2E0,1.5E1,6E0,4E0,4E0,1E1,1.1E1,3E0,3E0,1E1,5E0,4E0,2E0,2E0,2E0,2E0,8E0,4E0,7E0,6E0,4E0,2E0,6E0,3E0,4E0],"tree_param":{"num_deleted":"0","num_feature":"114","num_nodes":"43","size_leaf_vector":"1"}},{"base_weights":[2.2571936E-2,2.6669541E-2,-4.137181E-3,-1.4786337E-1,4.3844134E-2,-6.984565E-2,-2.1119056E-2,6.8720475E-2,-8.929766E-3,-1.21440776E-1,2.1210372E-2,1.3512567E-2,1.6680239E-1,-5.4832078E-3,-9.433309E-4,3.709064E-3,-2.2592118E-3,4.6686538E-2,-7.611656E-3,7.827155E-2,2.5647315E-1,-5.8569637E-4,1.8266742E-1,-5.665638E-4,1.0050016E-1,1.1596414E-2,2.995577E-3,3.650438E-2,-7.623125E-3,1.8868187E-3,9.906664E-3,4.9652355E-3,1.9119754E-4,5.7920028E-2,-4.34728E-3,6.9913534E-3,5.3523405E-4],"categories":[],"categories_nodes":[],"categories_segments":[],"categories_sizes":[],"default_left":[0,0,0,0,0,0,0,0,0,0,0,0,0,0,0,0,0,0,0,0,0,0,0,0,0,0,0,0,0,0,0,0,0,0,0,0,0],"id":31,"left_children":[1,-1,3,5,7,9,-1,11,-1,13,15,17,19,-1,-1,-1,-1,21,-1,23,25,27,29,-1,31,-1,-1,33,-1,-1,-1,-1,-1,35,-1,-1,-1],"loss_changes":[1.3606015E0,0E0,5.236958E-1,5.445168E-1,4.0204278E-1,8.244261E-2,0E0,2.8473562E-1,0E0,1.6875684E-2,4.6299487E-2,2.5104678E-1,1.3075936E-1,0E0,0E0,0E0,0E0,1.9937871E-1,0E0,2.4142914E-2,4.261774E-2,1.8032883E-1,6.401959E-2,0E0,2.2279881E-2,0E0,0E0,7.291642E-2,0E0,0E0,0E0,0E0,0E0,9.926011E-2,0E0,0E0,0E0],"parents":[2147483647,0,0,2,2,3,3,4,4,5,5,7,7,9,9,10,10,11,11,12,12,17,17,19,19,20,20,21,21,22,22,24,24,27,27,33,33],"right_children":[2,-1,4,6,8,10,-1,12,-1,14,16,18,20,-1,-1,-1,-1,22,-1,24,26,28,30,-1,32,-1,-1,34,-1,-1,-1,-1,-1,36,-1,-1,-1],"split_conditions":[1.9411758E-2,2.6669541E-2,2.7661E4,1.104E3,7.822023E7,7.61E2,-2.1119056E-2,4.4943256E2,-8.929766E-3,2E0,1.397E3,1.875E3,1.4774E4,-5.4832078E-3,-9.433309E-4,3.709064E-3,-2.2592118E-3,2.9E1,-7.611656E-3,2.297E3,2.6757272E5,2.1247E4,1.5485038E5,-5.665638E-4,5.666E3,1.1596414E-2,2.995577E-3,1.8204874E9,-7.623125E-3,1.8868187E-3,9.906664E-3,4.9652355E-3,1.9119754E-4,1.7904483E8,-4.34728E-3,6.9913534E-3,5.3523405E-4],"split_indices":[25,0,27,1,43,1,0,53,0,6,14,1,7,0,0,0,0,6,0,1,26,7,30,0,1,0,0,3,0,0,0,0,0,5,0,0,0],"split_type":[0,0,0,0,0,0,0,0,0,0,0,0,0,0,0,0,0,0,0,0,0,0,0,0,0,0,0,0,0,0,0,0,0,0,0,0,0],"sum_hessian":[7.6E1,2E0,7.4E1,1.8E1,5.6E1,1.6E1,2E0,5.2E1,4E0,1E1,6E0,3.4E1,1.8E1,8E0,2E0,3E0,3E0,3E1,4E0,1E1,8E0,2.3E1,7E0,2E0,8E0,6E0,2E0,2E1,3E0,3E0,4E0,6E0,2E0,1.8E1,2E0,4E0,1.4E1],"tree_param":{"num_deleted":"0","num_feature":"114","num_nodes":"37","size_leaf_vector":"1"}},{"base_weights":[2.6776543E-2,1.8533496E-3,2.8280094E-2,1.8933214E-2,-1.8409483E-2,-2.3602668E-2,1.03328794E-1,1.0646609E-2,-2.0364296E-1,-3.308179E-2,2.2375675E-1,-9.01478E-2,4.674885E-2,-1.0270323E-2,1.0092139E-4,3.846035E-2,-8.653932E-3,1.3184504E-2,1.3311058E-1,-1.1728153E-1,1.538661E-3,8.037937E-2,-1.04060344E-1,-5.9090734E-2,1.0264536E-1,1.9786917E-1,-5.271046E-4,-5.2928305E-3,-9.18767E-4,1.7940617E-1,2.9396161E-2,-6.520116E-3,-5.930132E-4,-4.6304697E-3,7.836174E-4,4.857572E-3,1.2592563E-3,9.237534E-3,2.6381186E-3,8.187849E-3,3.1904841E-3,-3.8721468E-3,8.995497E-3,-1.4310132E-3,2.8600795E-3],"categories":[],"categories_nodes":[],"categories_segments":[],"categories_sizes":[],"default_left":[0,0,0,0,0,0,0,0,0,0,0,0,0,0,0,0,0,0,0,0,0,0,0,0,0,0,0,0,0,0,0,0,0,0,0,0,0,0,0,0,0,0,0,0,0],"id":32,"left_children":[1,3,-1,5,-1,7,9,11,13,15,17,19,21,-1,-1,23,-1,-1,25,27,-1,29,31,33,35,37,-1,-1,-1,39,41,-1,-1,-1,-1,-1,-1,-1,-1,-1,-1,43,-1,-1,-1],"loss_changes":[1.510478E0,6.958527E-1,0E0,3.0039555E-1,0E0,3.474781E-1,4.6737644E-1,1.788817E-1,1.1072585E-1,1.9729108E-1,1.09781146E-1,5.031351E-2,1.9094881E-1,0E0,0E0,7.4939884E-2,0E0,0E0,9.760961E-2,1.560615E-2,0E0,1.4618726E-1,3.657613E-2,2.590845E-2,6.6929385E-3,1.926446E-2,0E0,0E0,0E0,1.2404561E-2,1.4124781E-1,0E0,0E0,0E0,0E0,0E0,0E0,0E0,0E0,0E0,0E0,5.067436E-2,0E0,0E0,0E0],"parents":[2147483647,0,0,1,1,3,3,5,5,6,6,7,7,8,8,9,9,10,10,11,11,12,12,15,15,18,18,19,19,21,21,22,22,23,23,24,24,25,25,29,29,30,30,41,41],"right_children":[2,4,-1,6,-1,8,10,12,14,16,18,20,22,-1,-1,24,-1,-1,26,28,-1,30,32,34,36,38,-1,-1,-1,40,42,-1,-1,-1,-1,-1,-1,-1,-1,-1,-1,44,-1,-1,-1],"split_conditions":[3.8526728E0,5.1141975E6,2.8280094E-2,1.8441667E2,-1.8409483E-2,5.001725E5,1.2133E4,7.61E2,9.85306E-1,7.960309E7,2.6757272E5,5.504912E8,1.4401028E9,-1.0270323E-2,1.0092139E-4,1.8E1,-8.653932E-3,1.3184504E-2,2.1159E4,2E0,1.538661E-3,2.0971744E8,9.3941006E5,5E0,4E0,9.5362694E8,-5.271046E-4,-5.2928305E-3,-9.18767E-4,1.7087E4,1E0,-6.520116E-3,-5.930132E-4,-4.6304697E-3,7.836174E-4,4.857572E-3,1.2592563E-3,9.237534E-3,2.6381186E-3,8.187849E-3,3.1904841E-3,5.58414E8,8.995497E-3,-1.4310132E-3,2.8600795E-3],"split_indices":[37,26,0,50,0,45,7,1,39,43,26,3,3,0,0,2,0,0,7,6,0,5,26,6,6,10,0,0,0,7,13,0,0,0,0,0,0,0,0,0,0,3,0,0,0],"split_type":[0,0,0,0,0,0,0,0,0,0,0,0,0,0,0,0,0,0,0,0,0,0,0,0,0,0,0,0,0,0,0,0,0,0,0,0,0,0,0,0,0,0,0,0,0],"sum_hessian":[8.6E1,8.4E1,2E0,8.2E1,2E0,5.5E1,2.7E1,4.7E1,8E0,1.3E1,1.4E1,1.2E1,3.5E1,6E0,2E0,1E1,3E0,5E0,9E0,1E1,2E0,2.9E1,6E0,4E0,6E0,6E0,3E0,8E0,2E0,9E0,2E1,3E0,3E0,2E0,2E0,4E0,2E0,4E0,2E0,6E0,3E0,1.8E1,2E0,1.3E1,5E0],"tree_param":{"num_deleted":"0","num_feature":"114","num_nodes":"45","size_leaf_vector":"1"}},{"base_weights":[1.2192768E-2,-1.6065054E-2,2.7543671E-2,2.615126E-3,-1.7930094E-2,-3.430563E-2,1.1528326E-1,3.2488376E-2,-1.219349E-1,3.1425565E-2,1.6579036E-1,-9.98793E-2,7.35465E-2,-1.3133561E-2,-6.2262703E-2,3.7553408E-3,-2.239182E-3,9.651256E-3,5.6863982E-2,-5.1489486E-3,-1.0565381E-4,1.1957997E-1,-9.2156164E-2,5.7065054E-3,-1.3080256E-1,2.3566663E-5,3.3140252E-3,1.4845626E-1,-1.2905275E-3,6.396277E-4,-5.879214E-3,-5.322368E-2,4.698428E-2,5.84362E-4,-6.605646E-3,1.8573073E-1,1.9203922E-3,-3.033971E-3,-4.309315E-4,-8.445902E-4,3.076073E-3,1.1243379E-3,8.368372E-3],"categories":[],"categories_nodes":[],"categories_segments":[],"categories_sizes":[],"default_left":[0,0,0,0,0,0,0,0,0,0,0,0,0,0,0,0,0,0,0,0,0,0,0,0,0,0,0,0,0,0,0,0,0,0,0,0,0,0,0,0,0,0,0],"id":33,"left_children":[1,3,-1,5,-1,7,9,11,13,15,17,19,21,-1,23,-1,-1,-1,25,-1,-1,27,29,31,33,-1,-1,35,-1,-1,-1,37,39,-1,-1,41,-1,-1,-1,-1,-1,-1,-1],"loss_changes":[1.4995298E0,6.135317E-1,0E0,3.034599E-1,0E0,3.2588255E-1,7.102732E-2,1.8125835E-1,2.859736E-1,5.146075E-2,8.335623E-2,2.4473965E-2,2.0171677E-1,0E0,9.391842E-2,0E0,0E0,0E0,9.393675E-3,0E0,0E0,9.304637E-2,4.046785E-2,2.9258255E-2,5.8373004E-2,0E0,0E0,5.3786367E-2,0E0,0E0,0E0,4.3009594E-3,1.695901E-2,0E0,0E0,4.752907E-2,0E0,0E0,0E0,0E0,0E0,0E0,0E0],"parents":[2147483647,0,0,1,1,3,3,5,5,6,6,7,7,8,8,9,9,10,10,11,11,12,12,14,14,18,18,21,21,22,22,23,23,24,24,27,27,31,31,32,32,35,35],"right_children":[2,4,-1,6,-1,8,10,12,14,16,18,20,22,-1,24,-1,-1,-1,26,-1,-1,28,30,32,34,-1,-1,36,-1,-1,-1,38,40,-1,-1,42,-1,-1,-1,-1,-1,-1,-1],"split_conditions":[3.8526728E0,5.1141975E6,2.7543671E-2,6.994683E6,-1.7930094E-2,6.45302E5,1.2133E4,6.76E2,7.830895E5,1.1334E4,1.5283889E0,1.35E2,2.1845032E7,-1.3133561E-2,3.2875034E5,3.7553408E-3,-2.239182E-3,9.651256E-3,9.910643E8,-5.1489486E-3,-1.0565381E-4,5.099062E5,2.1888E4,9.315866E-1,1.8019656E8,2.3566663E-5,3.3140252E-3,7E0,-1.2905275E-3,6.396277E-4,-5.879214E-3,1.137E3,5.35E2,5.84362E-4,-6.605646E-3,9.090909E-2,1.9203922E-3,-3.033971E-3,-4.309315E-4,-8.445902E-4,3.076073E-3,1.1243379E-3,8.368372E-3],"split_indices":[37,26,0,48,0,49,7,1,46,7,39,8,43,0,30,0,0,0,3,0,0,31,10,54,5,0,0,6,0,0,0,1,0,0,0,56,0,0,0,0,0,0,0],"split_type":[0,0,0,0,0,0,0,0,0,0,0,0,0,0,0,0,0,0,0,0,0,0,0,0,0,0,0,0,0,0,0,0,0,0,0,0,0,0,0,0,0,0,0],"sum_hessian":[7.5E1,7.3E1,2E0,7.1E1,2E0,5.4E1,1.7E1,3.1E1,2.3E1,7E0,1E1,7E0,2.4E1,4E0,1.9E1,4E0,3E0,5E0,5E0,5E0,2E0,1.9E1,5E0,1E1,9E0,2E0,3E0,1.6E1,3E0,2E0,3E0,4E0,6E0,2E0,7E0,1.1E1,5E0,2E0,2E0,2E0,4E0,2E0,9E0],"tree_param":{"num_deleted":"0","num_feature":"114","num_nodes":"43","size_leaf_vector":"1"}},{"base_weights":[-7.3670666E-3,-3.1496268E-2,2.6826428E-2,-2.7605176E-1,-2.8745276E-3,-8.8479616E-2,-1.9077012E-2,5.8213513E-2,-1.272896E-1,-5.3680046E-3,-1.1580788E-3,1.3029764E-2,1.6188657E-1,-2.684501E-1,3.4520946E-2,-3.776206E-2,1.13611124E-1,2.3239051E-1,3.8039993E-2,-7.551282E-3,-1.5934223E-2,8.380758E-2,-6.159979E-3,1.034362E-3,-1.6725586E-1,6.25187E-2,8.317511E-3,1.0915957E-2,3.590277E-3,2.8715027E-3,-2.712481E-4,4.810672E-3,-6.1904633E-4,3.7091915E-2,-9.52915E-2,-1.5220479E-3,-8.658101E-3,3.2525605E-3,9.809462E-4,7.836297E-2,-4.475367E-2,-1.671081E-3,-5.2161524E-3,5.3068474E-3,1.5553053E-3,3.2383346E-4,-2.8650237E-3],"categories":[],"categories_nodes":[],"categories_segments":[],"categories_sizes":[],"default_left":[0,0,0,0,0,0,0,0,0,0,0,0,0,0,0,0,0,0,0,0,0,0,0,0,0,0,0,0,0,0,0,0,0,0,0,0,0,0,0,0,0,0,0,0,0,0,0],"id":34,"left_children":[1,3,-1,5,7,9,-1,11,13,-1,-1,15,17,19,21,23,25,27,29,-1,-1,31,-1,33,35,37,-1,-1,-1,-1,-1,-1,-1,39,41,-1,-1,-1,-1,43,45,-1,-1,-1,-1,-1,-1],"loss_changes":[1.4955883E0,6.011723E-1,0E0,3.152573E-1,6.002312E-1,1.3203677E-2,0E0,2.4616052E-1,6.0314E-1,0E0,0E0,1.984212E-1,1.3086659E-1,6.784642E-2,1.363801E-1,1.3079432E-1,5.2661285E-2,4.0437937E-2,1.16810175E-2,0E0,0E0,4.509023E-2,0E0,7.647332E-2,3.3238754E-2,5.6708157E-3,0E0,0E0,0E0,0E0,0E0,0E0,0E0,5.7552688E-2,6.3375086E-3,0E0,0E0,0E0,0E0,1.896976E-2,9.708825E-3,0E0,0E0,0E0,0E0,0E0,0E0],"parents":[2147483647,0,0,1,1,3,3,4,4,5,5,7,7,8,8,11,11,12,12,13,13,14,14,15,15,16,16,17,17,18,18,21,21,23,23,24,24,25,25,33,33,34,34,39,39,40,40],"right_children":[2,4,-1,6,8,10,-1,12,14,-1,-1,16,18,20,22,24,26,28,30,-1,-1,32,-1,34,36,38,-1,-1,-1,-1,-1,-1,-1,40,42,-1,-1,-1,-1,44,46,-1,-1,-1,-1,-1,-1],"split_conditions":[5.9427342E0,9.775465E1,2.6826428E-2,1.1989736E6,2.1845032E7,2.7362996E7,-1.9077012E-2,1.1392014E2,3.494881E2,-5.3680046E-3,-1.1580788E-3,1.3E1,3E0,2.317982E6,9.1631997E-1,1.9818569E6,4.066361E5,1.9491526E0,8.6704177E-1,-7.551282E-3,-1.5934223E-2,7.18771E7,-6.159979E-3,2.1343284E0,4.9462875E5,7.5167036E0,8.317511E-3,1.0915957E-2,3.590277E-3,2.8715027E-3,-2.712481E-4,4.810672E-3,-6.1904633E-4,4.884925E5,4.9E2,-1.5220479E-3,-8.658101E-3,3.2525605E-3,9.809462E-4,1.479E3,8E0,-1.671081E-3,-5.2161524E-3,5.3068474E-3,1.5553053E-3,3.2383346E-4,-2.8650237E-3],"split_indices":[37,53,0,30,43,3,0,50,50,0,0,6,6,26,25,46,30,51,25,0,0,43,0,52,31,55,0,0,0,0,0,0,0,31,0,0,0,0,0,14,2,0,0,0,0,0,0],"split_type":[0,0,0,0,0,0,0,0,0,0,0,0,0,0,0,0,0,0,0,0,0,0,0,0,0,0,0,0,0,0,0,0,0,0,0,0,0,0,0,0,0,0,0,0,0,0,0],"sum_hessian":[8.7E1,8.5E1,2E0,8E0,7.7E1,5E0,3E0,5.2E1,2.5E1,2E0,3E0,3.7E1,1.5E1,1.3E1,1.2E1,2.5E1,1.2E1,9E0,6E0,1E1,3E0,1E1,2E0,2E1,5E0,9E0,3E0,6E0,3E0,3E0,3E0,7E0,3E0,1.5E1,5E0,2E0,3E0,5E0,4E0,1E1,5E0,3E0,2E0,3E0,7E0,2E0,3E0],"tree_param":{"num_deleted":"0","num_feature":"114","num_nodes":"47","size_leaf_vector":"1"}},{"base_weights":[-7.6113753E-3,-3.366432E-1,2.9041683E-2,-4.3679255E-1,3.61429E-4,-2.0163964E-1,5.018472E-2,-2.0864611E-2,-8.992698E-3,-3.5175227E-4,-1.0815541E-2,7.823704E-2,