{"learner":{"attributes":{},"feature_names":["numTasks_sum","duration_max","duration_min","input_recordsRead_sum","output_recordsWritten_sum","peakExecutionMemory_max","resultSerializationTime_sum","resultSize_max","sr_localBlocksFetched_sum","sr_remoteBlocksFetched_sum","sw_recordsWritten_sum","sqlOp_ColumnarToRow","sqlOp_Exchange","sqlOp_Scan parquet","sqlOp_Sort","Duration","numExecutors","executorCores","maxMem","maxOnHeapMem","maxOffHeapMem","executorMemory","numGpusPerExecutor","executorOffHeap","taskCpu","taskGpu","cache_hit_ratio","scan_bw","scan_time","decode_time","data_size","shuffle_read_bw","shuffle_write_bw","diskBytesSpilledRatio","memoryBytesSpilledRatio","input_bytesReadRatio","output_bytesWrittenRatio","sr_localBytesReadRatio","sr_remoteBytesReadRatio","sr_remoteBytesReadToDiskRatio","sr_totalBytesReadRatio","sw_bytesWrittenRatio","diskBytesSpilled_mean","memoryBytesSpilled_mean","input_bytesRead_mean","output_bytesWritten_mean","sr_localBytesRead_mean","sr_remoteBytesRead_mean","sr_remoteBytesReadToDisk_mean","sr_totalBytesRead_mean","sw_bytesWritten_mean","executorCPUTime_mean","executorDeserializeCPUTime_mean","executorDeserializeTime_mean","executorRunTime_mean","jvmGCTime_mean","sr_fetchWaitTime_mean","sw_writeTime_mean","platform_databricks-aws","platform_databricks-azure","platform_dataproc","platform_emr","platform_onprem","sqlOp_AQEShuffleRead","sqlOp_BatchEvalPython","sqlOp_BroadcastExchange","sqlOp_BroadcastHashJoin","sqlOp_BroadcastNestedLoopJoin","sqlOp_CartesianProduct","sqlOp_CommandResult","sqlOp_CustomShuffleReader","sqlOp_DeserializeToObject","sqlOp_Execute InsertIntoHadoopFsRelationCommand csv","sqlOp_Execute InsertIntoHadoopFsRelationCommand json","sqlOp_Execute InsertIntoHadoopFsRelationCommand orc","sqlOp_Execute InsertIntoHadoopFsRelationCommand parquet","sqlOp_Execute InsertIntoHadoopFsRelationCommand text","sqlOp_Execute InsertIntoHadoopFsRelationCommand unknown","sqlOp_Expand","sqlOp_Filter","sqlOp_Generate","sqlOp_GenerateBloomFilter","sqlOp_GlobalLimit","sqlOp_HashAggregate","sqlOp_HashAggregatePrefixGroupingSets","sqlOp_LocalLimit","sqlOp_LocalTableScan","sqlOp_MapElements","sqlOp_ObjectHashAggregate","sqlOp_OutputAdapter","sqlOp_PartialWindow","sqlOp_Project","sqlOp_ReusedSort","sqlOp_RunningWindowFunction","sqlOp_Scan ExistingRDD","sqlOp_Scan ExistingRDD Delta Table Checkpoint","sqlOp_Scan ExistingRDD Delta Table State","sqlOp_Scan OneRowRelation","sqlOp_Scan csv","sqlOp_Scan jdbc","sqlOp_Scan json","sqlOp_Scan orc","sqlOp_Scan text","sqlOp_Scan unknown","sqlOp_SerializeFromObject","sqlOp_SortAggregate","sqlOp_SortMergeJoin","sqlOp_Subquery","sqlOp_SubqueryBroadcast","sqlOp_SubqueryOutputBroadcast","sqlOp_TakeOrderedAndProject","sqlOp_Window","sqlOp_WindowGroupLimit","sqlOp_WindowSort"],"feature_types":["int","int","int","int","int","int","int","int","int","int","int","int","int","int","int","float","int","int","int","int","int","int","int","int","int","int","float","float","int","int","int","float","float","float","float","float","float","float","float","float","float","float","float","float","float","float","float","float","float","float","float","float","float","float","float","float","float","float","int","int","int","int","int","int","int","int","int","int","int","int","int","int","int","int","int","int","int","int","int","int","int","int","int","int","int","int","int","int","int","int","int","int","int","int","int","int","int","int","int","int","int","int","int","int","int","int","int","int","int","int","int","int","int","int"],"gradient_booster":{"model":{"gbtree_model_param":{"num_parallel_tree":"1","num_trees":"52"},"iteration_indptr":[0,1,2,3,4,5,6,7,8,9,10,11,12,13,14,15,16,17,18,19,20,21,22,23,24,25,26,27,28,29,30,31,32,33,34,35,36,37,38,39,40,41,42,43,44,45,46,47,48,49,50,51,52],"tree_info":[0,0,0,0,0,0,0,0,0,0,0,0,0,0,0,0,0,0,0,0,0,0,0,0,0,0,0,0,0,0,0,0,0,0,0,0,0,0,0,0,0,0,0,0,0,0,0,0,0,0,0,0],"trees":[{"base_weights":[-1.4547053E-4,-3.5249484E-1,2.6262602E-1,-4.889137E-1,-8.3204694E-2,6.7723334E-2,4.9111348E-1,-3.884008E-2,-3.7546533E-1,4.6521857E-2,-1.2588588E-2,1.6993974E-1,-2.6422713E-2,8.3764213E-1,2.713135E-1,-4.5876563E-1,-5.8629224E-3,-3.8838878E-3,7.039825E-3,7.157347E-2,3.496783E-1,5.4880608E-2,2.274504E-2,2.349383E-2,1.5460372E-1,-2.6185099E-2,-1.5087482E-2,6.8922853E-3,-3.7538207E-3,7.8909155E-3,2.2011122E-2,3.0308955E-3,1.4261471E-2],"categories":[],"categories_nodes":[],"categories_segments":[],"categories_sizes":[],"default_left":[0,0,0,0,0,0,0,0,0,0,0,0,0,0,0,0,0,0,0,0,0,0,0,0,0,0,0,0,0,0,0,0,0],"id":0,"left_children":[1,3,5,7,9,11,13,-1,15,17,-1,19,-1,21,23,25,-1,-1,-1,27,29,-1,-1,-1,31,-1,-1,-1,-1,-1,-1,-1,-1],"loss_changes":[9.536486E0,1.5757155E0,2.5941768E0,6.9928503E-1,3.7193012E-1,2.137015E0,1.8292451E0,0E0,4.3551993E-1,1.3329278E-1,0E0,4.876985E-1,0E0,5.3272295E-1,3.6218107E-1,2.872467E-2,0E0,0E0,0E0,2.1495254E-1,1.1484265E-1,0E0,0E0,0E0,1.4630109E-1,0E0,0E0,0E0,0E0,0E0,0E0,0E0,0E0],"parents":[2147483647,0,0,1,1,2,2,3,3,4,4,5,5,6,6,8,8,9,9,11,11,13,13,14,14,15,15,19,19,20,20,24,24],"right_children":[2,4,6,8,10,12,14,-1,16,18,-1,20,-1,22,24,26,-1,-1,-1,28,30,-1,-1,-1,32,-1,-1,-1,-1,-1,-1,-1,-1],"split_conditions":[3.3857858E2,1.3346633E10,1.01038403E3,2.7362996E7,9.132692E7,8.667E3,9.5362694E8,-3.884008E-2,2.2932306E7,7.105196E7,-1.2588588E-2,7.005162E5,-2.6422713E-2,9.901698E-1,2.75465E9,5.4040104E-1,-5.8629224E-3,-3.8838878E-3,7.039825E-3,7.18231E-1,4.684559E2,5.4880608E-2,2.274504E-2,2.349383E-2,7E0,-2.6185099E-2,-1.5087482E-2,6.8922853E-3,-3.7538207E-3,7.8909155E-3,2.2011122E-2,3.0308955E-3,1.4261471E-2],"split_indices":[51,30,51,3,5,1,10,0,31,5,0,27,0,56,3,26,0,0,0,26,51,0,0,0,6,0,0,0,0,0,0,0,0],"split_type":[0,0,0,0,0,0,0,0,0,0,0,0,0,0,0,0,0,0,0,0,0,0,0,0,0,0,0,0,0,0,0,0,0],"sum_hessian":[1.01E2,4.3E1,5.8E1,2.8E1,1.5E1,3.2E1,2.6E1,6E0,2.2E1,9E0,6E0,2.8E1,4E0,9E0,1.7E1,1.6E1,6E0,4E0,5E0,1.9E1,9E0,4E0,5E0,5E0,1.2E1,9E0,7E0,1.3E1,6E0,4E0,5E0,8E0,4E0],"tree_param":{"num_deleted":"0","num_feature":"114","num_nodes":"33","size_leaf_vector":"1"}},{"base_weights":[-9.465958E-3,-3.3991367E-1,2.385276E-1,-4.2266846E-1,-4.570172E-2,1.1548723E-1,6.3455397E-1,-5.9893066E-1,-2.7663982E-1,3.0205476E-3,-7.130373E-3,1.864091E-1,-2.5385862E-2,4.429585E-2,6.182656E-3,-1.6226344E-2,-3.6343258E-2,-2.3638126E-2,-1.3958403E-1,8.94188E-2,4.0335453E-1,-1.5311779E-3,-1.1943602E-2,7.977902E-3,-2.869722E-3,1.0707771E-2,2.2629587E-2],"categories":[],"categories_nodes":[],"categories_segments":[],"categories_sizes":[],"default_left":[0,0,0,0,0,0,0,0,0,0,0,0,0,0,0,0,0,0,0,0,0,0,0,0,0,0,0],"id":1,"left_children":[1,3,5,7,9,11,13,15,17,-1,-1,19,-1,-1,-1,-1,-1,-1,21,23,25,-1,-1,-1,-1,-1,-1],"loss_changes":[8.603764E0,1.0763187E0,2.850351E0,7.351885E-1,1.2656476E-1,2.2065558E0,1.7976594E0,3.259864E-1,5.235288E-1,0E0,0E0,8.6872125E-1,0E0,0E0,0E0,0E0,0E0,0E0,1.5004456E-1,3.4530115E-1,3.8802385E-2,0E0,0E0,0E0,0E0,0E0,0E0],"parents":[2147483647,0,0,1,1,2,2,3,3,4,4,5,5,6,6,7,7,8,8,11,11,18,18,19,19,20,20],"right_children":[2,4,6,8,10,12,14,16,18,-1,-1,20,-1,-1,-1,-1,-1,-1,22,24,26,-1,-1,-1,-1,-1,-1],"split_conditions":[3.405484E2,1.48473E5,1.6934047E3,1.7701529E2,5.15E2,7.294459E7,3.0904205E2,8.2092184E7,1.1266112E6,3.0205476E-3,-7.130373E-3,7.005162E5,-2.5385862E-2,4.429585E-2,6.182656E-3,-1.6226344E-2,-3.6343258E-2,-2.3638126E-2,6.9903846E0,7.18231E-1,1.3324517E5,-1.5311779E-3,-1.1943602E-2,7.977902E-3,-2.869722E-3,1.0707771E-2,2.2629587E-2],"split_indices":[51,28,51,51,0,44,57,5,31,0,0,27,0,0,0,0,0,0,52,26,31,0,0,0,0,0,0],"split_type":[0,0,0,0,0,0,0,0,0,0,0,0,0,0,0,0,0,0,0,0,0,0,0,0,0,0,0],"sum_hessian":[1.03E2,4.4E1,5.9E1,3.4E1,1E1,4.6E1,1.3E1,1.4E1,2E1,5E0,5E0,4.2E1,4E0,8E0,5E0,6E0,8E0,7E0,1.3E1,3E1,1.2E1,7E0,6E0,2E1,1E1,4E0,8E0],"tree_param":{"num_deleted":"0","num_feature":"114","num_nodes":"27","size_leaf_vector":"1"}},{"base_weights":[2.2618005E-2,-3.3448157E-1,2.7982724E-1,-5.1713085E-1,-1.881424E-1,1.1836835E-1,4.6589062E-1,-2.7795494E-1,-6.658083E-1,-2.5643535E-2,-8.35692E-2,1.3159486E-2,3.371542E-1,4.7817126E-2,3.1286466E-1,-1.6810764E-2,-7.7304635E-3,-3.778933E-2,-1.894403E-2,-1.5014894E-1,7.824434E-3,1.3865319E-1,-1.0369311E-1,9.938E-3,2.0381315E-2,4.2773396E-1,1.2076116E-1,-2.1895615E-3,-1.1722069E-2,9.758998E-3,7.082451E-4,-1.2916729E-3,-1.0899287E-2,2.793044E-2,1.4016585E-2,1.0737972E-2,9.2415005E-4],"categories":[],"categories_nodes":[],"categories_segments":[],"categories_sizes":[],"default_left":[0,0,0,0,0,0,0,0,0,0,0,0,0,0,0,0,0,0,0,0,0,0,0,0,0,0,0,0,0,0,0,0,0,0,0,0,0],"id":2,"left_children":[1,3,5,7,9,11,13,15,17,-1,19,21,23,-1,25,-1,-1,-1,-1,27,-1,29,31,-1,-1,33,35,-1,-1,-1,-1,-1,-1,-1,-1,-1,-1],"loss_changes":[9.6459255E0,1.0787706E0,1.77739E0,4.9057674E-1,8.6618924E-1,7.781824E-1,1.8757234E0,1.6139567E-2,2.4161816E-2,0E0,3.6382633E-1,3.6631975E-1,3.1787276E-2,0E0,4.558823E-1,0E0,0E0,0E0,0E0,1.4866048E-1,0E0,8.701213E-2,1.1333102E-1,0E0,0E0,1.1890769E-1,9.591322E-2,0E0,0E0,0E0,0E0,0E0,0E0,0E0,0E0,0E0,0E0],"parents":[2147483647,0,0,1,1,2,2,3,3,4,4,5,5,6,6,7,7,8,8,10,10,11,11,12,12,14,14,19,19,21,21,22,22,25,25,26,26],"right_children":[2,4,6,8,10,12,14,16,18,-1,20,22,24,-1,26,-1,-1,-1,-1,28,-1,30,32,-1,-1,34,36,-1,-1,-1,-1,-1,-1,-1,-1,-1,-1],"split_conditions":[3.405484E2,1.7701529E2,1.01038403E3,8.2092184E7,1.1266112E6,7.005162E5,9.901698E-1,5.0515676E-1,6.522946E5,-2.5643535E-2,8.874407E6,4.958582E-1,4.684559E2,4.7817126E-2,3.0437586E7,-1.6810764E-2,-7.7304635E-3,-3.778933E-2,-1.894403E-2,6.4788594E0,7.824434E-3,4.31E3,3.747436E7,9.938E-3,2.0381315E-2,1.114E4,8.0756325E-1,-2.1895615E-3,-1.1722069E-2,9.758998E-3,7.082451E-4,-1.2916729E-3,-1.0899287E-2,2.793044E-2,1.4016585E-2,1.0737972E-2,9.2415005E-4],"split_indices":[51,51,51,5,31,27,56,26,47,0,44,26,51,0,49,0,0,0,0,52,0,1,44,0,0,7,26,0,0,0,0,0,0,0,0,0,0],"split_type":[0,0,0,0,0,0,0,0,0,0,0,0,0,0,0,0,0,0,0,0,0,0,0,0,0,0,0,0,0,0,0,0,0,0,0,0,0],"sum_hessian":[1.03E2,4.3E1,6E1,1.8E1,2.5E1,3.3E1,2.7E1,8E0,1E1,5E0,2E1,2.3E1,1E1,5E0,2.2E1,4E0,4E0,6E0,4E0,1.6E1,4E0,1.1E1,1.2E1,5E0,5E0,1.3E1,9E0,8E0,8E0,7E0,4E0,8E0,4E0,5E0,8E0,4E0,5E0],"tree_param":{"num_deleted":"0","num_feature":"114","num_nodes":"37","size_leaf_vector":"1"}},{"base_weights":[3.0607025E-3,-3.341293E-1,2.2780545E-1,-4.492767E-1,-1.3836686E-1,4.9349524E-2,4.3532795E-1,-2.4220331E-1,-5.6355983E-1,-5.776288E-2,-1.2030465E-2,1.6778134E-1,-1.8214196E-2,7.631314E-1,2.7411085E-1,-1.8938625E-2,-5.141541E-3,-7.280874E-1,-1.2165273E-2,-6.715933E-3,1.5214816E-3,7.001991E-2,3.367499E-1,4.946873E-2,1.790975E-2,3.9383504E-1,1.0303073E-1,-1.9876376E-2,-4.2958923E-2,7.70081E-3,-1.175149E-3,2.0143596E-2,8.863635E-3,1.0913865E-2,2.2155939E-2,9.390004E-3,-1.1604505E-3],"categories":[],"categories_nodes":[],"categories_segments":[],"categories_sizes":[],"default_left":[0,0,0,0,0,0,0,0,0,0,0,0,0,0,0,0,0,0,0,0,0,0,0,0,0,0,0,0,0,0,0,0,0,0,0,0,0],"id":3,"left_children":[1,3,5,7,9,11,13,15,17,19,-1,21,-1,23,25,-1,-1,27,-1,-1,-1,29,31,-1,-1,33,35,-1,-1,-1,-1,-1,-1,-1,-1,-1,-1],"loss_changes":[7.9574122E0,8.845792E-1,2.3116348E0,4.787941E-1,1.3230991E-1,1.8060687E0,1.3233953E0,1.7698723E-1,6.500869E-1,8.154811E-2,0E0,4.3894184E-1,0E0,5.1074076E-1,3.895539E-1,0E0,0E0,1.2202597E-1,0E0,0E0,0E0,1.5906239E-1,4.1135192E-2,0E0,0E0,1.8451095E-2,1.165244E-1,0E0,0E0,0E0,0E0,0E0,0E0,0E0,0E0,0E0,0E0],"parents":[2147483647,0,0,1,1,2,2,3,3,4,4,5,5,6,6,7,7,8,8,9,9,11,11,13,13,14,14,17,17,21,21,22,22,25,25,26,26],"right_children":[2,4,6,8,10,12,14,16,18,20,-1,22,-1,24,26,-1,-1,28,-1,-1,-1,30,32,-1,-1,34,36,-1,-1,-1,-1,-1,-1,-1,-1,-1,-1],"split_conditions":[3.405484E2,9.47E2,1.01038403E3,8.2092184E7,2.6263257E2,3.747436E7,1.2429E4,1.81E2,4.8067798E2,4.981752E2,-1.2030465E-2,7.005162E5,-1.8214196E-2,9.901698E-1,2.3219006E5,-1.8938625E-2,-5.141541E-3,1.042E3,-1.2165273E-2,-6.715933E-3,1.5214816E-3,1.7869E4,2.193E3,4.946873E-2,1.790975E-2,1.5214152E5,8.0756325E-1,-1.9876376E-2,-4.2958923E-2,7.70081E-3,-1.175149E-3,2.0143596E-2,8.863635E-3,1.0913865E-2,2.2155939E-2,9.390004E-3,-1.1604505E-3],"split_indices":[51,8,51,5,51,44,8,9,54,54,0,27,0,56,32,0,0,1,0,0,0,7,1,0,0,32,26,0,0,0,0,0,0,0,0,0,0],"split_type":[0,0,0,0,0,0,0,0,0,0,0,0,0,0,0,0,0,0,0,0,0,0,0,0,0,0,0,0,0,0,0,0,0,0,0,0,0],"sum_hessian":[1.03E2,4.1E1,6.2E1,2.5E1,1.6E1,3.4E1,2.8E1,1E1,1.5E1,1E1,6E0,2.7E1,7E0,8E0,2E1,4E0,6E0,9E0,6E0,5E0,5E0,1.8E1,9E0,4E0,4E0,1.1E1,9E0,4E0,5E0,9E0,9E0,5E0,4E0,4E0,7E0,5E0,4E0],"tree_param":{"num_deleted":"0","num_feature":"114","num_nodes":"37","size_leaf_vector":"1"}},{"base_weights":[8.41992E-3,-3.1234935E-1,2.186224E-1,-5.238093E-1,-1.6452102E-1,4.54487E-2,4.350097E-1,-1.3392784E-2,-3.377256E-2,-2.4714958E-2,-7.5891525E-2,1.5835175E-1,-1.7432446E-2,5.9768176E-1,1.4406106E-1,-1.3885766E-1,7.5230584E-3,2.3248771E-1,-2.3989465E-2,4.406376E-2,3.9755467E-1,-1.2983808E-4,1.3084838E-2,-2.0842936E-3,-1.07811745E-2,7.5179446E-3,1.754638E-2,-3.91303E-3,1.7949494E-3,2.5404068E-2,1.337324E-2],"categories":[],"categories_nodes":[],"categories_segments":[],"categories_sizes":[],"default_left":[0,0,0,0,0,0,0,0,0,0,0,0,0,0,0,0,0,0,0,0,0,0,0,0,0,0,0,0,0,0,0],"id":4,"left_children":[1,3,5,7,9,11,13,-1,-1,-1,15,17,-1,19,21,23,-1,25,27,-1,29,-1,-1,-1,-1,-1,-1,-1,-1,-1,-1],"loss_changes":[6.810936E0,1.1642132E0,2.2660573E0,4.728756E-1,7.136488E-1,1.6402462E0,1.1917863E0,0E0,0E0,0E0,3.2444894E-1,3.8408232E-1,0E0,6.656952E-1,1.9871457E-1,1.23252094E-1,0E0,1.4358616E-1,3.333575E-2,0E0,3.9209247E-2,0E0,0E0,0E0,0E0,0E0,0E0,0E0,0E0,0E0,0E0],"parents":[2147483647,0,0,1,1,2,2,3,3,4,4,5,5,6,6,10,10,11,11,13,13,14,14,15,15,17,17,18,18,20,20],"right_children":[2,4,6,8,10,12,14,-1,-1,-1,16,18,-1,20,22,24,-1,26,28,-1,30,-1,-1,-1,-1,-1,-1,-1,-1,-1,-1],"split_conditions":[3.405484E2,1.7701529E2,1.01038403E3,8.2092184E7,1.1266112E6,3.747436E7,7.4999895E9,-1.3392784E-2,-3.377256E-2,-2.4714958E-2,8.874407E6,1.05556984E5,-1.7432446E-2,9.901698E-1,2.4654E4,6.4788594E0,7.5230584E-3,8.564393E5,6.700177E8,4.406376E-2,1.114E4,-1.2983808E-4,1.3084838E-2,-2.0842936E-3,-1.07811745E-2,7.5179446E-3,1.754638E-2,-3.91303E-3,1.7949494E-3,2.5404068E-2,1.337324E-2],"split_indices":[51,51,51,5,31,44,3,0,0,0,44,32,0,56,1,52,0,27,3,0,7,0,0,0,0,0,0,0,0,0,0],"split_type":[0,0,0,0,0,0,0,0,0,0,0,0,0,0,0,0,0,0,0,0,0,0,0,0,0,0,0,0,0,0,0],"sum_hessian":[9.9E1,3.9E1,6E1,1.5E1,2.4E1,3.4E1,2.6E1,7E0,8E0,4E0,2E1,2.7E1,7E0,1.6E1,1E1,1.6E1,4E0,1.9E1,8E0,5E0,1.1E1,5E0,5E0,8E0,8E0,1.3E1,6E0,4E0,4E0,4E0,7E0],"tree_param":{"num_deleted":"0","num_feature":"114","num_nodes":"31","size_leaf_vector":"1"}},{"base_weights":[1.699061E-2,-2.6613513E-1,2.2171974E-1,-3.6534572E-1,-9.874623E-2,1.1277016E-1,5.5607766E-1,-3.0523837E-2,-2.3793179E-1,5.163924E-3,-1.9252864E-1,1.8063177E-1,-2.2870062E-2,4.1178744E-2,1.1702054E-2,8.284569E-4,-3.0701014E-1,-3.916731E-3,-1.4317988E-2,2.2657762E-1,-7.906569E-3,-1.7027818E-2,-7.7164182E-3,1.4819968E-2,3.3932787E-3,3.558319E-3,-4.256407E-3],"categories":[],"categories_nodes":[],"categories_segments":[],"categories_sizes":[],"default_left":[0,0,0,0,0,0,0,0,0,0,0,0,0,0,0,0,0,0,0,0,0,0,0,0,0,0,0],"id":5,"left_children":[1,3,5,7,9,11,13,-1,15,-1,17,19,-1,-1,-1,-1,21,-1,-1,23,25,-1,-1,-1,-1,-1,-1],"loss_changes":[5.797452E0,6.61407E-1,2.050124E0,7.0311904E-1,3.455419E-1,1.8524122E0,1.0595965E0,0E0,3.396356E-1,0E0,1.1105505E-1,3.5695636E-1,0E0,0E0,0E0,0E0,3.5508037E-2,0E0,0E0,3.715458E-1,6.3399166E-2,0E0,0E0,0E0,0E0,0E0,0E0],"parents":[2147483647,0,0,1,1,2,2,3,3,4,4,5,5,6,6,8,8,10,10,11,11,16,16,19,19,20,20],"right_children":[2,4,6,8,10,12,14,-1,16,-1,18,20,-1,-1,-1,-1,22,-1,-1,24,26,-1,-1,-1,-1,-1,-1],"split_conditions":[3.405484E2,3.831E3,1.6934047E3,1.0077E4,4.6E2,7.294459E7,1.7344933E9,-3.0523837E-2,3.7248906E3,5.163924E-3,9.428183E0,3.1821228E7,-2.2870062E-2,4.1178744E-2,1.1702054E-2,8.284569E-4,6.53E2,-3.916731E-3,-1.4317988E-2,2.5694E4,8.391256E-1,-1.7027818E-2,-7.7164182E-3,1.4819968E-2,3.3932787E-3,3.558319E-3,-4.256407E-3],"split_indices":[51,15,51,7,0,44,10,0,46,0,55,44,0,0,0,0,8,0,0,7,26,0,0,0,0,0,0],"split_type":[0,0,0,0,0,0,0,0,0,0,0,0,0,0,0,0,0,0,0,0,0,0,0,0,0,0,0],"sum_hessian":[9.8E1,4.1E1,5.7E1,2.5E1,1.6E1,4.4E1,1.3E1,7E0,1.8E1,5E0,1.1E1,4E1,4E0,6E0,7E0,4E0,1.4E1,6E0,5E0,3.2E1,8E0,1E1,4E0,2.1E1,1.1E1,4E0,4E0],"tree_param":{"num_deleted":"0","num_feature":"114","num_nodes":"27","size_leaf_vector":"1"}},{"base_weights":[1.1213774E-2,-2.68744E-1,2.0971261E-1,-3.6560294E-1,-5.7109814E-2,6.011436E-2,3.8922068E-1,-5.350496E-1,-2.229135E-1,5.1414564E-2,-1.3952186E-2,1.4844842E-1,-1.54230995E-2,6.37683E-1,2.1575925E-1,-1.4287358E-2,-3.1932294E-2,-1.3055642E-1,-1.8927291E-2,-3.3545862E-3,7.978151E-3,2.1617064E-1,-2.606437E-2,4.444112E-2,1.7409207E-2,1.7296724E-2,9.6605204E-2,-1.8516255E-3,-9.017692E-3,6.567345E-3,1.6341131E-2,-3.943745E-3,1.6424669E-3,7.866929E-3,-5.887848E-4],"categories":[],"categories_nodes":[],"categories_segments":[],"categories_sizes":[],"default_left":[0,0,0,0,0,0,0,0,0,0,0,0,0,0,0,0,0,0,0,0,0,0,0,0,0,0,0,0,0,0,0,0,0,0,0],"id":6,"left_children":[1,3,5,7,9,11,13,15,17,19,-1,21,-1,23,25,-1,-1,27,-1,-1,-1,29,31,-1,-1,-1,33,-1,-1,-1,-1,-1,-1,-1,-1],"loss_changes":[5.8913445E0,8.810618E-1,1.6415555E0,6.060772E-1,3.846899E-1,1.2046485E0,1.0691752E0,1.7783475E-1,2.2052306E-1,1.57714E-1,0E0,3.483678E-1,0E0,5.1305914E-1,2.5948292E-1,0E0,0E0,5.7349786E-2,0E0,0E0,0E0,1.5752041E-1,3.181329E-2,0E0,0E0,0E0,7.81191E-2,0E0,0E0,0E0,0E0,0E0,0E0,0E0,0E0],"parents":[2147483647,0,0,1,1,2,2,3,3,4,4,5,5,6,6,7,7,8,8,9,9,11,11,13,13,14,14,17,17,21,21,22,22,26,26],"right_children":[2,4,6,8,10,12,14,16,18,20,-1,22,-1,24,26,-1,-1,28,-1,-1,-1,30,32,-1,-1,-1,34,-1,-1,-1,-1,-1,-1,-1,-1],"split_conditions":[3.405484E2,1.3346633E10,1.01038403E3,1.7701529E2,3.6E1,3.747436E7,9.5362694E8,8.2092184E7,5.8337103E2,7.880423E6,-1.3952186E-2,1.05556984E5,-1.54230995E-2,9.901698E-1,2.3219006E5,-1.4287358E-2,-3.1932294E-2,2.1424272E6,-1.8927291E-2,-3.3545862E-3,7.978151E-3,8.564393E5,9.22E2,4.444112E-2,1.7409207E-2,1.7296724E-2,8.391256E-1,-1.8516255E-3,-9.017692E-3,6.567345E-3,1.6341131E-2,-3.943745E-3,1.6424669E-3,7.866929E-3,-5.887848E-4],"split_indices":[51,30,51,51,2,44,10,5,54,44,0,32,0,56,32,0,0,44,0,0,0,27,0,0,0,0,26,0,0,0,0,0,0,0,0],"split_type":[0,0,0,0,0,0,0,0,0,0,0,0,0,0,0,0,0,0,0,0,0,0,0,0,0,0,0,0,0,0,0,0,0,0,0],"sum_hessian":[1.04E2,4.3E1,6.1E1,2.9E1,1.4E1,3.4E1,2.7E1,1.2E1,1.7E1,1E1,4E0,2.8E1,6E0,1E1,1.7E1,5E0,7E0,1.2E1,5E0,5E0,5E0,2E1,8E0,4E0,6E0,7E0,1E1,5E0,7E0,1.3E1,7E0,4E0,4E0,6E0,4E0],"tree_param":{"num_deleted":"0","num_feature":"114","num_nodes":"35","size_leaf_vector":"1"}},{"base_weights":[-1.0994119E-2,-2.777951E-1,1.803965E-1,-4.2327666E-1,-1.561173E-1,2.7112633E-1,-8.6055994E-2,-3.194165E-2,-2.9536533E-1,2.4329002E-4,-2.7898943E-1,1.9907331E-1,3.4644455E-2,-1.7984992E-2,1.18970856E-1,-3.432247E-1,-6.8952944E-3,-5.1343464E-3,8.243595E-3,-9.399475E-2,-2.5015274E-2,1.353122E-1,3.0782163E-1,1.4441462E-3,9.938343E-3,-9.324316E-3,-2.0289026E-2,-8.629193E-4,-7.436075E-3,3.5036607E-3,1.3641473E-2,6.789569E-3,1.7743832E-2],"categories":[],"categories_nodes":[],"categories_segments":[],"categories_sizes":[],"default_left":[0,0,0,0,0,0,0,0,0,0,0,0,0,0,0,0,0,0,0,0,0,0,0,0,0,0,0,0,0,0,0,0,0],"id":7,"left_children":[1,3,5,7,9,11,13,-1,15,17,19,21,-1,-1,23,25,-1,-1,-1,27,-1,29,31,-1,-1,-1,-1,-1,-1,-1,-1,-1,-1],"loss_changes":[5.25856E0,6.951003E-1,1.4738437E0,3.6156297E-1,4.8037684E-1,1.2703719E0,9.641159E-1,0E0,5.546713E-2,2.2887397E-1,5.50321E-1,2.3570454E-1,0E0,0E0,6.8917856E-2,2.9183745E-2,0E0,0E0,0E0,3.694257E-2,0E0,2.264354E-1,7.780695E-2,0E0,0E0,0E0,0E0,0E0,0E0,0E0,0E0,0E0,0E0],"parents":[2147483647,0,0,1,1,2,2,3,3,4,4,5,5,6,6,8,8,9,9,10,10,11,11,14,14,15,15,19,19,21,21,22,22],"right_children":[2,4,6,8,10,12,14,-1,16,18,20,22,-1,-1,24,26,-1,-1,-1,28,-1,30,32,-1,-1,-1,-1,-1,-1,-1,-1,-1,-1],"split_conditions":[3.405484E2,1.7701529E2,6.0671224E7,1.0325462E9,2.6166486E2,6.578038E1,2.1427107E3,-3.194165E-2,2.22E3,8.874407E6,9.837714E0,8.564393E5,3.4644455E-2,-1.7984992E-2,2.4654E4,4.6915763E9,-6.8952944E-3,-5.1343464E-3,8.243595E-3,5.90566E0,-2.5015274E-2,8.739511E2,2.7E1,1.4441462E-3,9.938343E-3,-9.324316E-3,-2.0289026E-2,-8.629193E-4,-7.436075E-3,3.5036607E-3,1.3641473E-2,6.789569E-3,1.7743832E-2],"split_indices":[51,51,44,30,51,55,54,0,1,44,55,27,0,0,1,30,0,0,0,52,0,51,2,0,0,0,0,0,0,0,0,0,0],"split_type":[0,0,0,0,0,0,0,0,0,0,0,0,0,0,0,0,0,0,0,0,0,0,0,0,0,0,0,0,0,0,0,0,0],"sum_hessian":[1.01E2,4.2E1,5.9E1,1.8E1,2.4E1,4.4E1,1.5E1,5E0,1.3E1,1.1E1,1.3E1,3.9E1,5E0,6E0,9E0,9E0,4E0,7E0,4E0,8E0,5E0,2.6E1,1.3E1,5E0,4E0,4E0,5E0,4E0,4E0,1.9E1,7E0,4E0,9E0],"tree_param":{"num_deleted":"0","num_feature":"114","num_nodes":"33","size_leaf_vector":"1"}},{"base_weights":[5.9557618E-3,-1.17013894E-1,3.5642642E-1,-4.0932518E-1,-5.1242463E-2,3.6618024E-2,2.3383416E-1,-1.005827E-2,-2.8660592E-2,9.01805E-3,-3.7755102E-1,3.5161236E-1,5.7339095E-2,-1.4301796E-1,1.6073199E-1,-5.348861E-3,-3.0620005E-2,2.2274654E-2,1.132038E-2,5.4888353E-3,-9.615025E-4,-1.644727E-2,-4.2496487E-3,1.0797353E-2,3.0999635E-3],"categories":[],"categories_nodes":[],"categories_segments":[],"categories_sizes":[],"default_left":[0,0,0,0,0,0,0,0,0,0,0,0,0,0,0,0,0,0,0,0,0,0,0,0,0],"id":8,"left_children":[1,3,5,7,9,-1,11,-1,-1,13,15,17,19,21,23,-1,-1,-1,-1,-1,-1,-1,-1,-1,-1],"loss_changes":[4.4807243E0,1.4594066E0,1.1166658E0,3.805709E-1,1.2618701E0,0E0,4.3715882E-1,0E0,0E0,1.2916166E0,5.9431565E-1,5.619371E-2,4.417339E-2,2.7451223E-1,1.4828503E-1,0E0,0E0,0E0,0E0,0E0,0E0,0E0,0E0,0E0,0E0],"parents":[2147483647,0,0,1,1,2,2,3,3,4,4,6,6,9,9,10,10,11,11,12,12,13,13,14,14],"right_children":[2,4,6,8,10,-1,12,-1,-1,14,16,18,20,22,24,-1,-1,-1,-1,-1,-1,-1,-1,-1,-1],"split_conditions":[1.01038403E3,1.7701529E2,8.962557E8,8.2092184E7,3.747436E7,3.6618024E-2,2.3219006E5,-1.005827E-2,-2.8660592E-2,2.6960093E10,6.4044494E5,1.4218676E-1,7.6599895E9,1.1266112E6,1.9887656E8,-5.348861E-3,-3.0620005E-2,2.2274654E-2,1.132038E-2,5.4888353E-3,-9.615025E-4,-1.644727E-2,-4.2496487E-3,1.0797353E-2,3.0999635E-3],"split_indices":[51,51,10,5,44,0,32,0,0,30,27,37,3,31,10,0,0,0,0,0,0,0,0,0,0],"split_type":[0,0,0,0,0,0,0,0,0,0,0,0,0,0,0,0,0,0,0,0,0,0,0,0,0],"sum_hessian":[1.02E2,7.6E1,2.6E1,1.3E1,6.3E1,5E0,2.1E1,7E0,6E0,5.4E1,9E0,1.2E1,9E0,2.7E1,2.7E1,5E0,4E0,5E0,7E0,5E0,4E0,5E0,2.2E1,1.6E1,1.1E1],"tree_param":{"num_deleted":"0","num_feature":"114","num_nodes":"25","size_leaf_vector":"1"}},{"base_weights":[9.156056E-3,-2.1293326E-1,1.6709834E-1,-3.337784E-1,-7.6193914E-2,1.1320861E-1,2.7039433E-2,-1.8144767E-1,-5.336508E-1,5.3096213E-3,-1.1770294E-2,1.597393E-1,-1.3631566E-2,-1.2487386E-3,-1.3012295E-2,-3.174489E-2,-1.5372265E-2,-4.979746E-2,6.155101E-3,9.766719E-2,3.0350962E-1,-4.9510496E-3,1.5576978E-3,7.536868E-3,1.0585489E-3,1.0880438E-2,1.9924132E-2],"categories":[],"categories_nodes":[],"categories_segments":[],"categories_sizes":[],"default_left":[0,0,0,0,0,0,0,0,0,0,0,0,0,0,0,0,0,0,0,0,0,0,0,0,0,0,0],"id":9,"left_children":[1,3,5,7,9,11,-1,13,15,17,-1,19,-1,-1,-1,-1,-1,21,-1,23,25,-1,-1,-1,-1,-1,-1],"loss_changes":[3.5433106E0,6.6858804E-1,1.1590004E0,5.7299805E-1,2.815711E-1,1.0089281E0,0E0,1.7632437E-1,2.2228718E-2,1.0558505E-1,0E0,3.9871526E-1,0E0,0E0,0E0,0E0,0E0,4.9081888E-2,0E0,1.4577666E-1,2.7333975E-2,0E0,0E0,0E0,0E0,0E0,0E0],"parents":[2147483647,0,0,1,1,2,2,3,3,4,4,5,5,7,7,8,8,9,9,11,11,17,17,19,19,20,20],"right_children":[2,4,6,8,10,12,-1,14,16,18,-1,20,-1,-1,-1,-1,-1,22,-1,24,26,-1,-1,-1,-1,-1,-1],"split_conditions":[3.405484E2,1.3655606E6,7.758015E1,1.04376936E8,7.2967033E0,7.632764E7,2.7039433E-2,5.2682075E5,9.513E3,9.82337E6,-1.1770294E-2,8.564393E5,-1.3631566E-2,-1.2487386E-3,-1.3012295E-2,-3.174489E-2,-1.5372265E-2,2.1836595E8,6.155101E-3,1.0816126E0,1.8965986E6,-4.9510496E-3,1.5576978E-3,7.536868E-3,1.0585489E-3,1.0880438E-2,1.9924132E-2],"split_indices":[51,31,55,5,52,44,0,31,7,44,0,27,0,0,0,0,0,5,0,56,27,0,0,0,0,0,0],"split_type":[0,0,0,0,0,0,0,0,0,0,0,0,0,0,0,0,0,0,0,0,0,0,0,0,0,0,0],"sum_hessian":[9.9E1,4.1E1,5.8E1,2.1E1,2E1,5.2E1,6E0,1.3E1,8E0,1.4E1,6E0,4.7E1,5E0,5E0,8E0,4E0,4E0,1E1,4E0,3.4E1,1.3E1,6E0,4E0,1.9E1,1.5E1,9E0,4E0],"tree_param":{"num_deleted":"0","num_feature":"114","num_nodes":"27","size_leaf_vector":"1"}},{"base_weights":[-5.598451E-3,-2.3549862E-1,1.7075166E-1,-3.8991413E-1,-1.3153388E-1,8.657443E-2,4.411501E-1,-2.8646605E-2,-2.7033582E-1,-3.2007304E-1,-4.446787E-2,1.4066666E-1,-1.9421013E-2,3.632857E-2,1.9248286E-1,-5.735814E-3,-3.25521E-1,-5.7290043E-3,-2.2530917E-2,-9.038949E-2,5.9135696E-3,7.75143E-2,2.8044027E-1,1.2951284E-2,4.0434324E-3,-2.0743037E-2,-7.997898E-3,-9.4730745E-4,-8.2375E-3,6.3797547E-3,-1.4643335E-3,5.8183786E-3,1.6637234E-2],"categories":[],"categories_nodes":[],"categories_segments":[],"categories_sizes":[],"default_left":[0,0,0,0,0,0,0,0,0,0,0,0,0,0,0,0,0,0,0,0,0,0,0,0,0,0,0,0,0,0,0,0,0],"id":10,"left_children":[1,3,5,7,9,11,13,-1,15,17,19,21,-1,-1,23,-1,25,-1,-1,27,-1,29,31,-1,-1,-1,-1,-1,-1,-1,-1,-1,-1],"loss_changes":[4.2972183E0,6.8718624E-1,1.3274912E0,2.5990415E-1,4.618122E-1,1.2823921E0,9.000199E-1,0E0,7.198584E-2,2.0112956E-1,1.700418E-1,3.578244E-1,0E0,0E0,4.910463E-2,0E0,7.3415995E-2,0E0,0E0,9.045769E-2,0E0,1.787863E-1,8.3339095E-2,0E0,0E0,0E0,0E0,0E0,0E0,0E0,0E0,0E0,0E0],"parents":[2147483647,0,0,1,1,2,2,3,3,4,4,5,5,6,6,8,8,9,9,10,10,11,11,14,14,16,16,19,19,21,21,22,22],"right_children":[2,4,6,8,10,12,14,-1,16,18,20,22,-1,-1,24,-1,26,-1,-1,28,-1,30,32,-1,-1,-1,-1,-1,-1,-1,-1,-1,-1],"split_conditions":[3.405484E2,1.7701529E2,1.6934047E3,1.0325462E9,1.1266112E6,7.294459E7,1.3050505E0,-2.8646605E-2,2.6E1,9.837714E0,8.874407E6,8.564393E5,-1.9421013E-2,3.632857E-2,7.6599895E9,-5.735814E-3,1.5497297E1,-5.7290043E-3,-2.2530917E-2,6.4788594E0,5.9135696E-3,7.18231E-1,2.7E1,1.2951284E-2,4.0434324E-3,-2.0743037E-2,-7.997898E-3,-9.4730745E-4,-8.2375E-3,6.3797547E-3,-1.4643335E-3,5.8183786E-3,1.6637234E-2],"split_indices":[51,51,51,30,31,44,56,0,2,55,44,27,0,0,3,0,57,0,0,52,0,26,2,0,0,0,0,0,0,0,0,0,0],"split_type":[0,0,0,0,0,0,0,0,0,0,0,0,0,0,0,0,0,0,0,0,0,0,0,0,0,0,0,0,0,0,0,0,0],"sum_hessian":[1.04E2,4.5E1,5.9E1,1.7E1,2.8E1,4.6E1,1.3E1,5E0,1.2E1,8E0,2E1,4.2E1,4E0,5E0,8E0,4E0,8E0,4E0,4E0,1.6E1,4E0,3E1,1.2E1,4E0,4E0,4E0,4E0,9E0,7E0,2E1,1E1,4E0,8E0],"tree_param":{"num_deleted":"0","num_feature":"114","num_nodes":"33","size_leaf_vector":"1"}},{"base_weights":[1.0790681E-2,-2.2531447E-1,2.0528457E-1,-2.844585E-1,-5.8923797E-3,1.25477E-1,4.2038062E-1,-4.0726465E-1,-1.8221498E-1,2.7176673E-3,-4.4405963E-3,6.735975E-2,2.8842172E-1,6.3490504E-1,4.145272E-3,-3.0658282E-2,-2.8259185E-1,-8.690049E-2,-1.6586788E-2,1.259763E-1,-3.2510012E-2,9.149264E-3,1.831536E-2,3.7656553E-2,1.8400548E-2,-1.8154792E-2,-9.445445E-3,1.3099958E-3,-7.179853E-3,3.8041053E-3,1.30190365E-2,1.675546E-3,-5.689145E-3],"categories":[],"categories_nodes":[],"categories_segments":[],"categories_sizes":[],"default_left":[0,0,0,0,0,0,0,0,0,0,0,0,0,0,0,0,0,0,0,0,0,0,0,0,0,0,0,0,0,0,0,0,0],"id":11,"left_children":[1,3,5,7,9,11,13,15,17,-1,-1,19,21,23,-1,-1,25,27,-1,29,31,-1,-1,-1,-1,-1,-1,-1,-1,-1,-1,-1,-1],"loss_changes":[4.7761173E0,6.082666E-1,9.257307E-1,3.9036727E-1,6.208417E-2,3.877775E-1,1.0271342E0,2.5775623E-1,2.976033E-1,0E0,0E0,1.9727814E-1,2.5594294E-2,2.2483587E-2,0E0,0E0,2.3288727E-2,1.0525979E-1,0E0,1.2120965E-1,7.630863E-2,0E0,0E0,0E0,0E0,0E0,0E0,0E0,0E0,0E0,0E0,0E0,0E0],"parents":[2147483647,0,0,1,1,2,2,3,3,4,4,5,5,6,6,7,7,8,8,11,11,12,12,13,13,16,16,17,17,19,19,20,20],"right_children":[2,4,6,8,10,12,14,16,18,-1,-1,20,22,24,-1,-1,26,28,-1,30,32,-1,-1,-1,-1,-1,-1,-1,-1,-1,-1,-1,-1],"split_conditions":[3.405484E2,1.48473E5,1.6934047E3,1.7701529E2,1.143609E5,8.564393E5,7.6499896E9,2.6239506E5,8.499266E0,2.7176673E-3,-4.4405963E-3,7.18231E-1,3.1E1,1.2429E4,4.145272E-3,-3.0658282E-2,1.1485E4,1.0408E4,-1.6586788E-2,1E0,5.2994924E0,9.149264E-3,1.831536E-2,3.7656553E-2,1.8400548E-2,-1.8154792E-2,-9.445445E-3,1.3099958E-3,-7.179853E-3,3.8041053E-3,1.30190365E-2,1.675546E-3,-5.689145E-3],"split_indices":[51,28,51,51,27,27,3,27,55,0,0,26,2,8,0,0,7,7,0,78,52,0,0,0,0,0,0,0,0,0,0,0,0],"split_type":[0,0,0,0,0,0,0,0,0,0,0,0,0,0,0,0,0,0,0,0,0,0,0,0,0,0,0,0,0,0,0,0,0],"sum_hessian":[1.02E2,4.6E1,5.6E1,3.6E1,1E1,4.2E1,1.4E1,1.5E1,2.1E1,6E0,4E0,3.2E1,1E1,8E0,6E0,4E0,1.1E1,1.4E1,7E0,2E1,1.2E1,6E0,4E0,4E0,4E0,4E0,7E0,5E0,9E0,1.6E1,4E0,7E0,5E0],"tree_param":{"num_deleted":"0","num_feature":"114","num_nodes":"33","size_leaf_vector":"1"}},{"base_weights":[1.2048601E-2,-9.567987E-2,3.0510035E-1,-1.9003373E-1,2.2299292E-2,2.9917512E-2,1.9906254E-1,-4.0657395E-1,-1.14387386E-1,8.4733166E-2,-1.8724663E-2,2.9085612E-1,7.248262E-2,-2.7615728E-2,-5.2124243E-3,-2.030004E-1,1.1389128E-2,1.8894732E-2,2.0870702E-1,1.912215E-2,8.841991E-3,-1.3165968E-4,8.006109E-3,-1.1862825E-2,-3.5342954E-3,3.719452E-3,-4.8024617E-3,4.773873E-3,-2.676901E-3,1.44888675E-2,2.2376971E-3],"categories":[],"categories_nodes":[],"categories_segments":[],"categories_sizes":[],"default_left":[0,0,0,0,0,0,0,0,0,0,0,0,0,0,0,0,0,0,0,0,0,0,0,0,0,0,0,0,0,0,0],"id":12,"left_children":[1,3,5,7,9,-1,11,13,15,17,-1,19,21,-1,-1,23,25,27,29,-1,-1,-1,-1,-1,-1,-1,-1,-1,-1,-1,-1],"loss_changes":[3.4071841E0,8.83649E-1,8.159504E-1,6.742343E-1,9.4046646E-1,0E0,2.4616015E-1,4.569049E-1,3.8125673E-1,2.572484E-1,0E0,7.204151E-2,7.54625E-2,0E0,0E0,8.4308386E-2,1.1306808E-1,1.3207746E-1,1.4201751E-1,0E0,0E0,0E0,0E0,0E0,0E0,0E0,0E0,0E0,0E0,0E0,0E0],"parents":[2147483647,0,0,1,1,2,2,3,3,4,4,6,6,7,7,8,8,9,9,11,11,12,12,15,15,16,16,17,17,18,18],"right_children":[2,4,6,8,10,-1,12,14,16,18,-1,20,22,-1,-1,24,26,28,30,-1,-1,-1,-1,-1,-1,-1,-1,-1,-1,-1,-1],"split_conditions":[1.01038403E3,3.3969492E2,9.901698E-1,9.576E3,8.667E3,2.9917512E-2,2.3025133E5,4.215E3,1.3346633E10,7.005162E5,-1.8724663E-2,1.4218676E-1,3.1984328E5,-2.7615728E-2,-5.2124243E-3,1.1547042E7,7.2967033E0,4.958582E-1,9.258696E0,1.912215E-2,8.841991E-3,-1.3165968E-4,8.006109E-3,-1.1862825E-2,-3.5342954E-3,3.719452E-3,-4.8024617E-3,4.773873E-3,-2.676901E-3,1.44888675E-2,2.2376971E-3],"split_indices":[51,51,56,7,1,0,32,15,30,27,0,37,32,0,0,31,52,26,53,0,0,0,0,0,0,0,0,0,0,0,0],"split_type":[0,0,0,0,0,0,0,0,0,0,0,0,0,0,0,0,0,0,0,0,0,0,0,0,0,0,0,0,0,0,0],"sum_hessian":[1.06E2,7.8E1,2.8E1,4.3E1,3.5E1,6E0,2.2E1,1E1,3.3E1,3.1E1,4E0,1.2E1,1E1,6E0,4E0,1.9E1,1.4E1,2.1E1,1E1,5E0,7E0,6E0,4E0,1.4E1,5E0,9E0,5E0,1E1,1.1E1,6E0,4E0],"tree_param":{"num_deleted":"0","num_feature":"114","num_nodes":"31","size_leaf_vector":"1"}},{"base_weights":[3.1736903E-3,-9.243341E-2,2.7217242E-1,-2.8739178E-1,-1.2769445E-2,2.740165E-2,1.8167506E-1,-3.584297E-1,-1.8746911E-3,-8.08937E-2,1.9251543E-1,2.5053614E-1,5.4371726E-2,-2.5997132E-2,-2.4277528E-1,-3.4072224E-2,-1.7469272E-2,3.4099305E-3,1.241599E-2,1.8076237E-2,8.166608E-3,5.751314E-3,-9.5072E-4,-6.302653E-3,-1.3923459E-2,-7.5115855E-3,2.210275E-3],"categories":[],"categories_nodes":[],"categories_segments":[],"categories_sizes":[],"default_left":[0,0,0,0,0,0,0,0,0,0,0,0,0,0,0,0,0,0,0,0,0,0,0,0,0,0,0],"id":13,"left_children":[1,3,5,7,9,-1,11,13,-1,15,17,19,21,-1,23,25,-1,-1,-1,-1,-1,-1,-1,-1,-1,-1,-1],"loss_changes":[2.648413E0,1.1766982E0,5.984583E-1,3.757168E-1,7.8474164E-1,0E0,1.7923534E-1,2.0865822E-1,0E0,5.2914536E-1,8.676803E-2,7.7465E-2,4.4011146E-2,0E0,1.9865096E-2,3.555141E-1,0E0,0E0,0E0,0E0,0E0,0E0,0E0,0E0,0E0,0E0,0E0],"parents":[2147483647,0,0,1,1,2,2,3,3,4,4,6,6,7,7,9,9,10,10,11,11,12,12,14,14,15,15],"right_children":[2,4,6,8,10,-1,12,14,-1,16,18,20,22,-1,24,26,-1,-1,-1,-1,-1,-1,-1,-1,-1,-1,-1],"split_conditions":[9.2109607E2,8.622562E9,9.901698E-1,2.0394803E8,8.373168E5,2.740165E-2,7.6499896E9,2.7362996E7,-1.8746911E-3,8.9470106E-1,2.71E2,1.114E4,8.601996E-1,-2.5997132E-2,7.89E2,7.342324E2,-1.7469272E-2,3.4099305E-3,1.241599E-2,1.8076237E-2,8.166608E-3,5.751314E-3,-9.5072E-4,-6.302653E-3,-1.3923459E-2,-7.5115855E-3,2.210275E-3],"split_indices":[51,30,56,5,27,0,3,3,0,26,0,7,26,0,1,54,0,0,0,0,0,0,0,0,0,0,0],"split_type":[0,0,0,0,0,0,0,0,0,0,0,0,0,0,0,0,0,0,0,0,0,0,0,0,0,0,0],"sum_hessian":[1.01E2,7.5E1,2.6E1,2.1E1,5.4E1,5E0,2.1E1,1.6E1,5E0,4.1E1,1.3E1,1.3E1,8E0,5E0,1.1E1,3.6E1,5E0,5E0,8E0,4E0,9E0,4E0,4E0,4E0,7E0,1.4E1,2.2E1],"tree_param":{"num_deleted":"0","num_feature":"114","num_nodes":"27","size_leaf_vector":"1"}},{"base_weights":[1.0369507E-2,-8.8291E-2,2.8131554E-1,-2.5676963E-1,-1.1776589E-2,2.9413704E-2,1.8603976E-1,-2.6785562E-2,-1.518962E-1,3.6277942E-2,-1.4353593E-2,2.660051E-1,5.548431E-2,-9.329823E-3,-3.231377E-4,-8.101635E-2,1.1876394E-1,6.4963778E-3,1.5018816E-2,6.641781E-3,-9.988674E-4,2.2702129E-3,-6.20668E-3,8.356062E-3,4.349107E-4],"categories":[],"categories_nodes":[],"categories_segments":[],"categories_sizes":[],"default_left":[0,0,0,0,0,0,0,0,0,0,0,0,0,0,0,0,0,0,0,0,0,0,0,0,0],"id":14,"left_children":[1,3,5,7,9,-1,11,-1,13,15,-1,17,19,-1,-1,21,23,-1,-1,-1,-1,-1,-1,-1,-1],"loss_changes":[2.8049316E0,9.895865E-1,7.376776E-1,6.4522135E-1,7.394017E-1,0E0,2.253589E-1,0E0,1.0451475E-1,4.6435314E-1,0E0,3.4583867E-2,6.33758E-2,0E0,0E0,1.2174536E-1,1.5723875E-1,0E0,0E0,0E0,0E0,0E0,0E0,0E0,0E0],"parents":[2147483647,0,0,1,1,2,2,3,3,4,4,6,6,8,8,9,9,11,11,12,12,15,15,16,16],"right_children":[2,4,6,8,10,-1,12,-1,14,16,-1,18,20,-1,-1,22,24,-1,-1,-1,-1,-1,-1,-1,-1],"split_conditions":[9.2109607E2,4.8067798E2,9.901698E-1,9.513E3,3.747436E7,2.9413704E-2,3.0437586E7,-2.6785562E-2,3.4537422E1,2.6960093E10,-1.4353593E-2,4.767826E1,8.0756325E-1,-9.329823E-3,-3.231377E-4,5.2107143E0,4.24975E5,6.4963778E-3,1.5018816E-2,6.641781E-3,-9.988674E-4,2.2702129E-3,-6.20668E-3,8.356062E-3,4.349107E-4],"split_indices":[51,54,56,7,44,0,49,0,57,30,0,57,26,0,0,52,28,0,0,0,0,0,0,0,0],"split_type":[0,0,0,0,0,0,0,0,0,0,0,0,0,0,0,0,0,0,0,0,0,0,0,0,0],"sum_hessian":[1.03E2,7.6E1,2.7E1,2.3E1,5.3E1,5E0,2.2E1,5E0,1.8E1,4.6E1,7E0,1.3E1,9E0,1.4E1,4E0,1.9E1,2.7E1,4E0,9E0,4E0,5E0,5E0,1.4E1,1.8E1,9E0],"tree_param":{"num_deleted":"0","num_feature":"114","num_nodes":"25","size_leaf_vector":"1"}},{"base_weights":[-9.335259E-3,-1.9665891E-1,1.2461553E-1,-3.1033963E-1,-1.09377705E-1,4.8337527E-2,3.4566107E-1,-2.4341334E-2,-2.0849934E-1,-1.7090637E-2,-5.2655425E-2,9.2365146E-2,-1.7107727E-2,2.9396575E-2,1.3354471E-1,-4.6130843E-3,-2.448759E-1,5.354639E-3,-9.246824E-2,3.8752172E-2,2.0448208E-1,1.0819374E-2,1.1780082E-4,-1.7086534E-2,-5.7803034E-3,4.8842316E-4,-7.507101E-3,4.2673447E-3,-2.7898378E-3,4.2078113E-3,1.1938213E-2],"categories":[],"categories_nodes":[],"categories_segments":[],"categories_sizes":[],"default_left":[0,0,0,0,0,0,0,0,0,0,0,0,0,0,0,0,0,0,0,0,0,0,0,0,0,0,0,0,0,0,0],"id":15,"left_children":[1,3,5,7,9,11,13,-1,15,-1,17,19,-1,-1,21,-1,23,-1,25,27,29,-1,-1,-1,-1,-1,-1,-1,-1,-1,-1],"loss_changes":[2.7093668E0,4.1255438E-1,1.0455289E0,2.5625145E-1,3.4775433E-1,8.714385E-1,7.807962E-1,0E0,3.5257995E-2,0E0,1.5827173E-1,2.5655648E-1,0E0,0E0,1.1360216E-1,0E0,9.038609E-2,0E0,1.1941421E-1,1.4797111E-1,4.3765783E-2,0E0,0E0,0E0,0E0,0E0,0E0,0E0,0E0,0E0,0E0],"parents":[2147483647,0,0,1,1,2,2,3,3,4,4,5,5,6,6,8,8,10,10,11,11,14,14,16,16,18,18,19,19,20,20],"right_children":[2,4,6,8,10,12,14,-1,16,-1,18,20,-1,-1,22,-1,24,-1,26,28,30,-1,-1,-1,-1,-1,-1,-1,-1,-1,-1],"split_conditions":[3.405484E2,1.7701529E2,1.6934047E3,1.0325462E9,3.7E1,7.294459E7,1.7344933E9,-2.4341334E-2,2.6E1,-1.7090637E-2,1.9789175E2,7.005162E5,-1.7107727E-2,2.9396575E-2,3.8014093E2,-4.6130843E-3,1.5497297E1,5.354639E-3,5.9605737E0,7.18231E-1,2.7E1,1.0819374E-2,1.1780082E-4,-1.7086534E-2,-5.7803034E-3,4.8842316E-4,-7.507101E-3,4.2673447E-3,-2.7898378E-3,4.2078113E-3,1.1938213E-2],"split_indices":[51,51,51,30,8,44,10,0,2,0,51,27,0,0,57,0,57,0,52,26,2,0,0,0,0,0,0,0,0,0,0],"split_type":[0,0,0,0,0,0,0,0,0,0,0,0,0,0,0,0,0,0,0,0,0,0,0,0,0,0,0,0,0,0,0],"sum_hessian":[1.06E2,4.4E1,6.2E1,1.8E1,2.6E1,4.7E1,1.5E1,5E0,1.3E1,4E0,2.2E1,4.3E1,4E0,6E0,9E0,4E0,9E0,4E0,1.8E1,3E1,1.3E1,5E0,4E0,4E0,5E0,7E0,1.1E1,2E1,1E1,4E0,9E0],"tree_param":{"num_deleted":"0","num_feature":"114","num_nodes":"31","size_leaf_vector":"1"}},{"base_weights":[1.8564762E-4,-1.8923625E-1,1.4224897E-1,-2.4266659E-1,-2.0273654E-3,7.0760295E-2,3.5199767E-1,-2.7573478E-1,-1.8090651E-3,2.4261964E-3,-3.6154531E-3,1.1430088E-1,-1.516332E-2,2.8160632E-2,1.4013496E-1,-3.401489E-1,-1.3355142E-1,1.175972E-2,7.282417E-2,9.743139E-3,2.6296717E-3,-1.2234145E-2,-2.5030307E-2,-2.2164602E-3,-1.1308832E-2,-7.093511E-4,5.745085E-3],"categories":[],"categories_nodes":[],"categories_segments":[],"categories_sizes":[],"default_left":[0,0,0,0,0,0,0,0,0,0,0,0,0,0,0,0,0,0,0,0,0,0,0,0,0,0,0],"id":16,"left_children":[1,3,5,7,9,11,13,15,-1,-1,-1,17,-1,-1,19,21,23,-1,25,-1,-1,-1,-1,-1,-1,-1,-1],"loss_changes":[2.825549E0,4.4962645E-1,8.747721E-1,2.2800398E-1,4.4244785E-2,7.9620916E-1,6.253984E-1,2.2933125E-1,0E0,0E0,0E0,2.0106536E-1,0E0,0E0,3.4903973E-2,1.8147302E-1,8.386758E-2,0E0,1.2929703E-1,0E0,0E0,0E0,0E0,0E0,0E0,0E0,0E0],"parents":[2147483647,0,0,1,1,2,2,3,3,4,4,5,5,6,6,7,7,11,11,14,14,15,15,16,16,18,18],"right_children":[2,4,6,8,10,12,14,16,-1,-1,-1,18,-1,-1,20,22,24,-1,26,-1,-1,-1,-1,-1,-1,-1,-1],"split_conditions":[3.405484E2,1.48473E5,1.6934047E3,1E0,1.0711212E3,1.698E4,1.7344933E9,9.47E2,-1.8090651E-3,2.4261964E-3,-3.6154531E-3,3.993E4,-1.516332E-2,2.8160632E-2,7.6599895E9,2.79E2,6.978367E7,1.175972E-2,4.9849814E2,9.743139E-3,2.6296717E-3,-1.2234145E-2,-2.5030307E-2,-2.2164602E-3,-1.1308832E-2,-7.093511E-4,5.745085E-3],"split_indices":[51,28,51,111,54,1,10,8,0,0,0,28,0,0,3,0,10,0,51,0,0,0,0,0,0,0,0],"split_type":[0,0,0,0,0,0,0,0,0,0,0,0,0,0,0,0,0,0,0,0,0,0,0,0,0,0,0],"sum_hessian":[1.03E2,4.4E1,5.9E1,3.4E1,1E1,4.5E1,1.4E1,2.9E1,5E0,6E0,4E0,4.1E1,4E0,6E0,8E0,1.9E1,1E1,9E0,3.2E1,4E0,4E0,1.4E1,5E0,6E0,4E0,1.1E1,2.1E1],"tree_param":{"num_deleted":"0","num_feature":"114","num_nodes":"27","size_leaf_vector":"1"}},{"base_weights":[-5.594722E-3,-1.7935562E-1,1.2771522E-1,-2.2512986E-1,7.944582E-3,3.7313826E-2,2.3682381E-1,-3.2299048E-1,-1.4372532E-1,3.5441348E-3,-3.4735797E-3,8.7998964E-2,-1.3452763E-2,4.503615E-1,1.2320998E-1,-2.600329E-2,-2.0976822E-1,-7.261174E-2,-1.5758159E-2,-1.4065491E-2,1.5682335E-1,2.925375E-2,1.0509612E-2,1.0507864E-2,5.2267473E-2,-1.4139885E-2,-6.5966365E-3,1.0049702E-3,-6.143958E-3,-3.5330476E-3,3.215884E-3,2.6258016E-3,1.0677839E-2,-2.9153706E-4,6.6195326E-3],"categories":[],"categories_nodes":[],"categories_segments":[],"categories_sizes":[],"default_left":[0,0,0,0,0,0,0,0,0,0,0,0,0,0,0,0,0,0,0,0,0,0,0,0,0,0,0,0,0,0,0,0,0,0,0],"id":17,"left_children":[1,3,5,7,9,11,13,15,17,-1,-1,19,-1,21,23,-1,25,27,-1,29,31,-1,-1,-1,33,-1,-1,-1,-1,-1,-1,-1,-1,-1,-1],"loss_changes":[2.4551322E0,3.9617062E-1,5.8297735E-1,2.4833119E-1,5.5766653E-2,5.610677E-1,5.9955335E-1,2.6403368E-1,2.5442493E-1,0E0,0E0,2.1294148E-1,0E0,1.8252385E-1,1.1147961E-1,0E0,3.2149136E-2,8.588642E-2,0E0,6.472225E-2,1.0150871E-1,0E0,0E0,0E0,5.8559585E-2,0E0,0E0,0E0,0E0,0E0,0E0,0E0,0E0,0E0,0E0],"parents":[2147483647,0,0,1,1,2,2,3,3,4,4,5,5,6,6,7,7,8,8,11,11,13,13,14,14,16,16,17,17,19,19,20,20,24,24],"right_children":[2,4,6,8,10,12,14,16,18,-1,-1,20,-1,22,24,-1,26,28,-1,30,32,-1,-1,-1,34,-1,-1,-1,-1,-1,-1,-1,-1,-1,-1],"split_conditions":[3.405484E2,1.48473E5,1.01038403E3,1.7701529E2,1.0711212E3,6.19999E9,1.3840801E7,2.6239506E5,2.0301949E1,3.5441348E-3,-3.4735797E-3,2.1599805E5,-1.3452763E-2,1.017E3,2.3219006E5,-2.600329E-2,1.1485E4,4.1237112E-2,-1.5758159E-2,6.075589E6,1.3012535E1,2.925375E-2,1.0509612E-2,1.0507864E-2,3.1984328E5,-1.4139885E-2,-6.5966365E-3,1.0049702E-3,-6.143958E-3,-3.5330476E-3,3.215884E-3,2.6258016E-3,1.0677839E-2,-2.9153706E-4,6.6195326E-3],"split_indices":[51,28,51,51,54,3,49,27,55,0,0,27,0,0,32,0,7,56,0,31,55,0,0,0,32,0,0,0,0,0,0,0,0,0,0],"split_type":[0,0,0,0,0,0,0,0,0,0,0,0,0,0,0,0,0,0,0,0,0,0,0,0,0,0,0,0,0,0,0,0,0,0,0],"sum_hessian":[1.04E2,4.5E1,5.9E1,3.6E1,9E0,3.3E1,2.6E1,1.5E1,2.1E1,5E0,4E0,2.9E1,4E0,8E0,1.8E1,4E0,1.1E1,1.6E1,5E0,1.2E1,1.7E1,4E0,4E0,7E0,1.1E1,4E0,7E0,6E0,1E1,7E0,5E0,7E0,1E1,7E0,4E0],"tree_param":{"num_deleted":"0","num_feature":"114","num_nodes":"35","size_leaf_vector":"1"}},{"base_weights":[-1.2214925E-2,-1.02808155E-1,2.3187083E-1,-2.7635187E-1,-4.6139177E-2,4.3436757E-1,1.1902892E-1,-2.2073662E-2,-1.8218628E-1,2.3485338E-3,-1.7737044E-2,3.101315E-2,9.666103E-3,1.9891737E-1,1.9248717E-2,-4.7060708E-3,-2.1943948E-1,-8.336861E-2,1.0168648E-1,5.125122E-3,1.1671832E-2,3.3517925E-3,-2.133807E-3,-1.4379366E-2,-4.9954066E-3,-6.9667917E-4,-6.1239083E-3,6.237307E-3,-1.2574869E-3],"categories":[],"categories_nodes":[],"categories_segments":[],"categories_sizes":[],"default_left":[0,0,0,0,0,0,0,0,0,0,0,0,0,0,0,0,0,0,0,0,0,0,0,0,0,0,0,0,0],"id":18,"left_children":[1,3,5,7,9,11,13,-1,15,17,-1,-1,-1,19,21,-1,23,25,27,-1,-1,-1,-1,-1,-1,-1,-1,-1,-1],"loss_changes":[2.367765E0,7.543438E-1,6.109512E-1,2.2871888E-1,9.1861594E-1,3.4501874E-1,1.5559682E-1,0E0,2.3926735E-2,4.5977053E-1,0E0,0E0,0E0,1.5685081E-2,3.377288E-2,0E0,4.8160076E-2,8.142482E-2,8.434129E-2,0E0,0E0,0E0,0E0,0E0,0E0,0E0,0E0,0E0,0E0],"parents":[2147483647,0,0,1,1,2,2,3,3,4,4,5,5,6,6,8,8,9,9,13,13,14,14,16,16,17,17,18,18],"right_children":[2,4,6,8,10,12,14,-1,16,18,-1,-1,-1,20,22,-1,24,26,28,-1,-1,-1,-1,-1,-1,-1,-1,-1,-1],"split_conditions":[9.2109607E2,1.7701529E2,1.4098E4,1.0325462E9,3.895276E7,9.901698E-1,6.0671224E7,-2.2073662E-2,6.5048E4,2.7056329E10,-1.7737044E-2,3.101315E-2,9.666103E-3,6.9089854E-1,1.4303988E-1,-4.7060708E-3,2.2194477E5,6.096518E0,8.077319E0,5.125122E-3,1.1671832E-2,3.3517925E-3,-2.133807E-3,-1.4379366E-2,-4.9954066E-3,-6.9667917E-4,-6.1239083E-3,6.237307E-3,-1.2574869E-3],"split_indices":[51,51,8,30,44,56,44,0,10,30,0,0,0,26,37,0,46,52,52,0,0,0,0,0,0,0,0,0,0],"split_type":[0,0,0,0,0,0,0,0,0,0,0,0,0,0,0,0,0,0,0,0,0,0,0,0,0,0,0,0,0],"sum_hessian":[1.05E2,7.7E1,2.8E1,1.8E1,5.9E1,9E0,1.9E1,5E0,1.3E1,5.2E1,7E0,4E0,5E0,1E1,9E0,5E0,8E0,2.8E1,2.4E1,4E0,6E0,5E0,4E0,4E0,4E0,1.1E1,1.7E1,2E1,4E0],"tree_param":{"num_deleted":"0","num_feature":"114","num_nodes":"29","size_leaf_vector":"1"}},{"base_weights":[-6.398866E-3,-9.4938E-2,2.2782595E-1,-2.5838464E-1,-2.5300948E-2,4.0749446E-1,1.0537154E-1,-2.2070672E-2,-1.5842488E-1,2.006375E-2,-1.3880761E-2,2.9796164E-2,1.0126865E-2,8.279898E-3,2.3186157E-2,-2.1210304E-1,1.0240239E-4,-2.4426404E-2,1.2350027E-1,3.2826306E-3,-1.235476E-3,-1.4815794E-2,-6.345981E-3,-6.4631724E-3,1.7281509E-3,-3.3597964E-5,1.0630606E-2],"categories":[],"categories_nodes":[],"categories_segments":[],"categories_sizes":[],"default_left":[0,0,0,0,0,0,0,0,0,0,0,0,0,0,0,0,0,0,0,0,0,0,0,0,0,0,0],"id":19,"left_children":[1,3,5,7,9,11,13,-1,15,17,-1,-1,-1,-1,19,21,-1,23,25,-1,-1,-1,-1,-1,-1,-1,-1],"loss_changes":[2.1161737E0,8.3572644E-1,5.730953E-1,3.499949E-1,6.252358E-1,3.1677842E-1,8.992003E-2,0E0,1.3829911E-1,2.1470438E-1,0E0,0E0,0E0,0E0,2.0726824E-2,5.021435E-2,0E0,2.1595901E-1,1.6222802E-1,0E0,0E0,0E0,0E0,0E0,0E0,0E0,0E0],"parents":[2147483647,0,0,1,1,2,2,3,3,4,4,5,5,6,6,8,8,9,9,14,14,15,15,17,17,18,18],"right_children":[2,4,6,8,10,12,14,-1,16,18,-1,-1,-1,-1,20,22,-1,24,26,-1,-1,-1,-1,-1,-1,-1,-1],"split_conditions":[9.2109607E2,4.8067798E2,1.4098E4,1.119403E-2,6.181E3,9.901698E-1,6.0671224E7,-2.2070672E-2,3.4537422E1,4.684559E2,-1.3880761E-2,2.9796164E-2,1.0126865E-2,8.279898E-3,9.11265E-2,1.1485E4,1.0240239E-4,1.336212E6,2.1599805E5,3.2826306E-3,-1.235476E-3,-1.4815794E-2,-6.345981E-3,-6.4631724E-3,1.7281509E-3,-3.3597964E-5,1.0630606E-2],"split_indices":[51,54,8,56,1,56,44,0,57,51,0,0,0,0,37,7,0,31,27,0,0,0,0,0,0,0,0],"split_type":[0,0,0,0,0,0,0,0,0,0,0,0,0,0,0,0,0,0,0,0,0,0,0,0,0,0,0],"sum_hessian":[1E2,7.3E1,2.7E1,2.1E1,5.2E1,1E1,1.7E1,6E0,1.5E1,4.5E1,7E0,4E0,6E0,9E0,8E0,1.1E1,4E0,3.2E1,1.3E1,4E0,4E0,4E0,7E0,1.1E1,2.1E1,6E0,7E0],"tree_param":{"num_deleted":"0","num_feature":"114","num_nodes":"27","size_leaf_vector":"1"}},{"base_weights":[-2.830067E-3,-7.996119E-2,2.0206393E-1,-2.1479678E-1,-1.485079E-2,2.3492694E-2,1.3860565E-1,-2.2038234E-2,-1.3370876E-1,2.9991858E-2,-1.3285002E-2,2.0390517E-1,3.6960352E-2,-1.5957326E-2,-6.547346E-2,1.1386758E-1,-2.799495E-2,1.2694019E-2,6.796519E-3,-1.8289539E-3,4.1553145E-3,1.9041887E-3,-5.0754785E-3,-7.605608E-4,8.572719E-3,1.7524133E-3,-5.114446E-3],"categories":[],"categories_nodes":[],"categories_segments":[],"categories_sizes":[],"default_left":[0,0,0,0,0,0,0,0,0,0,0,0,0,0,0,0,0,0,0,0,0,0,0,0,0,0,0],"id":20,"left_children":[1,3,5,7,9,-1,11,-1,13,15,-1,17,19,-1,21,23,25,-1,-1,-1,-1,-1,-1,-1,-1,-1,-1],"loss_changes":[1.675546E0,6.7280847E-1,4.431529E-1,4.1529202E-1,6.165216E-1,0E0,1.5839833E-1,0E0,2.401931E-1,2.2691725E-1,0E0,1.7940283E-2,4.215981E-2,0E0,6.742704E-2,1.5241571E-1,1.3981014E-1,0E0,0E0,0E0,0E0,0E0,0E0,0E0,0E0,0E0,0E0],"parents":[2147483647,0,0,1,1,2,2,3,3,4,4,6,6,8,8,9,9,11,11,12,12,14,14,15,15,16,16],"right_children":[2,4,6,8,10,-1,12,-1,14,16,-1,18,20,-1,22,24,26,-1,-1,-1,-1,-1,-1,-1,-1,-1,-1],"split_conditions":[9.2109607E2,4.8067798E2,7.151E3,9.513E3,6.181E3,2.3492694E-2,2.3219006E5,-2.2038234E-2,1.085E2,1.0430946E-1,-1.3285002E-2,1.4218676E-1,7.0139725E8,-1.5957326E-2,4.1237112E-2,1.5996247E1,9.607843E-1,1.2694019E-2,6.796519E-3,-1.8289539E-3,4.1553145E-3,1.9041887E-3,-5.0754785E-3,-7.605608E-4,8.572719E-3,1.7524133E-3,-5.114446E-3],"split_indices":[51,54,8,7,1,0,32,0,51,38,0,37,5,0,56,57,56,0,0,0,0,0,0,0,0,0,0],"split_type":[0,0,0,0,0,0,0,0,0,0,0,0,0,0,0,0,0,0,0,0,0,0,0,0,0,0,0],"sum_hessian":[1.04E2,7.6E1,2.8E1,2.4E1,5.2E1,4E0,2.4E1,5E0,1.9E1,4.5E1,7E0,1.4E1,1E1,4E0,1.5E1,1.8E1,2.7E1,6E0,8E0,4E0,6E0,4E0,1.1E1,6E0,1.2E1,1.5E1,1.2E1],"tree_param":{"num_deleted":"0","num_feature":"114","num_nodes":"27","size_leaf_vector":"1"}},{"base_weights":[-7.946754E-3,-1.504961E-1,1.0524663E-1,-1.6159069E-2,-1.0993224E-1,4.7113825E-2,3.0285147E-1,-2.59445E-1,-6.297911E-2,8.7589845E-2,-1.4828536E-2,2.4992805E-2,2.595457E-3,-1.8927509E-2,-3.979437E-3,-1.2353754E-1,1.9380242E-2,4.1000295E-2,1.883665E-1,-9.694375E-4,-7.942867E-3,3.951902E-3,-3.7097312E-3,3.4647705E-3,-1.7657306E-3,4.5185443E-3,1.2640707E-2],"categories":[],"categories_nodes":[],"categories_segments":[],"categories_sizes":[],"default_left":[0,0,0,0,0,0,0,0,0,0,0,0,0,0,0,0,0,0,0,0,0,0,0,0,0,0,0],"id":21,"left_children":[1,3,5,-1,7,9,11,13,15,17,-1,-1,-1,-1,-1,19,21,23,25,-1,-1,-1,-1,-1,-1,-1,-1],"loss_changes":[1.6778104E0,2.9766953E-1,6.519963E-1,0E0,2.57444E-1,6.7706555E-1,6.4456296E-1,1.7159235E-1,1.5700835E-1,1.8947268E-1,0E0,0E0,0E0,0E0,0E0,6.851441E-2,8.748018E-2,7.099907E-2,6.301749E-2,0E0,0E0,0E0,0E0,0E0,0E0,0E0,0E0],"parents":[2147483647,0,0,1,1,2,2,4,4,5,5,6,6,7,7,8,8,9,9,15,15,16,16,17,17,18,18],"right_children":[2,4,6,-1,8,10,12,14,16,18,-1,-1,-1,-1,-1,20,22,24,26,-1,-1,-1,-1,-1,-1,-1,-1],"split_conditions":[3.405484E2,2.7362996E7,1.6934047E3,-1.6159069E-2,9.576E3,7.294459E7,7.6499896E9,4.215E3,1.3346633E10,8.564393E5,-1.4828536E-2,2.4992805E-2,2.595457E-3,-1.8927509E-2,-3.979437E-3,8.231556E7,5.15E2,7.18231E-1,3E1,-9.694375E-4,-7.942867E-3,3.951902E-3,-3.7097312E-3,3.4647705E-3,-1.7657306E-3,4.5185443E-3,1.2640707E-2],"split_indices":[51,3,51,0,7,44,3,15,30,27,0,0,0,0,0,3,0,26,2,0,0,0,0,0,0,0,0],"split_type":[0,0,0,0,0,0,0,0,0,0,0,0,0,0,0,0,0,0,0,0,0,0,0,0,0,0,0],"sum_hessian":[1.02E2,4.5E1,5.7E1,7E0,3.8E1,4.5E1,1.2E1,8E0,3E1,4.1E1,4E0,6E0,6E0,4E0,4E0,1.7E1,1.3E1,2.9E1,1.2E1,5E0,1.2E1,8E0,5E0,2.1E1,8E0,6E0,6E0],"tree_param":{"num_deleted":"0","num_feature":"114","num_nodes":"27","size_leaf_vector":"1"}},{"base_weights":[-1.282433E-2,-9.010843E-2,2.1060383E-1,-2.472477E-1,-3.9787486E-2,2.709931E-2,1.23334035E-1,-1.926238E-2,-1.6109693E-1,7.6447898E-3,-2.988793E-1,1.8636087E-1,2.9065752E-2,-1.0820873E-2,-4.7250837E-3,-7.1648E-2,8.9803495E-2,-2.3548415E-2,-2.8402656E-3,1.1475114E-2,5.501434E-3,3.8147136E-3,-1.726238E-3,-1.4484887E-3,-7.981698E-3,5.725266E-3,-7.3019287E-4],"categories":[],"categories_nodes":[],"categories_segments":[],"categories_sizes":[],"default_left":[0,0,0,0,0,0,0,0,0,0,0,0,0,0,0,0,0,0,0,0,0,0,0,0,0,0,0],"id":22,"left_children":[1,3,5,7,9,-1,11,-1,13,15,17,19,21,-1,-1,23,25,-1,-1,-1,-1,-1,-1,-1,-1,-1,-1],"loss_changes":[1.7457218E0,5.8321744E-1,7.075615E-1,1.6229177E-1,7.1506506E-1,0E0,1.2529477E-1,0E0,2.8852522E-2,3.321639E-1,3.6518216E-1,1.9660622E-2,3.403353E-2,0E0,0E0,9.492651E-2,7.218537E-2,0E0,0E0,0E0,0E0,0E0,0E0,0E0,0E0,0E0,0E0],"parents":[2147483647,0,0,1,1,2,2,3,3,4,4,6,6,8,8,9,9,10,10,11,11,12,12,15,15,16,16],"right_children":[2,4,6,8,10,-1,12,-1,14,16,18,20,22,-1,-1,24,26,-1,-1,-1,-1,-1,-1,-1,-1,-1,-1],"split_conditions":[9.2109607E2,1.7701529E2,9.901698E-1,1.0325462E9,3.747436E7,2.709931E-2,2.3025133E5,-1.926238E-2,1.5497297E1,2.6960093E10,3.8E1,1.4218676E-1,8.0756325E-1,-1.0820873E-2,-4.7250837E-3,9.607843E-1,3.0345E4,-2.3548415E-2,-2.8402656E-3,1.1475114E-2,5.501434E-3,3.8147136E-3,-1.726238E-3,-1.4484887E-3,-7.981698E-3,5.725266E-3,-7.3019287E-4],"split_indices":[51,51,56,30,44,0,32,0,57,30,2,37,26,0,0,56,7,0,0,0,0,0,0,0,0,0,0],"split_type":[0,0,0,0,0,0,0,0,0,0,0,0,0,0,0,0,0,0,0,0,0,0,0,0,0,0,0],"sum_hessian":[9.9E1,7.4E1,2.5E1,1.7E1,5.7E1,4E0,2.1E1,5E0,1.2E1,4.9E1,8E0,1.2E1,9E0,5E0,7E0,2.5E1,2.4E1,4E0,4E0,6E0,6E0,5E0,4E0,1.8E1,7E0,1.9E1,5E0],"tree_param":{"num_deleted":"0","num_feature":"114","num_nodes":"27","size_leaf_vector":"1"}},{"base_weights":[6.290694E-4,-5.617271E-2,1.6882552E-1,-2.7017524E-2,-1.492426E-2,2.1177495E-2,1.0139769E-1,-1.284378E-1,5.225863E-2,7.7696205E-3,1.7157178E-2,-1.2653945E-2,-8.703004E-2,3.1061305E-3,1.5410565E-1,-2.344708E-3,3.3565562E-3,-2.663821E-3,-1.0156578E-2,-5.1767644E-3,1.5359411E-3,4.351783E-3,1.0575592E-2],"categories":[],"categories_nodes":[],"categories_segments":[],"categories_sizes":[],"default_left":[0,0,0,0,0,0,0,0,0,0,0,0,0,0,0,0,0,0,0,0,0,0,0],"id":23,"left_children":[1,3,5,7,-1,-1,9,11,13,-1,15,-1,17,19,21,-1,-1,-1,-1,-1,-1,-1,-1],"loss_changes":[9.839769E-1,5.4872084E-1,4.171489E-1,5.695266E-1,0E0,0E0,1.02921024E-1,1.438269E-1,1.9976279E-1,0E0,3.6576845E-2,0E0,8.694956E-2,8.911118E-2,3.3146203E-2,0E0,0E0,0E0,0E0,0E0,0E0,0E0,0E0],"parents":[2147483647,0,0,1,1,2,2,3,3,6,6,7,7,8,8,10,10,12,12,13,13,14,14],"right_children":[2,4,6,8,-1,-1,10,12,14,-1,16,-1,18,20,22,-1,-1,-1,-1,-1,-1,-1,-1],"split_conditions":[9.2109607E2,3.895276E7,7.151E3,2.8729197E8,-1.492426E-2,2.1177495E-2,2.3219006E5,1.81E2,7.9522475E5,7.7696205E-3,6.331E3,-1.2653945E-2,1.6460844E1,1.2153278E-3,4.684559E2,-2.344708E-3,3.3565562E-3,-2.663821E-3,-1.0156578E-2,-5.1767644E-3,1.5359411E-3,4.351783E-3,1.0575592E-2],"split_indices":[51,44,8,3,0,0,32,9,27,0,7,0,55,38,51,0,0,0,0,0,0,0,0],"split_type":[0,0,0,0,0,0,0,0,0,0,0,0,0,0,0,0,0,0,0,0,0,0,0],"sum_hessian":[1.01E2,7.6E1,2.5E1,6.9E1,7E0,4E0,2.1E1,3E1,3.9E1,1.2E1,9E0,6E0,2.4E1,2.7E1,1.2E1,4E0,5E0,2E1,4E0,5E0,2.2E1,7E0,5E0],"tree_param":{"num_deleted":"0","num_feature":"114","num_nodes":"23","size_leaf_vector":"1"}},{"base_weights":[1.1877649E-3,-7.006395E-2,2.0170414E-1,-1.9708608E-1,-1.1222533E-2,1.952438E-2,1.13084175E-1,-1.8719457E-2,-1.143693E-1,3.50343E-2,-1.7218624E-1,8.070671E-3,4.517901E-2,1.204573E-3,-1.6969171E-1,-1.0600772E-2,1.3765106E-1,-2.1627718E-3,-1.6809812E-2,4.892043E-3,-1.4382848E-3,-1.2448139E-2,-5.1073115E-3,1.458771E-3,-6.1438926E-3,1.0035656E-2,1.2483387E-3],"categories":[],"categories_nodes":[],"categories_segments":[],"categories_sizes":[],"default_left":[0,0,0,0,0,0,0,0,0,0,0,0,0,0,0,0,0,0,0,0,0,0,0,0,0,0,0],"id":24,"left_children":[1,3,5,7,9,-1,11,-1,13,15,17,-1,19,-1,21,23,25,-1,-1,-1,-1,-1,-1,-1,-1,-1,-1],"loss_changes":[1.47142E0,5.658245E-1,4.2477095E-1,3.227126E-1,4.0065297E-1,0E0,6.2443018E-2,0E0,1.4251097E-1,1.9814196E-1,2.4699053E-1,0E0,4.356808E-2,0E0,4.5252115E-2,1.4248121E-1,9.243967E-2,0E0,0E0,0E0,0E0,0E0,0E0,0E0,0E0,0E0,0E0],"parents":[2147483647,0,0,1,1,2,2,3,3,4,4,6,6,8,8,9,9,10,10,12,12,14,14,15,15,16,16],"right_children":[2,4,6,8,10,-1,12,-1,14,16,18,-1,20,-1,22,24,26,-1,-1,-1,-1,-1,-1,-1,-1,-1,-1],"split_conditions":[9.2109607E2,4.8067798E2,1.2429E4,1.119403E-2,2.71261E1,1.952438E-2,6.0671224E7,-1.8719457E-2,4.8648648E-2,4.684559E2,4.203639E1,8.070671E-3,9.11265E-2,1.204573E-3,1.1485E4,9.607843E-1,5.2884184E4,-2.1627718E-3,-1.6809812E-2,4.892043E-3,-1.4382848E-3,-1.2448139E-2,-5.1073115E-3,1.458771E-3,-6.1438926E-3,1.0035656E-2,1.2483387E-3],"split_indices":[51,54,8,56,55,0,44,0,56,51,57,0,37,0,7,56,32,0,0,0,0,0,0,0,0,0,0],"split_type":[0,0,0,0,0,0,0,0,0,0,0,0,0,0,0,0,0,0,0,0,0,0,0,0,0,0,0],"sum_hessian":[1.01E2,7.5E1,2.6E1,2.3E1,5.2E1,7E0,1.9E1,6E0,1.7E1,4.1E1,1.1E1,1E1,9E0,5E0,1.2E1,2.9E1,1.2E1,7E0,4E0,5E0,4E0,4E0,8E0,2.2E1,7E0,7E0,5E0],"tree_param":{"num_deleted":"0","num_feature":"114","num_nodes":"27","size_leaf_vector":"1"}},{"base_weights":[2.5069998E-3,-6.2172648E-2,1.802865E-1,-3.5929434E-2,-1.3931964E-2,1.8556356E-2,1.0908542E-1,-1.288487E-1,5.04269E-2,7.884976E-3,1.6597679E-2,-3.9811116E-2,-1.6970097E-1,7.290828E-3,1.5172209E-1,3.1086656E-3,-1.6432217E-3,-5.382756E-3,1.2661645E-3,-1.0294567E-2,-3.342456E-3,2.7769043E-3,-2.8978859E-3,3.7472765E-3,1.1126533E-2],"categories":[],"categories_nodes":[],"categories_segments":[],"categories_sizes":[],"default_left":[0,0,0,0,0,0,0,0,0,0,0,0,0,0,0,0,0,0,0,0,0,0,0,0,0],"id":25,"left_children":[1,3,5,7,-1,-1,9,11,13,-1,15,17,19,21,23,-1,-1,-1,-1,-1,-1,-1,-1,-1,-1],"loss_changes":[1.2070754E0,4.3810663E-1,3.5351008E-1,5.6818914E-1,0E0,0E0,1.0245547E-1,1.16915226E-1,1.6056445E-1,0E0,2.3214525E-2,5.7899117E-2,7.9537034E-2,9.172789E-2,4.490927E-2,0E0,0E0,0E0,0E0,0E0,0E0,0E0,0E0,0E0,0E0],"parents":[2147483647,0,0,1,1,2,2,3,3,6,6,7,7,8,8,10,10,11,11,12,12,13,13,14,14],"right_children":[2,4,6,8,-1,-1,10,12,14,-1,16,18,20,22,24,-1,-1,-1,-1,-1,-1,-1,-1,-1,-1],"split_conditions":[9.2109607E2,3.895276E7,9.901698E-1,2.8729197E8,-1.3931964E-2,1.8556356E-2,1.1778515E7,5.9605737E0,7.9522475E5,7.884976E-3,8.601996E-1,2.8880866E0,5.9093527E4,5.723264E-1,5.886454E0,3.1086656E-3,-1.6432217E-3,-5.382756E-3,1.2661645E-3,-1.0294567E-2,-3.342456E-3,2.7769043E-3,-2.8978859E-3,3.7472765E-3,1.1126533E-2],"split_indices":[51,44,56,3,0,0,46,52,27,0,26,55,32,26,52,0,0,0,0,0,0,0,0,0,0],"split_type":[0,0,0,0,0,0,0,0,0,0,0,0,0,0,0,0,0,0,0,0,0,0,0,0,0],"sum_hessian":[1.03E2,7.6E1,2.7E1,6.9E1,7E0,6E0,2.1E1,3.3E1,3.6E1,1.3E1,8E0,1.1E1,2.2E1,2.6E1,1E1,4E0,4E0,5E0,6E0,1.5E1,7E0,1.5E1,1.1E1,6E0,4E0],"tree_param":{"num_deleted":"0","num_feature":"114","num_nodes":"25","size_leaf_vector":"1"}},{"base_weights":[-4.4667744E-3,-7.277483E-2,1.653457E-1,-4.931416E-2,-1.678402E-2,2.9753852E-1,7.776274E-2,-2.0366634E-1,5.908168E-3,2.1058159E-2,6.9694836E-3,-1.1543185E-3,1.22856095E-1,-7.355228E-2,-2.9160818E-1,-7.290648E-2,5.827223E-2,7.5331875E-3,1.807083E-3,-5.4881694E-3,-1.0059159E-3,-1.8959135E-2,-4.925402E-3,-5.3356206E-3,9.5638144E-4,1.569082E-3,6.691058E-3],"categories":[],"categories_nodes":[],"categories_segments":[],"categories_sizes":[],"default_left":[0,0,0,0,0,0,0,0,0,0,0,0,0,0,0,0,0,0,0,0,0,0,0,0,0,0,0],"id":26,"left_children":[1,3,5,7,-1,9,11,13,15,-1,-1,-1,17,19,21,23,25,-1,-1,-1,-1,-1,-1,-1,-1,-1,-1],"loss_changes":[1.2531859E0,4.697873E-1,3.3577543E-1,6.149088E-1,0E0,1.8481183E-1,9.42464E-2,1.959585E-1,2.2710942E-1,0E0,0E0,0E0,3.1338006E-2,1.6006425E-2,1.607961E-1,7.504096E-2,6.34096E-2,0E0,0E0,0E0,0E0,0E0,0E0,0E0,0E0,0E0,0E0],"parents":[2147483647,0,0,1,1,2,2,3,3,5,5,6,6,7,7,8,8,12,12,13,13,14,14,15,15,16,16],"right_children":[2,4,6,8,-1,10,12,14,16,-1,-1,-1,18,20,22,24,26,-1,-1,-1,-1,-1,-1,-1,-1,-1,-1],"split_conditions":[8.739511E2,3.895276E7,1.4098E4,1.7701529E2,-1.678402E-2,9.901698E-1,5.62E0,8.2092184E7,1.5060505E10,2.1058159E-2,6.9694836E-3,-1.1543185E-3,6.0671224E7,5.0515676E-1,6.522946E5,3.1274893E2,8.564393E5,7.5331875E-3,1.807083E-3,-5.4881694E-3,-1.0059159E-3,-1.8959135E-2,-4.925402E-3,-5.3356206E-3,9.5638144E-4,1.569082E-3,6.691058E-3],"split_indices":[51,44,8,51,0,56,53,5,30,0,0,0,44,26,47,51,27,0,0,0,0,0,0,0,0,0,0],"split_type":[0,0,0,0,0,0,0,0,0,0,0,0,0,0,0,0,0,0,0,0,0,0,0,0,0,0,0],"sum_hessian":[1.06E2,7.6E1,3E1,7.1E1,5E0,1.1E1,1.9E1,1.8E1,5.3E1,5E0,6E0,6E0,1.3E1,8E0,1E1,2.1E1,3.2E1,9E0,4E0,4E0,4E0,6E0,4E0,1.5E1,6E0,2.5E1,7E0],"tree_param":{"num_deleted":"0","num_feature":"114","num_nodes":"27","size_leaf_vector":"1"}},{"base_weights":[5.9912847E-3,-1.13120675E-1,1.0201161E-1,-1.341937E-2,-7.7305615E-2,7.570645E-2,1.7680198E-2,-1.0961598E-2,-3.8348038E-2,2.1735894E-2,1.7944166E-1,-7.189108E-2,3.4957528E-3,5.618647E-3,-2.3682704E-2,4.8722816E-3,2.2139138E-1,-2.1154152E-3,-8.746963E-3,-5.2481573E-3,-1.333725E-4,1.2943747E-2,5.769667E-3],"categories":[],"categories_nodes":[],"categories_segments":[],"categories_sizes":[],"default_left":[0,0,0,0,0,0,0,0,0,0,0,0,0,0,0,0,0,0,0,0,0,0,0],"id":27,"left_children":[1,3,5,-1,7,9,-1,-1,11,13,15,17,-1,-1,19,-1,21,-1,-1,-1,-1,-1,-1],"loss_changes":[1.1781309E0,2.4320471E-1,3.6020404E-1,0E0,2.1350859E-1,2.92828E-1,0E0,0E0,1.227823E-1,1.5446481E-1,3.8500488E-2,6.884588E-2,0E0,0E0,4.3371562E-2,0E0,1.746118E-2,0E0,0E0,0E0,0E0,0E0,0E0],"parents":[2147483647,0,0,1,1,2,2,4,4,5,5,8,8,9,9,10,10,11,11,14,14,16,16],"right_children":[2,4,6,-1,8,10,-1,-1,12,14,16,18,-1,-1,20,-1,22,-1,-1,-1,-1,-1,-1],"split_conditions":[3.405484E2,2.7362996E7,1.0946131E2,-1.341937E-2,3.7E1,8.564393E5,1.7680198E-2,-1.0961598E-2,9.82337E6,5.0123274E-1,2.9E1,2.0301949E1,3.4957528E-3,5.618647E-3,1.5998206E-3,4.8722816E-3,4.965E3,-2.1154152E-3,-8.746963E-3,-5.2481573E-3,-1.333725E-4,1.2943747E-2,5.769667E-3],"split_indices":[51,3,55,0,8,27,0,0,44,26,2,55,0,0,38,0,1,0,0,0,0,0,0],"split_type":[0,0,0,0,0,0,0,0,0,0,0,0,0,0,0,0,0,0,0,0,0,0,0],"sum_hessian":[1.01E2,4.5E1,5.6E1,7E0,3.8E1,5.2E1,4E0,7E0,3.1E1,3.5E1,1.7E1,2.4E1,7E0,1.1E1,2.4E1,7E0,1E1,2E1,4E0,4E0,2E1,6E0,4E0],"tree_param":{"num_deleted":"0","num_feature":"114","num_nodes":"23","size_leaf_vector":"1"}},{"base_weights":[-1.39769E-3,-1.1388787E-1,7.792158E-2,-1.4674898E-2,-7.575544E-2,1.542241E-2,5.1191565E-2,-4.0058825E-2,-1.2435034E-2,-8.9491464E-2,8.37203E-2,-8.630578E-2,2.5566256E-2,1.999978E-3,-1.2457223E-2,4.7428843E-2,1.9488141E-1,-7.3700394E-3,-1.2822036E-3,3.424843E-3,-2.2111367E-3,4.1485275E-3,-5.0105015E-4,1.358203E-2,3.9430982E-3],"categories":[],"categories_nodes":[],"categories_segments":[],"categories_sizes":[],"default_left":[0,0,0,0,0,0,0,0,0,0,0,0,0,0,0,0,0,0,0,0,0,0,0,0,0],"id":28,"left_children":[1,3,5,-1,7,-1,9,11,-1,13,15,17,19,-1,-1,21,23,-1,-1,-1,-1,-1,-1,-1,-1],"loss_changes":[9.2790604E-1,2.811507E-1,3.6951402E-1,0E0,2.246203E-1,0E0,2.6376176E-1,9.932524E-2,0E0,2.4602944E-1,1.7633012E-1,6.917243E-2,4.6917185E-2,0E0,0E0,7.794966E-2,8.103192E-2,0E0,0E0,0E0,0E0,0E0,0E0,0E0,0E0],"parents":[2147483647,0,0,1,1,2,2,4,4,6,6,7,7,9,9,10,10,11,11,12,12,15,15,16,16],"right_children":[2,4,6,-1,8,-1,10,12,-1,14,16,18,20,-1,-1,22,24,-1,-1,-1,-1,-1,-1,-1,-1],"split_conditions":[3.3969492E2,2.7362996E7,1.119369E3,-1.4674898E-2,1E0,1.542241E-2,1.0702152E-2,2.8490282E8,-1.2435034E-2,3.747436E7,9.855582E5,3.8343488E6,7.2967033E0,1.999978E-3,-1.2457223E-2,2.0749E4,2.6790404E-1,-7.3700394E-3,-1.2822036E-3,3.424843E-3,-2.2111367E-3,4.1485275E-3,-5.0105015E-4,1.358203E-2,3.9430982E-3],"split_indices":[51,3,32,0,88,0,37,3,0,44,27,31,52,0,0,7,37,0,0,0,0,0,0,0,0],"split_type":[0,0,0,0,0,0,0,0,0,0,0,0,0,0,0,0,0,0,0,0,0,0,0,0,0],"sum_hessian":[1.02E2,4.2E1,6E1,6E0,3.6E1,5E0,5.5E1,3.1E1,5E0,1E1,4.5E1,1.8E1,1.3E1,6E0,4E0,3.5E1,1E1,8E0,1E1,8E0,5E0,2.1E1,1.4E1,5E0,5E0],"tree_param":{"num_deleted":"0","num_feature":"114","num_nodes":"25","size_leaf_vector":"1"}},{"base_weights":[6.1382256E-3,-5.192465E-2,1.5008266E-1,-2.5222339E-2,-1.2870553E-2,2.8331912E-1,6.504669E-2,-1.8617083E-1,1.8594991E-2,2.2122836E-2,6.036327E-3,6.239405E-3,-3.6132485E-3,-2.7954448E-3,-1.50689995E-2,-4.6647932E-2,8.563207E-2,1.5459463E-3,-2.2096038E-3,-7.299261E-4,-4.8640994E-3,1.7123637E-4,5.9815585E-3],"categories":[],"categories_nodes":[],"categories_segments":[],"categories_sizes":[],"default_left":[0,0,0,0,0,0,0,0,0,0,0,0,0,0,0,0,0,0,0,0,0,0,0],"id":29,"left_children":[1,3,5,7,-1,9,11,13,15,-1,-1,-1,17,-1,-1,19,21,-1,-1,-1,-1,-1,-1],"loss_changes":[8.435758E-1,3.980162E-1,3.1013787E-1,4.618635E-1,0E0,2.4011737E-1,8.154357E-2,2.0139414E-1,2.314267E-1,0E0,0E0,0E0,1.59755E-2,0E0,0E0,4.3567706E-2,7.712725E-2,0E0,0E0,0E0,0E0,0E0,0E0],"parents":[2147483647,0,0,1,1,2,2,3,3,5,5,6,6,7,7,8,8,12,12,15,15,16,16],"right_children":[2,4,6,8,-1,10,12,14,16,-1,-1,-1,18,-1,-1,20,22,-1,-1,-1,-1,-1,-1],"split_conditions":[9.2109607E2,3.747436E7,1.4098E4,1.7701529E2,-1.2870553E-2,9.901698E-1,6.0671224E7,7.105196E7,2.6960093E10,2.2122836E-2,6.036327E-3,6.239405E-3,1.4303988E-1,-2.7954448E-3,-1.50689995E-2,5.15E2,1E0,1.5459463E-3,-2.2096038E-3,-7.299261E-4,-4.8640994E-3,1.7123637E-4,5.9815585E-3],"split_indices":[51,44,8,51,0,56,44,5,30,0,0,0,37,0,0,0,108,0,0,0,0,0,0],"split_type":[0,0,0,0,0,0,0,0,0,0,0,0,0,0,0,0,0,0,0,0,0,0,0],"sum_hessian":[9.9E1,7.1E1,2.8E1,6.4E1,7E0,1E1,1.8E1,1.3E1,5.1E1,4E0,6E0,9E0,9E0,7E0,6E0,2.6E1,2.5E1,5E0,4E0,1.7E1,9E0,8E0,1.7E1],"tree_param":{"num_deleted":"0","num_feature":"114","num_nodes":"23","size_leaf_vector":"1"}},{"base_weights":[-4.262168E-3,-5.99256E-2,1.4560024E-1,-3.7537575E-2,-1.2318152E-2,2.719819E-1,6.476875E-2,-1.75327E-1,9.087374E-3,2.1254715E-2,5.782536E-3,-1.7160737E-3,1.0289417E-1,-2.6754648E-3,-2.472301E-1,-5.929738E-2,5.4401837E-2,6.4632716E-3,1.2052797E-3,-1.6755944E-2,-3.2209144E-3,-4.993483E-3,9.2594986E-5,7.0960824E-3,1.6243976E-3],"categories":[],"categories_nodes":[],"categories_segments":[],"categories_sizes":[],"default_left":[0,0,0,0,0,0,0,0,0,0,0,0,0,0,0,0,0,0,0,0,0,0,0,0,0],"id":30,"left_children":[1,3,5,7,-1,9,11,13,15,-1,-1,-1,17,-1,19,21,23,-1,-1,-1,-1,-1,-1,-1,-1],"loss_changes":[8.929619E-1,3.2446456E-1,2.7863693E-1,4.5772743E-1,0E0,2.2238612E-1,7.586001E-2,1.428386E-1,1.7056207E-1,0E0,0E0,0E0,2.8420433E-2,0E0,1.660493E-1,5.7405792E-2,5.8613144E-2,0E0,0E0,0E0,0E0,0E0,0E0,0E0,0E0],"parents":[2147483647,0,0,1,1,2,2,3,3,5,5,6,6,7,7,8,8,12,12,14,14,15,15,16,16],"right_children":[2,4,6,8,-1,10,12,14,16,-1,-1,-1,18,-1,20,22,24,-1,-1,-1,-1,-1,-1,-1,-1],"split_conditions":[9.2109607E2,3.895276E7,1.4098E4,1.7701529E2,-1.2318152E-2,9.901698E-1,5.62E0,7.105196E7,2.8729197E8,2.1254715E-2,5.782536E-3,-1.7160737E-3,6.0671224E7,-2.6754648E-3,6.522946E5,2.98022E2,3.2145E4,6.4632716E-3,1.2052797E-3,-1.6755944E-2,-3.2209144E-3,-4.993483E-3,9.2594986E-5,7.0960824E-3,1.6243976E-3],"split_indices":[51,44,8,51,0,56,53,5,3,0,0,0,44,0,47,51,28,0,0,0,0,0,0,0,0],"split_type":[0,0,0,0,0,0,0,0,0,0,0,0,0,0,0,0,0,0,0,0,0,0,0,0,0],"sum_hessian":[1.05E2,7.7E1,2.8E1,7E1,7E0,1E1,1.8E1,1.7E1,5.3E1,4E0,6E0,5E0,1.3E1,7E0,1E1,2.1E1,3.2E1,9E0,4E0,6E0,4E0,1.2E1,9E0,5E0,2.7E1],"tree_param":{"num_deleted":"0","num_feature":"114","num_nodes":"25","size_leaf_vector":"1"}},{"base_weights":[2.7741396E-3,-3.3018228E-2,2.1018492E-1,-1.4257541E-1,1.8134005E-3,1.7681865E-2,6.993648E-2,-1.4603579E-2,-6.066896E-2,2.12531E-2,-1.1943445E-2,1.5181839E-4,6.02302E-3,1.1702111E-3,-1.0531761E-1,-2.4242891E-2,7.2106786E-2,-7.4478374E-3,-1.3944985E-3,-4.4020195E-3,7.6342793E-4,5.4150317E-3,-1.9936045E-4],"categories":[],"categories_nodes":[],"categories_segments":[],"categories_sizes":[],"default_left":[0,0,0,0,0,0,0,0,0,0,0,0,0,0,0,0,0,0,0,0,0,0,0],"id":31,"left_children":[1,3,5,7,9,-1,11,-1,13,15,-1,-1,-1,-1,17,19,21,-1,-1,-1,-1,-1,-1],"loss_changes":[7.567359E-1,3.3225533E-1,2.9096484E-1,2.4879402E-1,3.2467207E-1,0E0,3.1415503E-2,0E0,5.912207E-2,1.4750732E-1,0E0,0E0,0E0,0E0,3.145209E-2,9.004721E-2,8.794367E-2,0E0,0E0,0E0,0E0,0E0,0E0],"parents":[2147483647,0,0,1,1,2,2,3,3,4,4,6,6,8,8,9,9,14,14,15,15,16,16],"right_children":[2,4,6,8,10,-1,12,-1,14,16,-1,-1,-1,-1,18,20,22,-1,-1,-1,-1,-1,-1],"split_conditions":[1.6934047E3,4.8067798E2,1.7344933E9,1.119403E-2,7.294459E7,1.7681865E-2,2.4654E4,-1.4603579E-2,4.8648648E-2,4.684559E2,-1.1943445E-2,1.5181839E-4,6.02302E-3,1.1702111E-3,3.5E1,1.336212E6,2.6921875E1,-7.4478374E-3,-1.3944985E-3,-4.4020195E-3,7.6342793E-4,5.4150317E-3,-1.9936045E-4],"split_indices":[51,54,10,56,44,0,1,0,56,51,0,0,0,0,2,31,55,0,0,0,0,0,0],"split_type":[0,0,0,0,0,0,0,0,0,0,0,0,0,0,0,0,0,0,0,0,0,0,0],"sum_hessian":[1E2,8.6E1,1.4E1,2E1,6.6E1,6E0,8E0,6E0,1.4E1,6.2E1,4E0,4E0,4E0,5E0,9E0,3.3E1,2.9E1,5E0,4E0,1.2E1,2.1E1,1.9E1,1E1],"tree_param":{"num_deleted":"0","num_feature":"114","num_nodes":"23","size_leaf_vector":"1"}},{"base_weights":[-2.4558604E-3,-4.845258E-2,1.3732883E-1,-2.812996E-2,-1.1425027E-2,1.9847149E-2,7.325095E-2,-1.5621012E-1,1.5056938E-2,1.1249847E-1,-3.005829E-4,-1.4194708E-2,-8.797701E-2,8.1016794E-2,-2.278668E-2,3.4261984E-3,8.085123E-3,1.9182866E-3,-1.9448255E-3,-9.770964E-4,-6.061408E-3,-2.571711E-3,6.7636874E-3,1.3414386E-3,-3.055231E-3],"categories":[],"categories_nodes":[],"categories_segments":[],"categories_sizes":[],"default_left":[0,0,0,0,0,0,0,0,0,0,0,0,0,0,0,0,0,0,0,0,0,0,0,0,0],"id":32,"left_children":[1,3,5,7,-1,-1,9,11,13,15,17,-1,19,21,23,-1,-1,-1,-1,-1,-1,-1,-1,-1,-1],"loss_changes":[7.010548E-1,3.0085552E-1,4.3280464E-1,4.1720593E-1,0E0,0E0,6.6428274E-2,1.4719346E-1,1.4412719E-1,2.1965235E-2,1.5506494E-2,0E0,3.1454407E-2,1.666102E-1,7.497472E-2,0E0,0E0,0E0,0E0,0E0,0E0,0E0,0E0,0E0,0E0],"parents":[2147483647,0,0,1,1,2,2,3,3,6,6,7,7,8,8,9,9,10,10,12,12,13,13,14,14],"right_children":[2,4,6,8,-1,-1,10,12,14,16,18,-1,20,22,24,-1,-1,-1,-1,-1,-1,-1,-1,-1,-1],"split_conditions":[9.2109607E2,3.895276E7,9.901698E-1,1.7701529E2,-1.1425027E-2,1.9847149E-2,1.1778515E7,1.0325462E9,5.416243E-2,1.5467347E3,8.601996E-1,-1.4194708E-2,6.5048E4,6.973055E7,6.096518E0,3.4261984E-3,8.085123E-3,1.9182866E-3,-1.9448255E-3,-9.770964E-4,-6.061408E-3,-2.571711E-3,6.7636874E-3,1.3414386E-3,-3.055231E-3],"split_indices":[51,44,56,51,0,0,46,30,38,51,26,0,10,5,52,0,0,0,0,0,0,0,0,0,0],"split_type":[0,0,0,0,0,0,0,0,0,0,0,0,0,0,0,0,0,0,0,0,0,0,0,0,0],"sum_hessian":[1.07E2,8.1E1,2.6E1,7.4E1,7E0,4E0,2.2E1,1.8E1,5.6E1,1.4E1,8E0,5E0,1.3E1,2E1,3.6E1,9E0,5E0,4E0,4E0,5E0,8E0,6E0,1.4E1,1.6E1,2E1],"tree_param":{"num_deleted":"0","num_feature":"114","num_nodes":"25","size_leaf_vector":"1"}},{"base_weights":[1.2016477E-3,-4.7432043E-2,1.3927326E-1,-1.5508885E-2,-2.6668457E-2,2.598924E-1,5.5181716E-2,8.117951E-3,-2.045009E-1,1.9068329E-2,5.356437E-3,-1.327346E-3,9.502455E-2,-7.115968E-2,4.0791165E-2,-2.947566E-3,-1.7941626E-2,1.7237787E-3,6.093261E-3,8.037296E-4,-4.8735817E-3,5.3171616E-4,7.1653775E-3],"categories":[],"categories_nodes":[],"categories_segments":[],"categories_sizes":[],"default_left":[0,0,0,0,0,0,0,0,0,0,0,0,0,0,0,0,0,0,0,0,0,0,0],"id":33,"left_children":[1,3,5,-1,7,9,11,13,15,-1,-1,-1,17,19,21,-1,-1,-1,-1,-1,-1,-1,-1],"loss_changes":[6.4452463E-1,3.8775674E-1,2.3923498E-1,0E0,4.161323E-1,1.5171647E-1,5.4999575E-2,1.5054722E-1,2.3420218E-1,0E0,0E0,0E0,1.4867313E-2,4.3593355E-2,1.2771037E-1,0E0,0E0,0E0,0E0,0E0,0E0,0E0,0E0],"parents":[2147483647,0,0,1,1,2,2,4,4,5,5,6,6,7,7,8,8,12,12,13,13,14,14],"right_children":[2,4,6,-1,8,10,12,14,16,-1,-1,-1,18,20,22,-1,-1,-1,-1,-1,-1,-1,-1],"split_conditions":[9.2109607E2,2.7362996E7,1.4098E4,-1.5508885E-2,2.71261E1,9.901698E-1,3.8410637E0,4.921933E0,5.396051E5,1.9068329E-2,5.356437E-3,-1.327346E-3,5.405513E-1,4.569361E7,8.564393E5,-2.947566E-3,-1.7941626E-2,1.7237787E-3,6.093261E-3,8.037296E-4,-4.8735817E-3,5.3171616E-4,7.1653775E-3],"split_indices":[51,3,8,0,55,56,52,55,27,0,0,0,26,3,27,0,0,0,0,0,0,0,0],"split_type":[0,0,0,0,0,0,0,0,0,0,0,0,0,0,0,0,0,0,0,0,0,0,0],"sum_hessian":[9.4E1,7E1,2.4E1,4E0,6.6E1,9E0,1.5E1,5.6E1,1E1,4E0,5E0,5E0,1E1,1.6E1,4E1,6E0,4E0,4E0,6E0,4E0,1.2E1,3.2E1,8E0],"tree_param":{"num_deleted":"0","num_feature":"114","num_nodes":"23","size_leaf_vector":"1"}},{"base_weights":[3.0104248E-3,-2.8691132E-2,1.8667875E-1,-1.0467063E-1,9.141011E-3,1.761838E-2,6.450791E-2,3.8519233E-2,-1.8206103E-1,-3.878104E-2,5.6758363E-2,6.519899E-3,-1.5960186E-4,4.1260617E-3,-1.6197771E-3,-2.8221282E-1,-6.370316E-2,-5.6131087E-2,2.903605E-3,1.08462535E-1,1.6263213E-2,-4.2309314E-3,-1.9545672E-2,-7.0217517E-3,6.436028E-4,-3.846024E-3,1.8609673E-4,2.669094E-3,7.211304E-3,-1.9231328E-3,1.7124854E-3],"categories":[],"categories_nodes":[],"categories_segments":[],"categories_sizes":[],"default_left":[0,0,0,0,0,0,0,0,0,0,0,0,0,0,0,0,0,0,0,0,0,0,0,0,0,0,0,0,0,0,0],"id":34,"left_children":[1,3,5,7,9,-1,11,13,15,17,19,-1,-1,-1,-1,21,23,25,-1,27,29,-1,-1,-1,-1,-1,-1,-1,-1,-1,-1],"loss_changes":[5.934358E-1,2.5103545E-1,2.9295594E-1,3.28377E-1,1.3683449E-1,0E0,4.678993E-2,3.8661562E-2,2.0724344E-1,5.4319598E-2,6.1049096E-2,0E0,0E0,0E0,0E0,1.9345391E-1,6.291391E-2,3.5006672E-2,0E0,1.9088775E-2,1.9989047E-2,0E0,0E0,0E0,0E0,0E0,0E0,0E0,0E0,0E0,0E0],"parents":[2147483647,0,0,1,1,2,2,3,3,4,4,6,6,7,7,8,8,9,9,10,10,15,15,16,16,17,17,19,19,20,20],"right_children":[2,4,6,8,10,-1,12,14,16,18,20,-1,-1,-1,-1,22,24,26,-1,28,30,-1,-1,-1,-1,-1,-1,-1,-1,-1,-1],"split_conditions":[1.6934047E3,1.0077E4,1E0,6.891E3,2.6960093E10,1.761838E-2,6.0671224E7,8.667E3,1.0644666E6,1E0,5.416243E-2,6.519899E-3,-1.5960186E-4,4.1260617E-3,-1.6197771E-3,2.0844644E3,1.5445154E8,1.20171E5,2.903605E-3,7.235588E3,4.203639E1,-4.2309314E-3,-1.9545672E-2,-7.0217517E-3,6.436028E-4,-3.846024E-3,1.8609673E-4,2.669094E-3,7.211304E-3,-1.9231328E-3,1.7124854E-3],"split_indices":[51,7,6,7,30,0,44,1,31,78,38,0,0,0,0,50,5,28,0,46,57,0,0,0,0,0,0,0,0,0,0],"split_type":[0,0,0,0,0,0,0,0,0,0,0,0,0,0,0,0,0,0,0,0,0,0,0,0,0,0,0,0,0,0,0],"sum_hessian":[1E2,8.6E1,1.4E1,2.8E1,5.8E1,5E0,9E0,1E1,1.8E1,2.9E1,2.9E1,4E0,5E0,6E0,4E0,9E0,9E0,2.5E1,4E0,1.2E1,1.7E1,4E0,5E0,4E0,5E0,1.8E1,7E0,6E0,6E0,4E0,1.3E1],"tree_param":{"num_deleted":"0","num_feature":"114","num_nodes":"31","size_leaf_vector":"1"}},{"base_weights":[-5.6212097E-3,-3.4810767E-2,1.6621876E-1,-8.716404E-2,1.7177034E-2,1.5242274E-2,4.8430387E-2,-1.9824794E-1,-5.1783305E-2,4.931214E-2,-8.735399E-3,5.1355655E-3,-1.4115447E-3,-1.3502186E-2,-2.4903845E-3,-9.956033E-2,2.4927016E-2,8.948543E-2,1.2234842E-2,-1.0991064E-2,-2.5764045E-3,2.953855E-3,-1.8663432E-3,1.7222976E-3,6.4149383E-3,-2.2279178E-3,1.5094762E-3],"categories":[],"categories_nodes":[],"categories_segments":[],"categories_sizes":[],"default_left":[0,0,0,0,0,0,0,0,0,0,0,0,0,0,0,0,0,0,0,0,0,0,0,0,0,0,0],"id":35,"left_children":[1,3,5,7,9,-1,11,13,15,17,-1,-1,-1,-1,-1,19,21,23,25,-1,-1,-1,-1,-1,-1,-1,-1],"loss_changes":[5.525228E-1,2.5733995E-1,2.5732177E-1,1.7445484E-1,3.099745E-1,0E0,4.645574E-2,1.1096874E-1,1.3808641E-1,6.146487E-2,0E0,0E0,0E0,0E0,0E0,1.22930914E-1,3.5630293E-2,4.0314898E-2,2.5981259E-2,0E0,0E0,0E0,0E0,0E0,0E0,0E0,0E0],"parents":[2147483647,0,0,1,1,2,2,3,3,4,4,6,6,7,7,8,8,9,9,15,15,16,16,17,17,18,18],"right_children":[2,4,6,8,10,-1,12,14,16,18,-1,-1,-1,-1,-1,20,22,24,26,-1,-1,-1,-1,-1,-1,-1,-1],"split_conditions":[1.6934047E3,3.3969492E2,1.7344933E9,9.576E3,6.6932364E7,1.5242274E-2,3.8014093E2,4.215E3,1.3346633E10,5.2884184E4,-8.735399E-3,5.1355655E-3,-1.4115447E-3,-1.3502186E-2,-2.4903845E-3,2.1293039E5,7.2967033E0,4.684559E2,6.700177E8,-1.0991064E-2,-2.5764045E-3,2.953855E-3,-1.8663432E-3,1.7222976E-3,6.4149383E-3,-2.2279178E-3,1.5094762E-3],"split_indices":[51,51,10,7,44,0,57,15,30,32,0,0,0,0,0,27,52,51,3,0,0,0,0,0,0,0,0],"split_type":[0,0,0,0,0,0,0,0,0,0,0,0,0,0,0,0,0,0,0,0,0,0,0,0,0,0,0],"sum_hessian":[1.08E2,9.3E1,1.5E1,4.6E1,4.7E1,6E0,9E0,1E1,3.6E1,4.1E1,6E0,5E0,4E0,6E0,4E0,2.2E1,1.4E1,1.9E1,2.2E1,5E0,1.7E1,9E0,5E0,9E0,1E1,5E0,1.7E1],"tree_param":{"num_deleted":"0","num_feature":"114","num_nodes":"27","size_leaf_vector":"1"}},{"base_weights":[-5.947822E-3,-9.0790026E-2,5.340146E-2,-1.195704E-1,1.6883042E-3,3.28699E-2,1.3979267E-2,-8.7507896E-2,-1.301319E-2,-1.2337276E-2,1.21640764E-1,-1.1928743E-2,-5.5436887E-2,1.777259E-2,-9.119689E-3,1.6527065E-3,1.5692575E-1,2.6612924E-4,-4.491001E-3,3.2000693E-3,-1.0344642E-3,9.675753E-3,3.446951E-3],"categories":[],"categories_nodes":[],"categories_segments":[],"categories_sizes":[],"default_left":[0,0,0,0,0,0,0,0,0,0,0,0,0,0,0,0,0,0,0,0,0,0,0],"id":36,"left_children":[1,3,5,7,-1,9,-1,11,-1,13,15,-1,17,19,-1,-1,21,-1,-1,-1,-1,-1,-1],"loss_changes":[5.3859264E-1,1.6267255E-1,2.9019392E-1,1.4499068E-1,0E0,2.3827244E-1,0E0,1.4129744E-1,0E0,2.123688E-1,5.677697E-2,0E0,5.985318E-2,6.593894E-2,0E0,0E0,3.506744E-2,0E0,0E0,0E0,0E0,0E0,0E0],"parents":[2147483647,0,0,1,1,2,2,3,3,5,5,7,7,9,9,10,10,12,12,13,13,16,16],"right_children":[2,4,6,8,-1,10,-1,12,-1,14,16,-1,18,20,-1,-1,22,-1,-1,-1,-1,-1,-1],"split_conditions":[3.3969492E2,1.51215E5,8.08923E3,1.30539875E1,1.6883042E-3,8.27251E5,1.3979267E-2,4.1749332E4,-1.301319E-2,6.4044494E5,4.684559E2,-1.1928743E-2,7.4074075E-2,5.0123274E-1,-9.119689E-3,1.6527065E-3,2.6790404E-1,2.6612924E-4,-4.491001E-3,3.2000693E-3,-1.0344642E-3,9.675753E-3,3.446951E-3],"split_indices":[51,28,51,53,0,27,0,31,0,27,51,0,56,26,0,0,37,0,0,0,0,0,0],"split_type":[0,0,0,0,0,0,0,0,0,0,0,0,0,0,0,0,0,0,0,0,0,0,0],"sum_hessian":[1.05E2,4.3E1,6.2E1,3.5E1,8E0,5.8E1,4E0,3E1,5E0,3.9E1,1.9E1,4E0,2.6E1,3.4E1,5E0,6E0,1.3E1,1E1,1.6E1,1.5E1,1.9E1,8E0,5E0],"tree_param":{"num_deleted":"0","num_feature":"114","num_nodes":"23","size_leaf_vector":"1"}},{"base_weights":[-2.5074428E-3,-8.1628315E-2,5.3524368E-2,-1.8306735E-1,-4.83656E-2,3.4590706E-2,1.3430706E-2,-1.2477491E-2,-2.2867816E-3,-9.356369E-3,-2.460706E-2,5.7406846E-2,-6.0696932E-3,-4.353257E-2,3.1715948E-3,2.55066E-2,1.14828005E-1,-4.996629E-3,-6.6758273E-4,3.3229836E-3,-7.775303E-4,9.6846186E-4,6.8116137E-3],"categories":[],"categories_nodes":[],"categories_segments":[],"categories_sizes":[],"default_left":[0,0,0,0,0,0,0,0,0,0,0,0,0,0,0,0,0,0,0,0,0,0,0],"id":37,"left_children":[1,3,5,7,9,11,-1,-1,-1,-1,13,15,-1,17,-1,19,21,-1,-1,-1,-1,-1,-1],"loss_changes":[4.9203053E-1,1.463562E-1,2.6163173E-1,9.5170796E-2,1.17086254E-1,2.2746877E-1,0E0,0E0,0E0,0E0,5.6875687E-2,9.598556E-2,0E0,4.5741573E-2,0E0,6.396249E-2,4.068792E-2,0E0,0E0,0E0,0E0,0E0,0E0],"parents":[2147483647,0,0,1,1,2,2,3,3,4,4,5,5,10,10,11,11,13,13,15,15,16,16],"right_children":[2,4,6,8,10,12,-1,-1,-1,-1,14,16,-1,18,-1,20,22,-1,-1,-1,-1,-1,-1],"split_conditions":[3.3969492E2,9.576E3,8.08923E3,4.215E3,1.085E2,7.6599895E9,1.3430706E-2,-1.2477491E-2,-2.2867816E-3,-9.356369E-3,1.3201289E7,8.564393E5,-6.0696932E-3,1.1266112E6,3.1715948E-3,5.0123274E-1,5.28E2,-4.996629E-3,-6.6758273E-4,3.3229836E-3,-7.775303E-4,9.6846186E-4,6.8116137E-3],"split_indices":[51,7,51,15,51,3,0,0,0,0,44,27,0,31,0,26,0,0,0,0,0,0,0],"split_type":[0,0,0,0,0,0,0,0,0,0,0,0,0,0,0,0,0,0,0,0,0,0,0],"sum_hessian":[1.09E2,4.5E1,6.4E1,1E1,3.5E1,6E1,4E0,6E0,4E0,4E0,3.1E1,5.3E1,7E0,2.6E1,5E0,3.5E1,1.8E1,8E0,1.8E1,1.7E1,1.8E1,4E0,1.4E1],"tree_param":{"num_deleted":"0","num_feature":"114","num_nodes":"23","size_leaf_vector":"1"}},{"base_weights":[9.6107234E-4,-3.9131466E-2,1.1118123E-1,-1.4984673E-1,-1.6386392E-2,1.427166E-2,6.909591E-2,8.007317E-4,-1.2544555E-2,-3.6403514E-2,5.913338E-2,1.279193E-1,3.1689256E-2,-1.0686483E-1,-1.2593498E-2,-5.026084E-4,5.5157645E-3,8.537397E-3,2.7568683E-3,-8.9754385E-4,2.7505076E-3,-1.9381105E-3,-1.0140199E-2,1.56754E-3,-1.8546974E-3],"categories":[],"categories_nodes":[],"categories_segments":[],"categories_sizes":[],"default_left":[0,0,0,0,0,0,0,0,0,0,0,0,0,0,0,0,0,0,0,0,0,0,0,0,0],"id":38,"left_children":[1,3,5,7,9,-1,11,-1,-1,13,15,17,19,21,23,-1,-1,-1,-1,-1,-1,-1,-1,-1,-1],"loss_changes":[4.639273E-1,1.9144806E-1,1.9173917E-1,2.329373E-1,1.0041241E-1,0E0,4.875561E-2,0E0,0E0,8.5893825E-2,5.293895E-2,1.999271E-2,2.0529121E-2,7.926977E-2,4.6147536E-2,0E0,0E0,0E0,0E0,0E0,0E0,0E0,0E0,0E0,0E0],"parents":[2147483647,0,0,1,1,2,2,3,3,4,4,6,6,9,9,10,10,11,11,12,12,13,13,14,14],"right_children":[2,4,6,8,10,-1,12,-1,-1,14,16,18,20,22,24,-1,-1,-1,-1,-1,-1,-1,-1,-1,-1],"split_conditions":[9.2109607E2,2.4E1,8.923213E6,4.999413E5,8.373168E5,1.427166E-2,9.03E2,8.007317E-4,-1.2544555E-2,1.7701529E2,2.71E2,6.475E3,3.8410637E0,1.0437426E8,4.6E2,-5.026084E-4,5.5157645E-3,8.537397E-3,2.7568683E-3,-8.9754385E-4,2.7505076E-3,-1.9381105E-3,-1.0140199E-2,1.56754E-3,-1.8546974E-3],"split_indices":[51,2,50,47,27,0,0,0,0,51,0,7,52,5,0,0,0,0,0,0,0,0,0,0,0],"split_type":[0,0,0,0,0,0,0,0,0,0,0,0,0,0,0,0,0,0,0,0,0,0,0,0,0],"sum_hessian":[1.03E2,7.6E1,2.7E1,1.2E1,6.4E1,4E0,2.3E1,5E0,7E0,5.1E1,1.3E1,8E0,1.5E1,1.2E1,3.9E1,6E0,7E0,4E0,4E0,5E0,1E1,8E0,4E0,1.4E1,2.5E1],"tree_param":{"num_deleted":"0","num_feature":"114","num_nodes":"25","size_leaf_vector":"1"}},{"base_weights":[-1.2137661E-2,-2.41435E-2,1.1301716E-2,-9.748628E-3,-1.0884485E-2,1.2351769E-2,-9.7476214E-2,-1.9912697E-2,7.044833E-2,-1.4118503E-2,-1.0827946E-2,-2.4552369E-3,9.4937795E-4,4.6539297E-3,2.7734188E-5,-1.8823935E-3,1.5877327E-3],"categories":[],"categories_nodes":[],"categories_segments":[],"categories_sizes":[],"default_left":[0,0,0,0,0,0,0,0,0,0,0,0,0,0,0,0,0],"id":39,"left_children":[1,3,-1,-1,5,7,9,11,13,15,-1,-1,-1,-1,-1,-1,-1],"loss_changes":[3.084054E-1,2.2933994E-1,0E0,0E0,1.9033834E-1,1.419869E-1,2.0239636E-1,5.896514E-2,4.6043247E-2,1.590195E-2,0E0,0E0,0E0,0E0,0E0,0E0,0E0],"parents":[2147483647,0,0,1,1,4,4,5,5,6,6,7,7,8,8,9,9],"right_children":[2,4,-1,-1,6,8,10,12,14,16,-1,-1,-1,-1,-1,-1,-1],"split_conditions":[1.0946131E2,2.7362996E7,1.1301716E-2,-9.748628E-3,3.1821228E7,4.5570032E2,6.4044494E5,2.8729197E8,3.0345E4,3.7587825E11,-1.0827946E-2,-2.4552369E-3,9.4937795E-4,4.6539297E-3,2.7734188E-5,-1.8823935E-3,1.5877327E-3],"split_indices":[55,3,0,0,44,51,27,3,7,30,0,0,0,0,0,0,0],"split_type":[0,0,0,0,0,0,0,0,0,0,0,0,0,0,0,0,0],"sum_hessian":[1.03E2,9.9E1,4E0,6E0,9.3E1,7.4E1,1.9E1,4.8E1,2.6E1,1.2E1,7E0,2.7E1,2.1E1,1.9E1,7E0,8E0,4E0],"tree_param":{"num_deleted":"0","num_feature":"114","num_nodes":"17","size_leaf_vector":"1"}},{"base_weights":[-2.4515488E-3,-2.7310349E-2,1.5183645E-1,-7.117808E-2,1.5298521E-2,1.431435E-2,5.2659772E-2,-1.6780844E-1,-3.9674964E-2,4.436161E-2,-7.910263E-3,4.89261E-3,2.2786412E-4,-1.1453481E-2,-2.0737662E-3,-7.2296252E-3,-1.3219081E-2,6.0435515E-3,2.7797883E-2,-4.309796E-3,2.5625742E-4,-2.910998E-3,1.9888019E-3],"categories":[],"categories_nodes":[],"categories_segments":[],"categories_sizes":[],"default_left":[0,0,0,0,0,0,0,0,0,0,0,0,0,0,0,0,0,0,0,0,0,0,0],"id":40,"left_children":[1,3,5,7,9,-1,11,13,15,17,-1,-1,-1,-1,-1,-1,19,-1,21,-1,-1,-1,-1],"loss_changes":[4.1453606E-1,1.7492028E-1,1.9288632E-1,1.3337342E-1,2.5346583E-1,0E0,2.2144308E-2,8.083856E-2,1.0064021E-1,5.1427417E-2,0E0,0E0,0E0,0E0,0E0,0E0,4.175973E-2,0E0,4.23977E-2,0E0,0E0,0E0,0E0],"parents":[2147483647,0,0,1,1,2,2,3,3,4,4,6,6,7,7,8,8,9,9,16,16,18,18],"right_children":[2,4,6,8,10,-1,12,14,16,18,-1,-1,-1,-1,-1,-1,20,-1,22,-1,-1,-1,-1],"split_conditions":[1.6934047E3,3.3969492E2,1.3050505E0,9.576E3,6.6932364E7,1.431435E-2,9.5157854E-2,4.215E3,7.784166E5,3.0953E4,-7.910263E-3,4.89261E-3,2.2786412E-4,-1.1453481E-2,-2.0737662E-3,-7.2296252E-3,1.81E2,6.0435515E-3,2.7056329E10,-4.309796E-3,2.5625742E-4,-2.910998E-3,1.9888019E-3],"split_indices":[51,51,56,7,44,0,37,15,44,28,0,0,0,0,0,0,9,0,30,0,0,0,0],"split_type":[0,0,0,0,0,0,0,0,0,0,0,0,0,0,0,0,0,0,0,0,0,0,0],"sum_hessian":[1.06E2,9.2E1,1.4E1,4.5E1,4.7E1,5E0,9E0,1E1,3.5E1,4.1E1,6E0,4E0,5E0,6E0,4E0,6E0,2.9E1,6E0,3.5E1,5E0,2.4E1,4E0,3.1E1],"tree_param":{"num_deleted":"0","num_feature":"114","num_nodes":"23","size_leaf_vector":"1"}},{"base_weights":[-3.1929982E-3,-3.8124528E-2,9.327995E-2,-1.5563559E-2,-1.532031E-1,1.349334E-2,5.3187333E-2,-1.1065026E-1,1.830162E-2,-4.313492E-2,-1.5729984E-2,4.077348E-3,-4.547103E-4,-5.1029943E-2,-1.0859236E-2,7.857075E-2,-1.4143853E-2,3.56896E-4,-4.1653686E-3,3.3454304E-5,-6.5682214E-3,-1.5812243E-3,5.5198492E-3,7.3407294E-4,-3.372662E-3],"categories":[],"categories_nodes":[],"categories_segments":[],"categories_sizes":[],"default_left":[0,0,0,0,0,0,0,0,0,0,0,0,0,0,0,0,0,0,0,0,0,0,0,0,0],"id":41,"left_children":[1,3,5,7,9,-1,11,13,15,17,-1,-1,-1,19,-1,21,23,-1,-1,-1,-1,-1,-1,-1,-1],"loss_changes":[3.6751062E-1,2.0531833E-1,1.9675338E-1,2.2099377E-1,2.2581509E-1,0E0,4.7515355E-2,1.07540384E-1,1.00839786E-1,1.9575164E-2,0E0,0E0,0E0,5.580489E-2,0E0,7.136514E-2,5.5081546E-2,0E0,0E0,0E0,0E0,0E0,0E0,0E0,0E0],"parents":[2147483647,0,0,1,1,2,2,3,3,4,4,6,6,7,7,8,8,9,9,13,13,15,15,16,16],"right_children":[2,4,6,8,10,-1,12,14,16,18,-1,-1,-1,20,-1,22,24,-1,-1,-1,-1,-1,-1,-1,-1],"split_conditions":[9.2109607E2,2.71261E1,7.6247287E-1,1.7701529E2,1.8982013E8,1.349334E-2,1.1778515E7,1.300722E6,5.416243E-2,1.188944E6,-1.5729984E-2,4.077348E-3,-4.547103E-4,1.0437426E8,-1.0859236E-2,6.973055E7,9.607843E-1,3.56896E-4,-4.1653686E-3,3.3454304E-5,-6.5682214E-3,-1.5812243E-3,5.5198492E-3,7.3407294E-4,-3.372662E-3],"split_indices":[51,55,56,51,5,0,46,31,38,10,0,0,0,5,0,5,56,0,0,0,0,0,0,0,0],"split_type":[0,0,0,0,0,0,0,0,0,0,0,0,0,0,0,0,0,0,0,0,0,0,0,0,0],"sum_hessian":[1.07E2,7.9E1,2.8E1,6.7E1,1.2E1,4E0,2.4E1,1.7E1,5E1,8E0,4E0,1.6E1,8E0,1.2E1,5E0,1.7E1,3.3E1,4E0,4E0,8E0,4E0,4E0,1.3E1,2.2E1,1.1E1],"tree_param":{"num_deleted":"0","num_feature":"114","num_nodes":"25","size_leaf_vector":"1"}},{"base_weights":[1.230109E-4,-3.551147E-2,8.981936E-2,-1.690418E-2,-9.053997E-3,1.2978956E-2,5.1270388E-2,-1.123182E-1,1.5874669E-2,1.1105984E-1,1.6601248E-2,-4.5245674E-2,-9.892269E-3,7.207263E-2,-2.0894166E-2,7.598116E-3,2.207591E-3,2.2942151E-3,-1.137359E-3,-4.6862164E-3,-1.4025794E-4,-1.2390655E-3,5.2092886E-3,-7.3830843E-6,-6.314408E-3],"categories":[],"categories_nodes":[],"categories_segments":[],"categories_sizes":[],"default_left":[0,0,0,0,0,0,0,0,0,0,0,0,0,0,0,0,0,0,0,0,0,0,0,0,0],"id":42,"left_children":[1,3,5,7,-1,-1,9,11,13,15,17,19,-1,21,23,-1,-1,-1,-1,-1,-1,-1,-1,-1,-1],"loss_changes":[3.2601422E-1,1.99368E-1,1.8182503E-1,2.082021E-1,0E0,0E0,4.9977496E-2,9.27598E-2,1.0482258E-1,1.9091941E-2,2.1492027E-2,2.3175228E-2,0E0,6.911947E-2,6.9325455E-2,0E0,0E0,0E0,0E0,0E0,0E0,0E0,0E0,0E0,0E0],"parents":[2147483647,0,0,1,1,2,2,3,3,6,6,7,7,8,8,9,9,10,10,11,11,13,13,14,14],"right_children":[2,4,6,8,-1,-1,10,12,14,16,18,20,-1,22,24,-1,-1,-1,-1,-1,-1,-1,-1,-1,-1],"split_conditions":[9.2109607E2,3.895276E7,8.923213E6,1.7701529E2,-9.053997E-3,1.2978956E-2,9.03E2,1.723751E6,5.416243E-2,6.475E3,6.1108776E7,7E1,-9.892269E-3,6.973054E7,2.0301949E1,7.598116E-3,2.207591E-3,2.2942151E-3,-1.137359E-3,-4.6862164E-3,-1.4025794E-4,-1.2390655E-3,5.2092886E-3,-7.3830843E-6,-6.314408E-3],"split_indices":[51,44,50,51,0,0,0,10,38,7,44,8,0,5,55,0,0,0,0,0,0,0,0,0,0],"split_type":[0,0,0,0,0,0,0,0,0,0,0,0,0,0,0,0,0,0,0,0,0,0,0,0,0],"sum_hessian":[1E2,7.2E1,2.8E1,6.5E1,7E0,4E0,2.4E1,1.6E1,4.9E1,8E0,1.6E1,1E1,6E0,1.9E1,3E1,4E0,4E0,9E0,7E0,4E0,6E0,5E0,1.4E1,2.6E1,4E0],"tree_param":{"num_deleted":"0","num_feature":"114","num_nodes":"25","size_leaf_vector":"1"}},{"base_weights":[-6.222127E-3,-3.6533844E-2,1.0290731E-1,-1.8400118E-2,-1.0812034E-2,1.24232E-2,4.378468E-2,-7.115545E-2,2.9416211E-2,3.1386795E-3,-8.5842184E-4,-1.5495458E-1,-3.1437613E-2,4.743661E-3,8.4534146E-2,-1.13657E-2,-8.095685E-4,-2.4686882E-3,2.6582319E-3,1.9182134E-3,-2.1745441E-3,5.701074E-3,8.2987885E-4],"categories":[],"categories_nodes":[],"categories_segments":[],"categories_sizes":[],"default_left":[0,0,0,0,0,0,0,0,0,0,0,0,0,0,0,0,0,0,0,0,0,0,0],"id":43,"left_children":[1,3,5,7,-1,-1,9,11,13,-1,-1,15,17,19,21,-1,-1,-1,-1,-1,-1,-1,-1],"loss_changes":[3.345496E-1,2.5937802E-1,1.8448734E-1,1.8624046E-1,0E0,0E0,2.2168491E-2,1.11619815E-1,5.2635096E-2,0E0,0E0,1.1307204E-1,4.3169163E-2,4.8952267E-2,2.3748808E-2,0E0,0E0,0E0,0E0,0E0,0E0,0E0,0E0],"parents":[2147483647,0,0,1,1,2,2,3,3,6,6,7,7,8,8,11,11,12,12,13,13,14,14],"right_children":[2,4,6,8,-1,-1,10,12,14,-1,-1,16,18,20,22,-1,-1,-1,-1,-1,-1,-1,-1],"split_conditions":[9.2109607E2,3.895276E7,8.962557E8,1.5060505E10,-1.0812034E-2,1.24232E-2,7.203151E7,2.1768606E5,7.9522475E5,3.1386795E-3,-8.5842184E-4,2.8945708E6,4.422E3,5.723264E-1,2.183E3,-1.13657E-2,-8.095685E-4,-2.4686882E-3,2.6582319E-3,1.9182134E-3,-2.1745441E-3,5.701074E-3,8.2987885E-4],"split_indices":[51,44,10,30,0,0,44,27,27,0,0,44,15,26,1,0,0,0,0,0,0,0,0],"split_type":[0,0,0,0,0,0,0,0,0,0,0,0,0,0,0,0,0,0,0,0,0,0,0],"sum_hessian":[9.9E1,7.8E1,2.1E1,7.2E1,6E0,5E0,1.6E1,3.4E1,3.8E1,1.2E1,4E0,1E1,2.4E1,2.7E1,1.1E1,6E0,4E0,2E1,4E0,1.6E1,1.1E1,7E0,4E0],"tree_param":{"num_deleted":"0","num_feature":"114","num_nodes":"23","size_leaf_vector":"1"}},{"base_weights":[2.1154871E-3,-1.7860511E-2,1.3894266E-1,-9.476789E-3,-8.136942E-3,1.5053539E-2,4.1072425E-2,1.844665E-3,-8.9364275E-3,3.6888898E-3,-3.9736665E-4,-3.3426736E-2,3.193389E-2,-2.4994677E-3,1.2758529E-3,3.894466E-4,3.6896851E-3],"categories":[],"categories_nodes":[],"categories_segments":[],"categories_sizes":[],"default_left":[0,0,0,0,0,0,0,0,0,0,0,0,0,0,0,0,0],"id":44,"left_children":[1,3,5,-1,7,-1,9,11,-1,-1,-1,13,15,-1,-1,-1,-1],"loss_changes":[3.0040687E-1,1.6210276E-1,2.1752E-1,0E0,1.6016653E-1,0E0,1.739338E-2,9.4460875E-2,0E0,0E0,0E0,4.4043858E-2,4.9257834E-2,0E0,0E0,0E0,0E0],"parents":[2147483647,0,0,1,1,2,2,4,4,6,6,7,7,11,11,12,12],"right_children":[2,4,6,-1,8,-1,10,12,-1,-1,-1,14,16,-1,-1,-1,-1],"split_conditions":[1.6934047E3,4.8979328E8,2.249985E5,-9.476789E-3,7.294459E7,1.5053539E-2,7.203151E7,2.6960093E10,-8.9364275E-3,3.6888898E-3,-3.9736665E-4,1.4939779E0,7.9522475E5,-2.4994677E-3,1.2758529E-3,3.894466E-4,3.6896851E-3],"split_indices":[51,30,32,0,44,0,44,30,0,0,0,41,27,0,0,0,0],"split_type":[0,0,0,0,0,0,0,0,0,0,0,0,0,0,0,0,0],"sum_hessian":[1.08E2,9.5E1,1.3E1,4E0,9.1E1,4E0,9E0,8.7E1,4E0,5E0,4E0,4E1,4.7E1,3.1E1,9E0,3.1E1,1.6E1],"tree_param":{"num_deleted":"0","num_feature":"114","num_nodes":"17","size_leaf_vector":"1"}},{"base_weights":[-6.1980556E-3,-2.7926218E-2,1.274812E-1,-9.020497E-3,-1.051486E-1,1.3119426E-2,3.0743375E-2,-9.588773E-2,1.8093826E-2,-3.2913014E-2,-1.4047202E-2,3.5960784E-3,-4.8340106E-4,-8.687938E-3,-2.8092723E-2,-7.420402E-3,6.694188E-2,8.694159E-4,-3.0909334E-3,-4.0804287E-3,7.4919336E-4,6.926674E-4,-3.9630984E-3,6.4246748E-3,1.4784875E-3],"categories":[],"categories_nodes":[],"categories_segments":[],"categories_sizes":[],"default_left":[0,0,0,0,0,0,0,0,0,0,0,0,0,0,0,0,0,0,0,0,0,0,0,0,0],"id":45,"left_children":[1,3,5,7,9,-1,11,13,15,17,-1,-1,-1,-1,19,21,23,-1,-1,-1,-1,-1,-1,-1,-1],"loss_changes":[3.1144816E-1,1.3336642E-1,1.9490185E-1,1.7838594E-1,2.2621694E-1,0E0,1.800501E-2,9.415266E-2,7.278332E-2,2.2456665E-2,0E0,0E0,0E0,0E0,2.7552329E-2,6.278509E-2,4.3183595E-2,0E0,0E0,0E0,0E0,0E0,0E0,0E0,0E0],"parents":[2147483647,0,0,1,1,2,2,3,3,4,4,6,6,7,7,8,8,9,9,14,14,15,15,16,16],"right_children":[2,4,6,8,10,-1,12,14,16,18,-1,-1,-1,-1,20,22,24,-1,-1,-1,-1,-1,-1,-1,-1],"split_conditions":[1.6934047E3,2.71261E1,1E0,1.7701529E2,5.396051E5,1.3119426E-2,6.0671224E7,2.6239506E5,4.684559E2,1E0,-1.4047202E-2,3.5960784E-3,-4.8340106E-4,-8.687938E-3,1.1485E4,9.607843E-1,1.9887656E8,8.694159E-4,-3.0909334E-3,-4.0804287E-3,7.4919336E-4,6.926674E-4,-3.9630984E-3,6.4246748E-3,1.4784875E-3],"split_indices":[51,55,6,51,27,0,44,27,51,63,0,0,0,0,7,56,10,0,0,0,0,0,0,0,0],"split_type":[0,0,0,0,0,0,0,0,0,0,0,0,0,0,0,0,0,0,0,0,0,0,0,0,0],"sum_hessian":[1.05E2,9.1E1,1.4E1,7.4E1,1.7E1,5E0,9E0,1.7E1,5.7E1,1.3E1,4E0,4E0,5E0,7E0,1E1,3.8E1,1.9E1,5E0,8E0,4E0,6E0,3E1,8E0,6E0,1.3E1],"tree_param":{"num_deleted":"0","num_feature":"114","num_nodes":"25","size_leaf_vector":"1"}},{"base_weights":[5.7814396E-3,-5.4694787E-2,4.7927033E-2,-1.4094411E-1,-2.5181921E-2,1.0789627E-2,3.2535072E-2,-1.475601E-3,-9.8100295E-3,-7.1788365E-3,-4.147173E-3,1.2773597E-2,8.0606155E-2,1.1181166E-2,-3.3023236E-3,2.7344838E-2,-9.497724E-4,8.121625E-4,9.90398E-2,-1.6712063E-4,2.842274E-3,2.8890695E-3,1.4894357E-4,6.765921E-3,2.2561117E-3],"categories":[],"categories_nodes":[],"categories_segments":[],"categories_sizes":[],"default_left":[0,0,0,0,0,0,0,0,0,0,0,0,0,0,0,0,0,0,0,0,0,0,0,0,0],"id":46,"left_children":[1,3,5,7,9,-1,11,-1,-1,-1,13,15,17,19,-1,21,-1,-1,23,-1,-1,-1,-1,-1,-1],"loss_changes":[2.7279487E-1,1.084512E-1,1.5966919E-1,6.599556E-2,8.605308E-2,0E0,5.5017743E-2,0E0,0E0,0E0,2.9804662E-2,2.066502E-2,1.8431224E-2,1.7252494E-2,0E0,2.2832107E-2,0E0,0E0,2.0477712E-2,0E0,0E0,0E0,0E0,0E0,0E0],"parents":[2147483647,0,0,1,1,2,2,3,3,4,4,6,6,10,10,11,11,12,12,13,13,15,15,18,18],"right_children":[2,4,6,8,10,-1,12,-1,-1,-1,14,16,18,20,-1,22,-1,-1,24,-1,-1,-1,-1,-1,-1],"split_conditions":[3.3969492E2,9.576E3,5.1555286E2,5.171382E0,1.085E2,1.0789627E-2,8.991292E5,-1.475601E-3,-9.8100295E-3,-7.1788365E-3,1.0527294E6,2.0749E4,4.684559E2,1.3017557E7,-3.3023236E-3,6.995449E-1,-9.497724E-4,8.121625E-4,2.6790404E-1,-1.6712063E-4,2.842274E-3,2.8890695E-3,1.4894357E-4,6.765921E-3,2.2561117E-3],"split_indices":[51,7,32,52,51,0,27,0,0,0,27,7,51,44,0,26,0,0,37,0,0,0,0,0,0],"split_type":[0,0,0,0,0,0,0,0,0,0,0,0,0,0,0,0,0,0,0,0,0,0,0,0,0],"sum_hessian":[1.05E2,4.3E1,6.2E1,1E1,3.3E1,4E0,5.8E1,4E0,6E0,4E0,2.9E1,4.2E1,1.6E1,2.4E1,5E0,2.9E1,1.3E1,4E0,1.2E1,1.9E1,5E0,1.2E1,1.7E1,6E0,6E0],"tree_param":{"num_deleted":"0","num_feature":"114","num_nodes":"25","size_leaf_vector":"1"}},{"base_weights":[-1.0335803E-3,-1.1889829E-2,1.0609675E-2,-7.455741E-3,-1.3296616E-3,-4.7288157E-2,2.4308346E-2,-1.0982223E-2,-8.039962E-3,3.720695E-2,-5.4351036E-2,-1.9211364E-3,2.9847594E-3,1.0002593E-3,3.8478165E-3,-5.0332015E-3,2.3443392E-4],"categories":[],"categories_nodes":[],"categories_segments":[],"categories_sizes":[],"default_left":[0,0,0,0,0,0,0,0,0,0,0,0,0,0,0,0,0],"id":47,"left_children":[1,3,-1,-1,5,7,9,11,-1,13,15,-1,-1,-1,-1,-1,-1],"loss_changes":[2.4795006E-1,1.4775579E-1,0E0,0E0,1.1190823E-1,1.421577E-1,6.3912615E-2,5.7044707E-2,0E0,3.5150975E-2,2.617323E-2,0E0,0E0,0E0,0E0,0E0,0E0],"parents":[2147483647,0,0,1,1,4,4,5,5,6,6,7,7,9,9,10,10],"right_children":[2,4,-1,-1,6,8,10,12,-1,14,16,-1,-1,-1,-1,-1,-1],"split_conditions":[8.08923E3,2.7362996E7,1.0609675E-2,-7.455741E-3,1.3655606E6,3.747436E7,8.077319E0,4.684559E2,-8.039962E-3,8.27251E5,6.2958473E4,-1.9211364E-3,2.9847594E-3,1.0002593E-3,3.8478165E-3,-5.0332015E-3,2.3443392E-4],"split_indices":[51,3,0,0,31,44,52,51,0,27,32,0,0,0,0,0,0],"split_type":[0,0,0,0,0,0,0,0,0,0,0,0,0,0,0,0,0],"sum_hessian":[1.03E2,9.9E1,4E0,6E0,9.3E1,3.3E1,6E1,2.6E1,7E0,5.2E1,8E0,1.9E1,7E0,3.8E1,1.4E1,4E0,4E0],"tree_param":{"num_deleted":"0","num_feature":"114","num_nodes":"17","size_leaf_vector":"1"}},{"base_weights":[-6.2660603E-3,-1.6907223E-2,1.0193342E-2,-5.9840363E-2,1.6530767E-2,-8.962838E-3,-4.2983867E-2,3.592605E-2,-5.236512E-3,8.856409E-3,-1.0074714E-1,5.746905E-2,-9.273243E-3,-6.102673E-4,3.3219536E-3,-8.959923E-3,-4.294303E-4,-1.4757642E-3,3.4407412E-3,-1.543721E-3,1.321179E-3],"categories":[],"categories_nodes":[],"categories_segments":[],"categories_sizes":[],"default_left":[0,0,0,0,0,0,0,0,0,0,0,0,0,0,0,0,0,0,0,0,0],"id":48,"left_children":[1,3,-1,5,7,-1,9,11,-1,13,15,17,19,-1,-1,-1,-1,-1,-1,-1,-1],"loss_changes":[2.4042779E-1,1.44549E-1,0E0,8.328703E-2,1.4013281E-1,0E0,1.2067082E-1,4.9219333E-2,0E0,2.8425273E-2,1.4158107E-1,3.984806E-2,1.4511578E-2,0E0,0E0,0E0,0E0,0E0,0E0,0E0,0E0],"parents":[2147483647,0,0,1,1,3,3,4,4,6,6,7,7,9,9,10,10,11,11,12,12],"right_children":[2,4,-1,6,8,-1,10,12,-1,14,16,18,20,-1,-1,-1,-1,-1,-1,-1,-1],"split_conditions":[8.08923E3,3.3969492E2,1.0193342E-2,6.0002598E4,7.6599895E9,-8.962838E-3,1.04376936E8,2.3415E4,-5.236512E-3,5.492906E8,3.8343488E6,3.08E2,8.739511E2,-6.102673E-4,3.3219536E-3,-8.959923E-3,-4.294303E-4,-1.4757642E-3,3.4407412E-3,-1.543721E-3,1.321179E-3],"split_indices":[51,51,0,27,3,0,5,7,0,3,31,9,51,0,0,0,0,0,0,0,0],"split_type":[0,0,0,0,0,0,0,0,0,0,0,0,0,0,0,0,0,0,0,0,0],"sum_hessian":[1.03E2,9.9E1,4E0,4.3E1,5.6E1,4E0,3.9E1,4.9E1,7E0,2.1E1,1.8E1,3.3E1,1.6E1,1.6E1,5E0,9E0,9E0,4E0,2.9E1,1E1,6E0],"tree_param":{"num_deleted":"0","num_feature":"114","num_nodes":"21","size_leaf_vector":"1"}},{"base_weights":[-5.068226E-3,-1.7938424E-2,9.893605E-3,-8.109021E-3,-9.733705E-3,-7.180184E-2,9.63577E-3,-9.864158E-3,-8.7781865E-3,-2.4259267E-2,3.6510907E-2,1.2461743E-3,-2.1533903E-3,3.4281705E-3,-2.1721213E-3,5.3512095E-3,1.2466683E-3],"categories":[],"categories_nodes":[],"categories_segments":[],"categories_sizes":[],"default_left":[0,0,0,0,0,0,0,0,0,0,0,0,0,0,0,0,0],"id":49,"left_children":[1,3,-1,-1,5,7,9,11,-1,13,15,-1,-1,-1,-1,-1,-1],"loss_changes":[2.7239367E-1,1.144745E-1,0E0,0E0,1.1129678E-1,1.4425123E-1,6.5562025E-2,1.9122342E-2,0E0,6.3421026E-2,2.9440556E-2,0E0,0E0,0E0,0E0,0E0,0E0],"parents":[2147483647,0,0,1,1,4,4,5,5,6,6,7,7,9,9,10,10],"right_children":[2,4,-1,-1,6,8,10,12,-1,14,16,-1,-1,-1,-1,-1,-1],"split_conditions":[1.0946131E2,2.7362996E7,9.893605E-3,-8.109021E-3,5.8930116E0,9.0964574E-1,2.7056329E10,2.71E2,-8.7781865E-3,3.2504233E9,3.2145E4,1.2461743E-3,-2.1533903E-3,3.4281705E-3,-2.1721213E-3,5.3512095E-3,1.2466683E-3],"split_indices":[55,3,0,0,53,26,30,0,0,30,28,0,0,0,0,0,0],"split_type":[0,0,0,0,0,0,0,0,0,0,0,0,0,0,0,0,0],"sum_hessian":[1E2,9.5E1,5E0,4E0,9.1E1,2.1E1,7E1,1.4E1,7E0,3.1E1,3.9E1,7E0,7E0,5E0,2.6E1,4E0,3.5E1],"tree_param":{"num_deleted":"0","num_feature":"114","num_nodes":"17","size_leaf_vector":"1"}},{"base_weights":[4.3296636E-4,-1.8305214E-2,1.0908555E-1,-8.930909E-3,-8.351336E-3,1.1693366E-2,1.0101413E-3,-8.063173E-3,1.0208733E-3,-5.303007E-3,1.1471659E-2,-8.029477E-4,2.068341E-3],"categories":[],"categories_nodes":[],"categories_segments":[],"categories_sizes":[],"default_left":[0,0,0,0,0,0,0,0,0,0,0,0,0],"id":50,"left_children":[1,3,5,7,-1,-1,-1,-1,9,-1,11,-1,-1],"loss_changes":[2.0762797E-1,1.2240645E-1,1.667282E-1,1.2857084E-1,0E0,0E0,0E0,0E0,9.134143E-2,0E0,6.3075826E-2,0E0,0E0],"parents":[2147483647,0,0,1,1,2,2,3,3,8,8,10,10],"right_children":[2,4,6,8,-1,-1,-1,-1,10,-1,12,-1,-1],"split_conditions":[1.6934047E3,1.698E4,1E0,4.8979328E8,-8.351336E-3,1.1693366E-2,1.0101413E-3,-8.063173E-3,2.5333811E-5,-5.303007E-3,2.7056329E10,-8.029477E-4,2.068341E-3],"split_indices":[51,1,6,30,0,0,0,0,37,0,30,0,0],"split_type":[0,0,0,0,0,0,0,0,0,0,0,0,0],"sum_hessian":[1E2,8.6E1,1.4E1,8.2E1,4E0,5E0,9E0,4E0,7.8E1,6E0,7.2E1,3.8E1,3.4E1],"tree_param":{"num_deleted":"0","num_feature":"114","num_nodes":"13","size_leaf_vector":"1"}},{"base_weights":[1.5928176E-3,8.613685E-3,-9.0773115E-3,-7.1394867E-3,-1.7489897E-4,-7.427335E-2,1.618677E-2,3.6935395E-5,-1.2391573E-2,2.7418042E-2,-4.6934113E-2,-2.6487152E-3,1.4741253E-3,6.625301E-4,3.272708E-3,-4.7557815E-3,-4.808962E-4],"categories":[],"categories_nodes":[],"categories_segments":[],"categories_sizes":[],"default_left":[0,0,0,0,0,0,0,0,0,0,0,0,0,0,0,0,0],"id":51,"left_children":[1,-1,3,-1,5,7,9,11,-1,13,15,-1,-1,-1,-1,-1,-1],"loss_changes":[1.928387E-1,0E0,1.1903987E-1,0E0,1.1395307E-1,2.2531703E-1,5.5874273E-2,2.2707991E-2,0E0,3.5183545E-2,2.1337071E-2,0E0,0E0,0E0,0E0,0E0,0E0],"parents":[2147483647,0,0,2,2,4,4,5,5,6,6,7,7,9,9,10,10],"right_children":[2,-1,4,-1,6,8,10,12,-1,14,16,-1,-1,-1,-1,-1,-1],"split_conditions":[2.1656772E2,8.613685E-3,2.5333811E-5,-7.1394867E-3,2.4E1,2.2E1,8.009554E0,1.438E3,-1.2391573E-2,8.991292E5,3.1749217E4,-2.6487152E-3,1.4741253E-3,6.625301E-4,3.272708E-3,-4.7557815E-3,-4.808962E-4],"split_indices":[32,0,37,0,2,2,52,1,0,27,32,0,0,0,0,0,0],"split_type":[0,0,0,0,0,0,0,0,0,0,0,0,0,0,0,0,0],"sum_hessian":[1.02E2,5E0,9.7E1,5E0,9.2E1,1.6E1,7.6E1,1.2E1,4E0,6.5E1,1.1E1,4E0,8E0,4.9E1,1.6E1,4E0,7E0],"tree_param":{"num_deleted":"0","num_feature":"114","num_nodes":"17","size_leaf_vector":"1"}}]},"name":"gbtree"},"learner_model_param":{"base_score":"3.956198E-1","boost_from_average":"1","num_class":"0","num_feature":"114","num_target":"1"},"objective":{"name":"reg:squarederror","reg_loss_param":{"scale_pos_weight":"1"}}},"version":[2,0,3]}